{"learner":{"attributes":{"scikit_learn":"{\"use_label_encoder\": false, \"n_estimators\": 50, \"objective\": \"binary:logistic\", \"max_depth\": 6, \"max_leaves\": null, \"max_bin\": null, \"grow_policy\": null, \"learning_rate\": null, \"verbosity\": null, \"booster\": null, \"tree_method\": \"gpu_hist\", \"gamma\": null, \"min_child_weight\": null, \"max_delta_step\": null, \"subsample\": null, \"sampling_method\": null, \"colsample_bytree\": null, \"colsample_bylevel\": null, \"colsample_bynode\": null, \"reg_alpha\": null, \"reg_lambda\": null, \"scale_pos_weight\": null, \"base_score\": null, \"missing\": NaN, \"num_parallel_tree\": null, \"random_state\": 0, \"n_jobs\": -1, \"monotone_constraints\": null, \"interaction_constraints\": null, \"importance_type\": \"gain\", \"gpu_id\": 0, \"validate_parameters\": null, \"predictor\": null, \"enable_categorical\": false, \"max_cat_to_onehot\": null, \"eval_metric\": null, \"early_stopping_rounds\": null, \"callbacks\": null, \"classes_\": [false, true], \"kwargs\": {}, \"n_classes_\": 2, \"_features_count\": 13, \"n_features_in_\": 13, \"_estimator_type\": \"classifier\"}"},"feature_names":[],"feature_types":[],"gradient_booster":{"model":{"gbtree_model_param":{"num_parallel_tree":"1","num_trees":"50","size_leaf_vector":"0"},"tree_info":[0,0,0,0,0,0,0,0,0,0,0,0,0,0,0,0,0,0,0,0,0,0,0,0,0,0,0,0,0,0,0,0,0,0,0,0,0,0,0,0,0,0,0,0,0,0,0,0,0,0],"trees":[{"base_weights":[1.944454E0,1.9477649E0,1.524171E0,1.9613407E0,1.890943E0,1.2986182E0,1.5933324E0,1.9922565E0,1.9564246E0,1.249861E0,1.8239862E0,1.8666452E0,1.9245746E0,1.6929718E0,1.4861536E0,5.9896874E-1,1.9802902E0,1.4052923E0,1.1380343E0,1.6574143E0,5.80115E-1,1.4930437E0,1.9283662E0,1.4548925E0,1.8508875E0,1.9004496E0,1.8315288E0,1.9016021E0,1.9591099E0,1.836237E0,4E-1,1.9683869E0,5.964492E-1,1.2017397E0,8.5714287E-1,1.404356E0,1.5849124E0,3E-1,-5.454546E-2,1.20000005E-1,1.8423818E0,1.9686588E0,1.9402146E0,1.9568746E0,1.8520727E0,1.8476088E0,1.73754E0,1.8281515E0,1.9127115E0,1.8876106E0,1.9360086E0,-0E0,1.8663485E0,6.0465115E-1,1.6067972E0,1.5174954E0,1.2196099E0,1.6159185E0,1.8004434E0,5.9512097E-1,5.761343E-1,3.7794393E-1,1.7907254E-1,5.9465164E-1,5.89356E-1,4.7397837E-1,5.755237E-1,3.9243245E-1,5.527993E-1,4.90425E-1,3.8207886E-1,3.011583E-1,4.3371254E-1,5.0465494E-1,4.2380953E-1,5.3261167E-1,3.9281085E-1,-2.5714287E-1,2.6456693E-1,5.7664675E-1,4.883721E-1,5.2534616E-1,5.752407E-1,5.7574916E-1,5.84037E-1,2.8110918E-1,5.643544E-1,5.05141E-1,5.683192E-1,5.346175E-1,5.593548E-1,5.5932873E-1,4.729951E-1,5.878146E-1,2.3373495E-1,5.684874E-1,4.6391752E-1,5.7074404E-1,5.8339053E-1,3.487059E-1,4.85625E-1,3.0874705E-1,3.9825785E-1,4.5255542E-1,3.943167E-1],"categories":[],"categories_nodes":[],"categories_segments":[],"categories_sizes":[],"default_left":[1,1,1,1,1,1,1,1,1,1,1,1,1,1,1,0,1,1,1,1,0,1,1,1,1,1,1,1,1,1,1,1,0,1,1,1,1,0,0,0,1,1,1,1,1,1,1,0,1,0,1,0,1,1,1,1,1,1,1,0,0,0,0,0,0,0,0,0,0,0,0,0,0,0,0,0,0,0,0,0,0,0,0,0,0,0,0,0,0,0,0,0,0,0,0,0,0,0,0,0,0,0,0,0,0],"id":0,"left_children":[1,3,5,7,11,9,13,15,27,17,29,25,21,19,23,-1,31,55,33,57,-1,53,49,35,51,47,45,43,41,39,37,59,-1,101,61,103,99,-1,-1,-1,95,63,97,93,91,89,87,85,81,65,83,-1,79,77,75,73,71,69,67,-1,-1,-1,-1,-1,-1,-1,-1,-1,-1,-1,-1,-1,-1,-1,-1,-1,-1,-1,-1,-1,-1,-1,-1,-1,-1,-1,-1,-1,-1,-1,-1,-1,-1,-1,-1,-1,-1,-1,-1,-1,-1,-1,-1,-1,-1],"loss_changes":[2.6005E3,1.428E3,2.2607812E2,2.235E2,2.88875E2,8.577295E1,1.1696875E2,6.6875E0,1.865E2,5.313037E1,4.3201294E0,2.431875E2,2.4275E2,4.6367188E1,5.886133E1,0E0,1.1875E0,2.5509766E1,3.1832764E1,2.7080078E1,0E0,1.3159082E2,4.26875E1,3.0476562E1,1.2090454E1,9.0375E1,1.5090625E2,1.616875E2,2.185E2,1.7960205E0,1.490909E0,1.22265625E1,0E0,3.1077393E1,3.519052E1,3.1685059E1,1.7925293E1,0E0,0E0,0E0,1.5125732E0,4.175E1,6.5375E1,8.269531E1,1.05515625E2,9.315625E1,1.2250781E2,7.247539E2,6.61875E1,2.2E2,1.9E1,0E0,2.4464111E0,6.1748398E1,5.5949463E1,1.1680908E1,2.2926758E1,2.322754E1,2.1026611E1,0E0,0E0,0E0,0E0,0E0,0E0,0E0,0E0,0E0,0E0,0E0,0E0,0E0,0E0,0E0,0E0,0E0,0E0,0E0,0E0,0E0,0E0,0E0,0E0,0E0,0E0,0E0,0E0,0E0,0E0,0E0,0E0,0E0,0E0,0E0,0E0,0E0,0E0,0E0,0E0,0E0,0E0,0E0,0E0,0E0,0E0],"parents":[2147483647,0,0,1,1,2,2,3,3,5,5,4,4,6,6,7,7,9,9,13,13,12,12,14,14,11,11,8,8,10,10,16,16,18,18,23,23,30,30,29,29,28,28,27,27,26,26,25,25,22,22,24,24,21,21,17,17,19,19,31,31,34,34,41,41,49,49,58,58,57,57,56,56,55,55,54,54,53,53,52,52,48,48,50,50,47,47,46,46,45,45,44,44,43,43,40,40,42,42,36,36,33,33,35,35],"right_children":[2,4,6,8,12,10,14,16,28,18,30,26,22,20,24,-1,32,56,34,58,-1,54,50,36,52,48,46,44,42,40,38,60,-1,102,62,104,100,-1,-1,-1,96,64,98,94,92,90,88,86,82,66,84,-1,80,78,76,74,72,70,68,-1,-1,-1,-1,-1,-1,-1,-1,-1,-1,-1,-1,-1,-1,-1,-1,-1,-1,-1,-1,-1,-1,-1,-1,-1,-1,-1,-1,-1,-1,-1,-1,-1,-1,-1,-1,-1,-1,-1,-1,-1,-1,-1,-1,-1,-1],"split_conditions":[3.9789947E5,7.43705E4,8.332749E0,1E0,1.0083362E1,3.5E1,6.7119744E5,1.086E3,2.6655863E1,6.7119744E5,1.422E3,5.0305283E1,3E0,2.2E1,1.4805782E1,5.9896874E-1,1.207E3,2.349162E5,3.2103E4,1.2201877E1,5.80115E-1,1.7E1,1.6442033E2,5E0,4.7410126E1,5.9140106E2,1.8211203E5,2E0,3.8777113E4,3.1E2,1E0,5E0,5.964492E-1,3E0,8.31E2,9.1E2,3.31E2,3E-1,-5.454546E-2,1.20000005E-1,5.0861946E1,2E0,1.6442033E2,3.07E2,1.6123372E5,5.0861946E1,2.55E2,9E0,2.2E1,3E0,5.0254284E1,-0E0,1.08E2,1.7479E4,2.0223566E5,8.75E2,7.184206E0,4.3E1,2.1E1,5.9512097E-1,5.761343E-1,3.7794393E-1,1.7907254E-1,5.9465164E-1,5.89356E-1,4.7397837E-1,5.755237E-1,3.9243245E-1,5.527993E-1,4.90425E-1,3.8207886E-1,3.011583E-1,4.3371254E-1,5.0465494E-1,4.2380953E-1,5.3261167E-1,3.9281085E-1,-2.5714287E-1,2.6456693E-1,5.7664675E-1,4.883721E-1,5.2534616E-1,5.752407E-1,5.7574916E-1,5.84037E-1,2.8110918E-1,5.643544E-1,5.05141E-1,5.683192E-1,5.346175E-1,5.593548E-1,5.5932873E-1,4.729951E-1,5.878146E-1,2.3373495E-1,5.684874E-1,4.6391752E-1,5.7074404E-1,5.8339053E-1,3.487059E-1,4.85625E-1,3.0874705E-1,3.9825785E-1,4.5255542E-1,3.943167E-1],"split_indices":[6,6,2,3,2,4,6,10,6,6,10,1,4,9,2,0,10,7,5,2,0,3,7,11,1,7,6,8,6,10,11,11,0,11,10,10,10,0,0,0,1,8,7,3,7,1,3,12,3,12,1,0,8,5,6,10,2,4,3,0,0,0,0,0,0,0,0,0,0,0,0,0,0,0,0,0,0,0,0,0,0,0,0,0,0,0,0,0,0,0,0,0,0,0,0,0,0,0,0,0,0,0,0,0,0],"split_type":[0,0,0,0,0,0,0,0,0,0,0,0,0,0,0,0,0,0,0,0,0,0,0,0,0,0,0,0,0,0,0,0,0,0,0,0,0,0,0,0,0,0,0,0,0,0,0,0,0,0,0,0,0,0,0,0,0,0,0,0,0,0,0,0,0,0,0,0,0,0,0,0,0,0,0,0,0,0,0,0,0,0,0,0,0,0,0,0,0,0,0,0,0,0,0,0,0,0,0,0,0,0,0,0,0],"sum_hessian":[1.8705015E6,1.8558775E6,1.4624E4,1.4979552E6,3.5792225E5,3.4365E3,1.11875E4,2.05462E5,1.2924932E6,3.14775E3,2.8875E2,2.07828E5,1.5009425E5,5.79E3,5.3975E3,1.509725E5,5.44895E4,1.31225E3,1.8355E3,5.05175E3,7.3825E2,1.31075E3,1.487835E5,4.976E3,4.215E2,1.05865E5,1.01963E5,6.03865E4,1.2321068E6,2.86E2,2.75E0,2.179375E4,3.269575E4,1.4935E3,3.42E2,3.59175E3,1.38425E3,1E0,1.75E0,1.5E0,2.845E2,8.184115E5,4.1369525E5,2.85205E4,3.1866E4,8.705125E4,1.491175E4,1.5373E4,9.0492E4,2.353325E4,1.2525025E5,3.5E0,4.18E2,1.495E2,1.16125E3,8.135E2,4.9875E2,3.92525E3,1.1265E3,1.64775E4,5.31625E3,1.3275E2,2.0925E2,1.917775E5,6.26634E5,2.14625E3,2.1387E4,9.15E1,1.035E3,3.717E3,2.0825E2,2.58E2,2.4075E2,3.105E2,5.03E2,7.38E2,4.2325E2,2.35E1,1.26E2,3.33E2,8.5E1,2.599E3,8.7893E4,4.894975E4,7.63005E4,8.645E2,1.45085E4,1.11155E4,3.79625E3,1.787075E4,6.91805E4,3.049225E4,1.37375E3,2.845925E4,6.125E1,2.37E2,4.75E1,4.3426E4,3.7026925E5,1.0525E2,1.279E3,6.335E2,8.6E2,1.65725E3,1.9345E3],"tree_param":{"num_deleted":"0","num_feature":"13","num_nodes":"105","size_leaf_vector":"0"}},{"base_weights":[1.4978169E0,1.5007702E0,1.1344674E0,1.511238E0,1.4377313E0,9.681764E-1,1.197703E0,1.5189779E0,1.4918003E0,9.2357254E-1,1.4040024E0,1.4122015E0,1.4736367E0,1.280589E0,1.1088034E0,1.4629675E0,1.5223792E0,1.0413148E0,8.4048146E-1,1.2515708E0,4.4782403E-1,1.1004207E0,1.4780114E0,1.3651773E0,1.0736929E0,1.3502553E0,1.4361262E0,1.4754777E0,1.510318E0,1.4112194E0,1.04466625E-1,1.4705874E0,1.2364972E0,9.650585E-1,1.2373003E0,1.4528253E0,1.4911413E0,1.4316639E0,1.0108279E0,1.5021113E0,1.5291501E0,1.4121212E0,1.4832219E0,1.4194282E0,1.486388E0,1.3654659E0,3.1169334E-1,9.026943E-1,1.1145962E0,4.3172246E-1,1.1957244E0,1.02716886E-1,1.404448E0,1.2151853E0,1.3682579E0,1.5160457E0,1.5362005E0,8.4987295E-1,-8.223124E-1,4.1082063E-1,4.4567418E-1,2.398087E-1,3.2339373E-1,9.863576E-2,4.306999E-1,4.1461542E-1,3.487965E-1,-3.5191244E-1,3.5356466E-2,2.6507914E-1,1.284396E-1,2.5593257E-1,4.6089125E-1,4.573945E-1,4.5221913E-1,2.928085E-1,4.2107457E-1,3.6991054E-1,2.6409432E-1,7.927081E-2,4.23965E-1,4.1676238E-1,-1.6181055E-1,4.0509534E-1,2.8752065E-1,-1.864782E-1,1.8953045E-1,3.363844E-1,-2.8607855E-2,1.376532E-1,3.0556342E-1,4.4109738E-1,4.5589957E-1,3.6716425E-1,3.599133E-2,4.3282473E-1,4.121172E-1,4.3971872E-1,4.5092988E-1,2.5038996E-1,4.4240794E-1,4.5929554E-1,4.3948856E-1,4.4939247E-1,4.593555E-1,4.382137E-1,4.4937867E-1,1.9756949E-1,3.8477305E-1,4.3946984E-1,4.1558206E-1,4.321455E-1,3.5256243E-1,4.239801E-1,3.502721E-1],"categories":[],"categories_nodes":[],"categories_segments":[],"categories_sizes":[],"default_left":[1,1,0,1,1,1,1,1,1,1,1,1,1,1,0,0,1,1,1,1,0,0,0,1,1,1,1,1,1,1,0,1,0,1,1,1,1,1,1,1,1,0,1,1,1,1,1,1,1,0,1,1,1,1,1,1,1,1,1,0,0,0,0,0,0,0,0,0,0,0,0,0,0,0,0,0,0,0,0,0,0,0,0,0,0,0,0,0,0,0,0,0,0,0,0,0,0,0,0,0,0,0,0,0,0,0,0,0,0,0,0,0,0,0,0],"id":1,"left_children":[1,3,5,7,11,9,13,15,27,17,29,25,21,19,23,31,55,33,57,53,-1,49,35,51,47,45,43,41,39,37,-1,59,111,61,113,109,105,63,107,103,101,99,97,95,91,65,93,89,87,85,83,81,79,77,75,73,71,69,67,-1,-1,-1,-1,-1,-1,-1,-1,-1,-1,-1,-1,-1,-1,-1,-1,-1,-1,-1,-1,-1,-1,-1,-1,-1,-1,-1,-1,-1,-1,-1,-1,-1,-1,-1,-1,-1,-1,-1,-1,-1,-1,-1,-1,-1,-1,-1,-1,-1,-1,-1,-1,-1,-1,-1,-1],"loss_changes":[1.844E3,1.1235E3,1.4469727E2,2.18E2,2.20625E2,7.309082E1,7.259668E1,1.97E2,1.2375E2,3.3114746E1,2.2009277E0,2.0853125E2,1.6317188E2,3.0095703E1,4.2228027E1,1.0159375E2,8.4E1,2.0225708E1,3.2587646E1,1.7754395E1,0E0,7.426294E1,3.084375E1,2.8661133E1,2.8888672E1,6.249219E2,8.3875E1,1.0659375E2,2.7875E1,1.4229126E0,0E0,8.590625E1,2.2772217E1,1.852832E1,3.2321167E0,2.5882812E1,1.134375E1,9.8986816E-1,1.1115608E0,1.40625E1,4.734375E0,8.713906E2,6.64375E1,8E1,1.140625E1,1.2963281E2,1.00009575E2,4.2226135E1,2.7971191E1,3.1564577E1,3.6364624E1,1.6119373E1,5.2595215E0,1.980664E1,1.3581787E1,4.8E1,2.05625E1,2.8509155E1,4.0875854E0,0E0,0E0,0E0,0E0,0E0,0E0,0E0,0E0,0E0,0E0,0E0,0E0,0E0,0E0,0E0,0E0,0E0,0E0,0E0,0E0,0E0,0E0,0E0,0E0,0E0,0E0,0E0,0E0,0E0,0E0,0E0,0E0,0E0,0E0,0E0,0E0,0E0,0E0,0E0,0E0,0E0,0E0,0E0,0E0,0E0,0E0,0E0,0E0,0E0,0E0,0E0,0E0,0E0,0E0,0E0,0E0],"parents":[2147483647,0,0,1,1,2,2,3,3,5,5,4,4,6,6,7,7,9,9,13,13,12,12,14,14,11,11,8,8,10,10,15,15,17,17,22,22,29,29,28,28,27,27,26,26,25,25,24,24,21,21,23,23,19,19,16,16,18,18,31,31,33,33,37,37,45,45,58,58,57,57,56,56,55,55,54,54,53,53,52,52,51,51,50,50,49,49,48,48,47,47,44,44,46,46,43,43,42,42,41,41,40,40,39,39,36,36,38,38,35,35,32,32,34,34],"right_children":[2,4,6,8,12,10,14,16,28,18,30,26,22,20,24,32,56,34,58,54,-1,50,36,52,48,46,44,42,40,38,-1,60,112,62,114,110,106,64,108,104,102,100,98,96,92,66,94,90,88,86,84,82,80,78,76,74,72,70,68,-1,-1,-1,-1,-1,-1,-1,-1,-1,-1,-1,-1,-1,-1,-1,-1,-1,-1,-1,-1,-1,-1,-1,-1,-1,-1,-1,-1,-1,-1,-1,-1,-1,-1,-1,-1,-1,-1,-1,-1,-1,-1,-1,-1,-1,-1,-1,-1,-1,-1,-1,-1,-1,-1,-1,-1],"split_conditions":[3.9789947E5,8.961284E4,8.481206E0,4.4134336E4,1.0167366E1,3.5E1,6.7119744E5,2.6655863E1,9.934554E0,6.7119744E5,1.422E3,8E1,3E0,2.3E1,2E0,1.3042976E5,1.1593307E1,5E0,1.6E1,1.2141478E1,4.4782403E-1,1.7E1,5.0149757E1,5.25E3,3.4E1,7.8E1,5E0,1.6442033E2,5.227686E1,5.1220768E1,1.04466625E-1,7.655232E0,4.902E3,7.184206E0,5.0473495E1,1.7463423E5,2.7172612E3,3.1E2,7.65E2,6E0,2.75E2,7E0,5.7E1,5.053117E1,5.3E1,7.3E1,3.97E2,9.513203E0,3.3E1,1.7479E4,2.0223566E5,4.74723E4,9.7E1,4.3E1,2.1E1,2.0016914E4,3E0,2.73E2,5E0,4.1082063E-1,4.4567418E-1,2.398087E-1,3.2339373E-1,9.863576E-2,4.306999E-1,4.1461542E-1,3.487965E-1,-3.5191244E-1,3.5356466E-2,2.6507914E-1,1.284396E-1,2.5593257E-1,4.6089125E-1,4.573945E-1,4.5221913E-1,2.928085E-1,4.2107457E-1,3.6991054E-1,2.6409432E-1,7.927081E-2,4.23965E-1,4.1676238E-1,-1.6181055E-1,4.0509534E-1,2.8752065E-1,-1.864782E-1,1.8953045E-1,3.363844E-1,-2.8607855E-2,1.376532E-1,3.0556342E-1,4.4109738E-1,4.5589957E-1,3.6716425E-1,3.599133E-2,4.3282473E-1,4.121172E-1,4.3971872E-1,4.5092988E-1,2.5038996E-1,4.4240794E-1,4.5929554E-1,4.3948856E-1,4.4939247E-1,4.593555E-1,4.382137E-1,4.4937867E-1,1.9756949E-1,3.8477305E-1,4.3946984E-1,4.1558206E-1,4.321455E-1,3.5256243E-1,4.239801E-1,3.502721E-1],"split_indices":[6,6,2,6,2,4,6,6,2,6,10,3,4,9,8,7,2,11,12,2,0,3,1,5,4,3,11,7,1,1,0,2,5,2,1,6,7,10,10,11,3,12,4,1,4,3,10,2,12,5,6,7,10,4,3,6,4,8,11,0,0,0,0,0,0,0,0,0,0,0,0,0,0,0,0,0,0,0,0,0,0,0,0,0,0,0,0,0,0,0,0,0,0,0,0,0,0,0,0,0,0,0,0,0,0,0,0,0,0,0,0,0,0,0,0],"split_type":[0,0,0,0,0,0,0,0,0,0,0,0,0,0,0,0,0,0,0,0,0,0,0,0,0,0,0,0,0,0,0,0,0,0,0,0,0,0,0,0,0,0,0,0,0,0,0,0,0,0,0,0,0,0,0,0,0,0,0,0,0,0,0,0,0,0,0,0,0,0,0,0,0,0,0,0,0,0,0,0,0,0,0,0,0,0,0,0,0,0,0,0,0,0,0,0,0,0,0,0,0,0,0,0,0,0,0,0,0,0,0,0,0,0,0],"sum_hessian":[1.7198439E6,1.7059744E6,1.3869555E4,1.4630121E6,2.4296228E5,3.8256162E3,1.0043938E4,1.0462981E6,4.16714E5,3.4732698E3,3.523465E2,1.4202139E5,1.0094088E5,5.1908325E3,4.853106E3,5.9922367E4,9.8637575E5,1.4322299E3,2.0410399E3,4.5723438E3,6.184887E2,1.1723855E3,9.97685E4,5.8001447E2,4.2730913E3,3.9584875E4,1.02436516E5,2.2152748E5,1.9518652E5,3.4961996E2,2.7265322E0,5.7966504E4,1.9558641E3,1.0353195E3,3.969104E2,3.4226465E4,6.554203E4,3.3018457E2,1.9435392E1,1.360014E5,5.9185113E4,2.4148203E4,1.9737928E5,7.69136E4,2.5522916E4,3.901318E4,5.7169336E2,8.292854E2,3.443806E3,1.4693637E2,1.0254491E3,1.7607008E1,5.624075E2,3.494192E3,1.078152E3,6.764923E5,3.0988344E5,2.030063E3,1.0976975E1,7.492646E3,5.047386E4,4.2287897E2,6.124405E2,1.494604E0,3.2868997E2,3.605859E4,2.9545881E3,7.8141975E0,3.162778E0,1.8787366E3,1.5132643E2,4.820853E1,3.0983522E5,3.3905944E5,3.3743288E5,9.144098E1,9.86711E2,3.3148184E3,1.7937355E2,4.529654E0,5.578778E2,5.4745455E0,1.21324625E1,6.181151E2,4.0733395E2,2.3115772E1,1.238206E2,3.424956E3,1.8849747E1,1.7267755E2,6.5660785E2,1.7244123E4,8.278793E3,9.835422E1,4.7333914E2,5.0907336E4,2.6006266E4,1.05027305E5,9.235198E4,2.3621162E3,2.1786086E4,5.7518043E4,1.6670704E3,1.1910761E5,1.6893795E4,1.1993023E4,5.3549008E4,9.954713E0,9.4806795E0,2.901899E4,5.2074746E3,4.4668027E2,1.5091838E3,1.0717301E2,2.897374E2],"tree_param":{"num_deleted":"0","num_feature":"13","num_nodes":"115","size_leaf_vector":"0"}},{"base_weights":[1.2848201E0,1.2989576E0,1.1882733E0,1.307497E0,1.2695339E0,1.2090929E0,9.0067047E-1,1.2445723E0,1.3109406E0,1.1764727E0,1.2538053E0,1.2493743E0,1.2892234E0,6.9746333E-1,9.48237E-1,1.3013805E0,1.2007848E0,1.1014277E0,1.2056391E0,6.560645E-1,1.1676273E0,3.9996356E-1,1.285286E0,1.0367726E0,8.577356E-1,1.1770357E0,1.2594912E0,1.337957E0,1.3060645E0,8.6751014E-1,1.2588738E0,1.3041867E0,1.7618151E-1,1.118655E0,2.2082882E-1,1.2513888E0,1.2902501E0,4.8546034E-1,9.938546E-1,1.2274487E0,1.2740701E0,1.3165457E0,1.2954746E0,4.0281096E-1,1.324665E0,1.2375605E0,1.286929E0,6.84363E-1,1.2422763E0,8.3245033E-1,1.2036963E0,1.2301325E0,9.0264225E-1,9.9971765E-1,1.2343417E0,6.111274E-1,9.8618704E-1,1.1020714E0,1.2425357E0,1.1261958E0,1.2203497E0,3.7661007E-1,3.9709044E-1,3.4058627E-1,2.634476E-1,2.432671E-1,2.5026493E-2,3.8283736E-1,3.958813E-1,3.277846E-1,3.6872113E-1,1.347497E-1,3.5990947E-1,3.33962E-1,3.823332E-1,3.332904E-1,5.2424934E-2,4.708449E-2,3.044154E-1,1.274833E-1,2.0580925E-1,3.1584835E-1,3.8142744E-1,3.0389577E-1,1.6253915E-1,1.9489749E-1,3.6467332E-1,1.7813895E-2,3.7260413E-1,-1.0089278E-1,3.6601645E-1,2.0075314E-1,2.634771E-1,1.605645E-1,3.7509724E-1,3.8038477E-1,3.631058E-1,-5.283263E-2,3.4904873E-1,3.9394525E-1,3.9967468E-1,3.8670602E-1,3.9484793E-1,4.0221268E-1,3.941966E-1,3.6988285E-1,3.8504103E-1,3.7284097E-1,3.4811524E-1,3.852491E-1,3.9265102E-1,3.208749E-1,1.4440262E-1,2.6852724E-1,3.8768348E-1,1.8189627E-1,-5.950136E-1,1.4390947E-1,-6.9601975E-2],"categories":[],"categories_nodes":[],"categories_segments":[],"categories_sizes":[],"default_left":[1,1,1,1,1,1,1,0,1,1,1,1,1,1,1,1,1,1,1,1,1,0,1,1,0,0,1,1,1,1,1,1,1,1,1,0,1,0,0,1,1,1,1,0,1,1,1,1,1,1,0,1,1,1,1,1,0,0,1,0,1,0,0,0,0,0,0,0,0,0,0,0,0,0,0,0,0,0,0,0,0,0,0,0,0,0,0,0,0,0,0,0,0,0,0,0,0,0,0,0,0,0,0,0,0,0,0,0,0,0,0,0,0,0,0,0,0,0,0],"id":2,"left_children":[1,3,5,7,11,9,13,15,27,17,29,25,21,19,23,31,57,33,59,55,51,-1,35,53,49,47,45,43,41,37,39,61,115,63,117,113,109,65,111,107,105,103,101,-1,99,95,67,97,93,91,89,87,85,83,81,79,77,75,73,71,69,-1,-1,-1,-1,-1,-1,-1,-1,-1,-1,-1,-1,-1,-1,-1,-1,-1,-1,-1,-1,-1,-1,-1,-1,-1,-1,-1,-1,-1,-1,-1,-1,-1,-1,-1,-1,-1,-1,-1,-1,-1,-1,-1,-1,-1,-1,-1,-1,-1,-1,-1,-1,-1,-1,-1,-1,-1,-1],"loss_changes":[1.9755E3,3.1575E2,1.1067344E3,2.105E2,1.111875E2,2.5017188E2,1.2009668E2,1.2486719E2,1.20625E2,2.1704688E2,1.4136719E2,1.01328125E2,2.31875E1,4.5432373E1,8.02041E1,6.958594E1,1.1697656E2,4.2353125E2,8.2578125E1,3.1792053E1,2.0498047E0,0E0,2.059375E1,3.618457E1,4.282959E1,5.5361914E2,7.25625E1,7.171875E0,8.55E1,4.5157043E1,3.2734375E1,1.928125E1,5.3374283E1,1.0859766E2,6.3090576E1,2.449414E2,1.134375E1,3.0931099E1,2.7025146E1,2.2691406E1,1.7117188E1,2.26875E1,5.05625E1,0E0,1.515625E0,5.5109375E1,1.7632812E1,8.327804E2,8.600586E1,3.4358643E1,8.951111E0,2.0353546E0,2.3905945E0,2.56333E1,4.066162E0,2.6549805E1,5.9922028E0,7.0293945E1,8.182617E1,5.5862305E2,6.616406E1,0E0,0E0,0E0,0E0,0E0,0E0,0E0,0E0,0E0,0E0,0E0,0E0,0E0,0E0,0E0,0E0,0E0,0E0,0E0,0E0,0E0,0E0,0E0,0E0,0E0,0E0,0E0,0E0,0E0,0E0,0E0,0E0,0E0,0E0,0E0,0E0,0E0,0E0,0E0,0E0,0E0,0E0,0E0,0E0,0E0,0E0,0E0,0E0,0E0,0E0,0E0,0E0,0E0,0E0,0E0,0E0,0E0,0E0],"parents":[2147483647,0,0,1,1,2,2,3,3,5,5,4,4,6,6,7,7,9,9,13,13,12,12,14,14,11,11,8,8,10,10,15,15,17,17,22,22,29,29,30,30,28,28,27,27,26,26,25,25,24,24,20,20,23,23,19,19,16,16,18,18,31,31,33,33,37,37,46,46,60,60,59,59,58,58,57,57,56,56,55,55,54,54,53,53,52,52,51,51,50,50,49,49,48,48,45,45,47,47,44,44,42,42,41,41,40,40,39,39,36,36,38,38,35,35,32,32,34,34],"right_children":[2,4,6,8,12,10,14,16,28,18,30,26,22,20,24,32,58,34,60,56,52,-1,36,54,50,48,46,44,42,38,40,62,116,64,118,114,110,66,112,108,106,104,102,-1,100,96,68,98,94,92,90,88,86,84,82,80,78,76,74,72,70,-1,-1,-1,-1,-1,-1,-1,-1,-1,-1,-1,-1,-1,-1,-1,-1,-1,-1,-1,-1,-1,-1,-1,-1,-1,-1,-1,-1,-1,-1,-1,-1,-1,-1,-1,-1,-1,-1,-1,-1,-1,-1,-1,-1,-1,-1,-1,-1,-1,-1,-1,-1,-1,-1,-1,-1,-1,-1],"split_conditions":[9.870113E4,5.2586766E4,3.9789947E5,2.6655863E1,9.634809E0,1.0083362E1,7.655232E0,2E0,1E0,8E1,3E0,1.6442033E2,1E0,3.5E1,6.7119744E5,3.07E2,1.5977E4,7.8E1,1.6442033E2,5.1997562E1,5.0861946E1,3.9996356E-1,1.6442033E2,4.4E1,1.4805782E1,7E0,5.7E1,1.086E3,2.257981E4,3.4242E4,5.00993E1,2E0,1.016E3,7.3E1,1.7463423E5,6E0,5E0,9.43E2,3.0389962E5,1.7463423E5,2.7172612E3,1.3E1,5E0,4.0281096E-1,1.207E3,5.0370262E1,5E0,5.1330086E1,3E0,3.4E1,4.7410126E1,3.74E2,7.65E2,4.3E1,4.815018E1,2E0,2E0,1.5519E4,8.571718E0,1.2E1,3.2E1,3.7661007E-1,3.9709044E-1,3.4058627E-1,2.634476E-1,2.432671E-1,2.5026493E-2,3.8283736E-1,3.958813E-1,3.277846E-1,3.6872113E-1,1.347497E-1,3.5990947E-1,3.33962E-1,3.823332E-1,3.332904E-1,5.2424934E-2,4.708449E-2,3.044154E-1,1.274833E-1,2.0580925E-1,3.1584835E-1,3.8142744E-1,3.0389577E-1,1.6253915E-1,1.9489749E-1,3.6467332E-1,1.7813895E-2,3.7260413E-1,-1.0089278E-1,3.6601645E-1,2.0075314E-1,2.634771E-1,1.605645E-1,3.7509724E-1,3.8038477E-1,3.631058E-1,-5.283263E-2,3.4904873E-1,3.9394525E-1,3.9967468E-1,3.8670602E-1,3.9484793E-1,4.0221268E-1,3.941966E-1,3.6988285E-1,3.8504103E-1,3.7284097E-1,3.4811524E-1,3.852491E-1,3.9265102E-1,3.208749E-1,1.4440262E-1,2.6852724E-1,3.8768348E-1,1.8189627E-1,-5.950136E-1,1.4390947E-1,-6.9601975E-2],"split_indices":[6,6,6,6,2,2,2,8,3,3,4,7,3,4,6,3,5,3,7,1,1,0,7,4,2,12,4,10,6,5,1,11,10,3,6,12,11,10,6,6,7,4,11,0,10,1,11,1,9,4,1,10,10,4,1,11,12,5,2,12,4,0,0,0,0,0,0,0,0,0,0,0,0,0,0,0,0,0,0,0,0,0,0,0,0,0,0,0,0,0,0,0,0,0,0,0,0,0,0,0,0,0,0,0,0,0,0,0,0,0,0,0,0,0,0,0,0,0,0],"split_type":[0,0,0,0,0,0,0,0,0,0,0,0,0,0,0,0,0,0,0,0,0,0,0,0,0,0,0,0,0,0,0,0,0,0,0,0,0,0,0,0,0,0,0,0,0,0,0,0,0,0,0,0,0,0,0,0,0,0,0,0,0,0,0,0,0,0,0,0,0,0,0,0,0,0,0,0,0,0,0,0,0,0,0,0,0,0,0,0,0,0,0,0,0,0,0,0,0,0,0,0,0,0,0,0,0,0,0,0,0,0,0,0,0,0,0,0,0,0,0],"sum_hessian":[1.4484465E6,1.2634281E6,1.8501838E5,9.791994E5,2.8422875E5,1.7252608E5,1.2492297E4,5.0825062E4,9.283743E5,9.976754E4,7.275854E4,1.404701E5,1.4375866E5,2.3724985E3,1.0119799E4,2.2110727E4,2.8714336E4,2.793358E4,7.183396E4,2.1827026E3,1.897959E2,1.178299E4,1.3197567E5,5.1101714E3,5.0096274E3,1.724945E4,1.2322064E5,1.4189881E5,7.864755E5,9.445075E2,7.181403E4,2.2055562E4,5.5164352E1,2.739733E4,5.3625024E2,1.6891127E4,1.1508455E5,2.3592926E2,7.0857825E2,2.3434576E4,4.8379457E4,3.9520372E5,3.9127178E5,1.04489266E5,3.740955E4,6.850853E4,5.471211E4,2.0184404E3,1.5231009E4,4.6716E3,3.3802737E2,1.506241E2,3.9171803E1,4.308208E3,8.019634E2,1.9236956E3,2.5900714E2,8.543045E3,2.0171291E4,1.1235431E4,6.059853E4,6.3018193E3,1.5753743E4,2.5621639E4,1.7756907E3,1.298253E2,1.0610396E2,4.1146535E4,1.3565576E4,3.8808694E3,5.671766E4,1.1010222E3,1.0134408E4,3.9989138E3,1.6172377E4,8.461667E3,8.137781E1,8.83124E0,2.501759E2,5.5380585E2,1.3698896E3,1.4103165E2,6.609317E2,4.1857144E3,1.224936E2,2.3361698E1,1.5810103E1,1.5734925E0,1.4905061E2,3.3473165E0,3.3468005E2,1.0269045E3,3.6446956E3,1.7216815E2,1.5058841E4,3.2341018E4,3.616751E4,7.2215643E2,1.2962839E3,1.4924583E4,2.2484967E4,2.9826403E5,9.300775E4,3.7770668E4,3.5743306E5,9.024867E3,3.935459E4,1.9054508E4,4.3800684E3,8.674782E4,2.833673E4,6.1641095E2,9.216729E1,1.7412527E3,1.5149874E4,4.6601536E1,8.562815E0,3.4116144E2,1.950888E2],"tree_param":{"num_deleted":"0","num_feature":"13","num_nodes":"119","size_leaf_vector":"0"}},{"base_weights":[1.1546235E0,1.171022E0,1.0328181E0,1.1826539E0,1.1336298E0,7.7941036E-1,1.0652008E0,1.1052784E0,1.18696E0,8.5498744E-1,6.055178E-1,1.1130399E0,1.1634948E0,1.0282354E0,1.1161901E0,1.1732215E0,1.0540957E0,7.8412586E-1,9.977633E-1,9.062701E-1,1.0521467E0,1.1534631E0,1.1986419E0,7.723169E-1,1.1210289E0,1.0445656E0,1.1236638E0,1.1773962E0,1.20898E0,4.843907E-1,7.021042E-1,1.1763229E0,1.314356E-1,8.6867315E-1,6.8273187E-1,1.1978105E0,1.1455683E0,2.2239351E-1,5.741707E-1,1.1940902E0,1.2192175E0,6.252138E-1,9.059128E-1,1.1928518E0,1.1651903E0,1.0996583E0,1.1559559E0,5.562483E-1,1.1115106E0,1.1225114E0,4.1853148E-1,9.724226E-1,5.491442E-1,1.0941315E0,1.0071617E0,1.1327673E0,1.2051843E0,-1.5496925E-1,1.0188762E0,1.1175597E0,9.71674E-1,2.0946905E-1,1.0234584E0,3.3615148E-1,3.5965285E-1,2.8287172E-1,2.2705974E-1,1.7745608E-1,-2.9439224E-2,3.1529582E-1,3.360702E-1,-1.9130538E-3,2.4213208E-1,-3.1582144E-1,2.9362336E-1,3.290351E-1,2.79752E-1,2.2284631E-1,3.4423283E-1,3.133917E-1,2.5802502E-1,-5.395387E-1,7.787358E-2,3.6296126E-1,3.4564802E-1,3.233792E-1,3.483432E-1,2.7411488E-1,3.172589E-1,3.404041E-1,3.124842E-1,1.1596357E-1,3.279875E-1,2.1262725E-1,3.2242867E-1,1.23079615E-2,3.5445344E-1,3.176715E-1,3.4083346E-1,1.246208E-1,3.3538693E-1,8.325873E-3,2.7854884E-1,3.470478E-1,3.5770357E-1,3.4336758E-1,3.5756233E-1,3.6307773E-1,3.558663E-1,1.4062564E-1,2.802793E-1,2.5216296E-1,1.7066437E-1,3.6591172E-1,3.1518924E-1,2.1465297E-1,3.5837862E-1,3.392151E-1,3.5433903E-1,2.1432348E-1,1.1967875E-1,3.361444E-1,3.6089653E-1,1.4264326E-1,-4.0330613E-1,1.8796046E-1,2.4804898E-1],"categories":[],"categories_nodes":[],"categories_segments":[],"categories_sizes":[],"default_left":[1,1,1,1,0,1,1,1,1,1,1,1,0,1,1,1,0,1,1,0,1,1,1,1,1,0,1,1,1,1,1,0,1,1,1,1,1,0,1,0,0,0,1,1,1,1,1,1,1,1,1,0,1,1,0,0,1,1,1,1,0,1,1,0,0,0,0,0,0,0,0,0,0,0,0,0,0,0,0,0,0,0,0,0,0,0,0,0,0,0,0,0,0,0,0,0,0,0,0,0,0,0,0,0,0,0,0,0,0,0,0,0,0,0,0,0,0,0,0,0,0,0,0,0,0,0,0],"id":3,"left_children":[1,3,5,7,11,9,13,15,27,17,29,25,21,19,23,31,59,33,61,57,53,35,55,51,49,47,45,43,39,37,41,63,123,65,125,121,117,67,119,115,113,111,109,107,103,69,105,101,99,97,95,93,91,89,87,85,83,81,79,77,73,71,75,-1,-1,-1,-1,-1,-1,-1,-1,-1,-1,-1,-1,-1,-1,-1,-1,-1,-1,-1,-1,-1,-1,-1,-1,-1,-1,-1,-1,-1,-1,-1,-1,-1,-1,-1,-1,-1,-1,-1,-1,-1,-1,-1,-1,-1,-1,-1,-1,-1,-1,-1,-1,-1,-1,-1,-1,-1,-1,-1,-1,-1,-1,-1,-1],"loss_changes":[2.343875E3,4.4875E2,1.1423438E3,2.6175E2,1.496875E2,2.0698242E2,2.3167188E2,1.4348828E2,1.56E2,1.1053955E2,5.5660034E1,1.04578125E2,3.39375E1,2.0791406E2,8.549219E1,5.759375E1,1.2312891E2,6.248535E1,7.3635254E1,1.4039297E3,1.1197656E2,2.5921875E1,8.208984E0,3.177182E1,5.283203E1,6.380469E2,9.6265625E1,9.69375E1,3.30625E1,4.9898376E1,4.1131958E1,2.1054688E1,2.8146355E1,3.255786E1,2.661316E1,3.359375E0,3.3632812E1,6.447095E1,3.862738E1,2.1453125E1,9.75E0,2.2996155E1,8.568298E0,2.509375E1,6.475E1,7.111719E1,2.0585938E1,4.637572E2,7.662305E1,4.2976562E1,3.1453281E1,9.495087E0,3.0039223E1,6.474219E1,1.3513867E2,1.8974609E0,3.625E0,7.6879913E2,4.254785E1,1.4931055E2,1.4900488E2,1.5013841E1,2.252295E1,0E0,0E0,0E0,0E0,0E0,0E0,0E0,0E0,0E0,0E0,0E0,0E0,0E0,0E0,0E0,0E0,0E0,0E0,0E0,0E0,0E0,0E0,0E0,0E0,0E0,0E0,0E0,0E0,0E0,0E0,0E0,0E0,0E0,0E0,0E0,0E0,0E0,0E0,0E0,0E0,0E0,0E0,0E0,0E0,0E0,0E0,0E0,0E0,0E0,0E0,0E0,0E0,0E0,0E0,0E0,0E0,0E0,0E0,0E0,0E0,0E0,0E0,0E0,0E0],"parents":[2147483647,0,0,1,1,2,2,3,3,5,5,4,4,6,6,7,7,9,9,13,13,12,12,14,14,11,11,8,8,10,10,15,15,17,17,21,21,29,29,28,28,30,30,27,27,26,26,25,25,24,24,23,23,20,20,22,22,19,19,16,16,18,18,31,31,33,33,37,37,45,45,61,61,60,60,62,62,59,59,58,58,57,57,56,56,55,55,54,54,53,53,52,52,51,51,50,50,49,49,48,48,47,47,44,44,46,46,43,43,42,42,41,41,40,40,39,39,36,36,38,38,35,35,32,32,34,34],"right_children":[2,4,6,8,12,10,14,16,28,18,30,26,22,20,24,32,60,34,62,58,54,36,56,52,50,48,46,44,40,38,42,64,124,66,126,122,118,68,120,116,114,112,110,108,104,70,106,102,100,98,96,94,92,90,88,86,84,82,80,78,74,72,76,-1,-1,-1,-1,-1,-1,-1,-1,-1,-1,-1,-1,-1,-1,-1,-1,-1,-1,-1,-1,-1,-1,-1,-1,-1,-1,-1,-1,-1,-1,-1,-1,-1,-1,-1,-1,-1,-1,-1,-1,-1,-1,-1,-1,-1,-1,-1,-1,-1,-1,-1,-1,-1,-1,-1,-1,-1,-1,-1,-1,-1,-1,-1,-1],"split_conditions":[1.0421198E5,5.2586766E4,2.2E1,2.6655863E1,1.0439865E1,6.7119744E5,1.0083362E1,2E0,1.1628131E1,1.083789E1,9.25168E0,1.6442033E2,5.227686E1,1.6442033E2,3E0,3.07E2,1.04E2,8.75E2,3E0,1.3E1,5.0473495E1,1E0,1.1135702E1,2.0223566E5,2.4E1,1.5E1,5.7E1,2.0016914E4,5.2352573E1,3.4E1,5E0,2E0,4.018E4,2.4123E4,5E0,4.794217E1,5E0,9.167E3,5.094282E1,3E0,3.433445E5,1E0,3.88E2,2E0,5E0,8.2E1,5E0,5.1330086E1,3E0,1.6442033E2,1.422988E1,2E0,1.1E1,8.549353E0,5.1318043E1,6.49E2,1.3844718E1,8E1,2.3076872E5,3.7E1,1.09E2,5E0,3.0389962E5,3.3615148E-1,3.5965285E-1,2.8287172E-1,2.2705974E-1,1.7745608E-1,-2.9439224E-2,3.1529582E-1,3.360702E-1,-1.9130538E-3,2.4213208E-1,-3.1582144E-1,2.9362336E-1,3.290351E-1,2.79752E-1,2.2284631E-1,3.4423283E-1,3.133917E-1,2.5802502E-1,-5.395387E-1,7.787358E-2,3.6296126E-1,3.4564802E-1,3.233792E-1,3.483432E-1,2.7411488E-1,3.172589E-1,3.404041E-1,3.124842E-1,1.1596357E-1,3.279875E-1,2.1262725E-1,3.2242867E-1,1.23079615E-2,3.5445344E-1,3.176715E-1,3.4083346E-1,1.246208E-1,3.3538693E-1,8.325873E-3,2.7854884E-1,3.470478E-1,3.5770357E-1,3.4336758E-1,3.5756233E-1,3.6307773E-1,3.558663E-1,1.4062564E-1,2.802793E-1,2.5216296E-1,1.7066437E-1,3.6591172E-1,3.1518924E-1,2.1465297E-1,3.5837862E-1,3.392151E-1,3.5433903E-1,2.1432348E-1,1.1967875E-1,3.361444E-1,3.6089653E-1,1.4264326E-1,-4.0330613E-1,1.8796046E-1,2.4804898E-1],"split_indices":[6,6,3,6,2,6,2,8,2,2,2,7,1,7,4,3,3,10,4,12,1,11,2,6,12,12,4,6,1,4,11,11,5,5,11,1,11,5,1,4,7,11,10,8,11,3,11,1,9,7,2,11,9,2,1,10,2,3,6,4,3,11,6,0,0,0,0,0,0,0,0,0,0,0,0,0,0,0,0,0,0,0,0,0,0,0,0,0,0,0,0,0,0,0,0,0,0,0,0,0,0,0,0,0,0,0,0,0,0,0,0,0,0,0,0,0,0,0,0,0,0,0,0,0,0,0,0],"split_type":[0,0,0,0,0,0,0,0,0,0,0,0,0,0,0,0,0,0,0,0,0,0,0,0,0,0,0,0,0,0,0,0,0,0,0,0,0,0,0,0,0,0,0,0,0,0,0,0,0,0,0,0,0,0,0,0,0,0,0,0,0,0,0,0,0,0,0,0,0,0,0,0,0,0,0,0,0,0,0,0,0,0,0,0,0,0,0,0,0,0,0,0,0,0,0,0,0,0,0,0,0,0,0,0,0,0,0,0,0,0,0,0,0,0,0,0,0,0,0,0,0,0,0,0,0,0,0],"sum_hessian":[1.173991E6,1.03468325E6,1.3930773E5,7.891638E5,2.4551945E5,1.578774E4,1.2352E5,4.161688E4,7.4754694E5,1.1002101E4,4.7856396E3,1.4534912E5,1.0017033E5,7.161947E4,5.1900527E4,1.7871354E4,2.3745525E4,7.3571455E3,3.644955E3,1.1745838E4,5.987363E4,7.795444E4,2.2215889E4,7.224034E2,5.1178125E4,1.9535752E4,1.25813375E5,5.2122312E5,2.2632383E5,2.1257693E3,2.6598704E3,1.7818178E4,5.317635E1,4.0077358E3,3.3494097E3,1.1757713E4,6.619673E4,5.43423E2,1.5823463E3,9.2258266E4,1.3406556E5,1.9342197E3,7.256507E2,2.2995119E5,2.9127197E5,7.21861E4,5.3627273E4,2.3564446E3,1.7179307E4,5.1069754E4,1.0837021E2,3.7911572E2,3.4328766E2,3.095748E4,2.8916148E4,2.0227825E3,2.0193105E4,1.1267338E3,1.06191045E4,1.3408527E4,1.0336998E4,1.1534854E2,3.5296064E3,5.136791E3,1.2681387E4,2.4041262E3,1.6036095E3,2.5216994E2,2.9125305E2,2.146428E4,5.072182E4,8.546934E1,2.9879204E1,3.5462944E1,1.0301535E4,1.9480399E3,1.5815665E3,9.921831E2,1.2416344E4,9.131951E3,1.487153E3,2.2628372E2,9.0045E2,1.853325E4,1.6598549E3,7.030866E2,1.3196959E3,1.0134019E4,1.8782129E4,1.745779E4,1.349969E4,2.6562537E2,7.766229E1,1.0822175E2,2.7089398E2,7.3204216E1,3.5165993E1,9.009933E3,4.205982E4,1.5821765E2,1.702109E4,9.7428577E2,1.3821588E3,2.2271462E5,6.855734E4,4.0734508E4,1.2892764E4,6.3381117E4,1.6657006E5,4.5262962E1,6.8038776E2,3.9819846E2,1.5360212E3,1.336722E5,3.9335434E2,9.876049E1,9.215951E4,4.6718805E4,1.9477924E4,8.7723975E2,7.0510657E2,7.515085E2,1.1006204E4,4.367295E1,9.503399E0,2.4135093E3,9.359003E2],"tree_param":{"num_deleted":"0","num_feature":"13","num_nodes":"127","size_leaf_vector":"0"}},{"base_weights":[1.0615647E0,1.084093E0,9.2642677E-1,1.1002339E0,1.0469744E0,9.540062E-1,5.790221E-1,1.0002798E0,1.1066303E0,9.1123354E-1,1.0166485E0,1.0203977E0,1.0798882E0,5.48838E-1,9.44752E-1,1.0840546E0,9.391322E-1,8.129646E-1,9.507395E-1,3.9249808E-1,6.17092E-1,1.0642982E0,1.1190826E0,6.2653506E-1,9.830238E-1,9.372599E-1,1.0321417E0,1.1476324E0,1.0991764E0,5.645848E-1,1.0238416E0,1.0875955E0,9.514194E-2,8.5710377E-1,3.692677E-1,1.0033841E0,1.0726116E0,2.10026E-1,7.1040106E-1,1.1265726E0,1.0912488E0,9.770331E-1,1.0481559E0,1.1552521E0,1.1268115E0,1.0035796E0,1.0660828E0,3.156076E-1,1.017121E0,8.919353E-1,1.0596178E0,4.214599E-1,1.1203915E0,5.9527093E-1,9.599056E-1,1.0925176E0,1.1335703E0,5.7810324E-1,3.4039372E-1,8.064463E-1,9.979231E-1,9.224278E-1,1.0366905E0,3.1411678E-1,3.407319E-1,2.69398E-1,1.9834071E-1,-1.8745382E-5,2.2405559E-1,3.11458E-1,2.9138914E-1,2.8835392E-1,2.5495756E-1,3.0277845E-1,8.9868546E-2,3.2439616E-1,2.9888004E-1,1.6407841E-1,2.5628558E-1,2.9527614E-1,9.565042E-2,8.495874E-2,2.1070488E-1,3.43919E-1,3.3282205E-1,3.2979268E-1,2.7389315E-1,-5.101061E-1,2.9965305E-1,1.2695977E-1,1.9106016E-1,3.4671035E-1,9.258303E-2,1.5983295E-1,-4.1327453E-3,3.3681202E-1,2.8788447E-1,2.750231E-1,-5.0642326E-2,9.472792E-2,3.072757E-1,-5.9330672E-2,2.3614375E-1,3.328927E-1,3.4158695E-1,3.1555268E-1,3.3351013E-1,3.4002572E-1,3.4706563E-1,2.9737267E-1,3.185171E-1,2.8453106E-1,3.177532E-1,3.117538E-1,3.2889676E-1,3.4445423E-1,3.347898E-1,3.348544E-1,3.1947118E-1,2.9748833E-1,1.0460898E-1,2.3697047E-1,3.2366997E-1,3.7358475E-1,-5.8512624E-2,5.290294E-2,2.959631E-1],"categories":[],"categories_nodes":[],"categories_segments":[],"categories_sizes":[],"default_left":[0,1,0,0,1,1,1,1,1,1,0,1,1,1,0,1,1,0,1,0,1,0,1,1,1,0,1,1,1,0,1,1,1,1,1,0,1,1,1,0,1,1,1,1,1,1,1,1,1,0,1,0,1,0,0,1,0,1,0,1,1,0,1,0,0,0,0,0,0,0,0,0,0,0,0,0,0,0,0,0,0,0,0,0,0,0,0,0,0,0,0,0,0,0,0,0,0,0,0,0,0,0,0,0,0,0,0,0,0,0,0,0,0,0,0,0,0,0,0,0,0,0,0,0,0,0,0],"id":4,"left_children":[1,3,5,7,11,9,13,15,27,17,29,25,21,19,23,31,59,33,61,57,53,35,55,51,49,47,45,43,39,37,41,63,123,65,125,121,117,67,119,115,113,111,109,107,103,69,105,101,99,97,95,93,91,89,87,85,83,81,79,77,73,71,75,-1,-1,-1,-1,-1,-1,-1,-1,-1,-1,-1,-1,-1,-1,-1,-1,-1,-1,-1,-1,-1,-1,-1,-1,-1,-1,-1,-1,-1,-1,-1,-1,-1,-1,-1,-1,-1,-1,-1,-1,-1,-1,-1,-1,-1,-1,-1,-1,-1,-1,-1,-1,-1,-1,-1,-1,-1,-1,-1,-1,-1,-1,-1,-1],"loss_changes":[2.842125E3,4.78375E2,1.2780078E3,3.55625E2,2.11125E2,3.303203E2,1.0785571E2,1.7090234E2,1.59E2,2.8447266E2,1.6251172E2,1.3009375E2,6.502344E1,9.655371E1,8.482483E0,4.9458984E1,1.505918E2,4.124336E2,1.2655469E2,2.648944E1,4.665088E1,3.8195312E1,1.0621094E1,7.9299088E0,3.6952515E0,8.2511816E2,1.1294531E2,1.1484375E1,9.5125E1,4.057843E1,5.5164062E1,2.6357422E1,1.7462914E1,1.5299902E2,2.2712271E2,1.4952637E2,2.1726562E1,2.6050703E1,5.6391846E1,2.153125E1,8.978125E1,3.867383E1,2.4027344E1,7.96875E-1,3.125E0,7.037891E1,3.373828E1,4.5870566E2,7.336621E1,8.315811E0,1.1685181E0,2.9250479E0,3.2378197E-1,4.2228516E1,4.0660675E1,1.2291016E1,4.9023438E0,2.1911163E1,2.9627945E1,7.357886E1,1.0615723E2,1.1005859E2,2.2332031E1,0E0,0E0,0E0,0E0,0E0,0E0,0E0,0E0,0E0,0E0,0E0,0E0,0E0,0E0,0E0,0E0,0E0,0E0,0E0,0E0,0E0,0E0,0E0,0E0,0E0,0E0,0E0,0E0,0E0,0E0,0E0,0E0,0E0,0E0,0E0,0E0,0E0,0E0,0E0,0E0,0E0,0E0,0E0,0E0,0E0,0E0,0E0,0E0,0E0,0E0,0E0,0E0,0E0,0E0,0E0,0E0,0E0,0E0,0E0,0E0,0E0,0E0,0E0,0E0],"parents":[2147483647,0,0,1,1,2,2,3,3,5,5,4,4,6,6,7,7,9,9,13,13,12,12,14,14,11,11,8,8,10,10,15,15,17,17,21,21,29,29,28,28,30,30,27,27,26,26,25,25,24,24,23,23,20,20,22,22,19,19,16,16,18,18,31,31,33,33,37,37,45,45,61,61,60,60,62,62,59,59,58,58,57,57,56,56,55,55,54,54,53,53,52,52,51,51,50,50,49,49,48,48,47,47,44,44,46,46,43,43,42,42,41,41,40,40,39,39,36,36,38,38,35,35,32,32,34,34],"right_children":[2,4,6,8,12,10,14,16,28,18,30,26,22,20,24,32,60,34,62,58,54,36,56,52,50,48,46,44,40,38,42,64,124,66,126,122,118,68,120,116,114,112,110,108,104,70,106,102,100,98,96,94,92,90,88,86,84,82,80,78,74,72,76,-1,-1,-1,-1,-1,-1,-1,-1,-1,-1,-1,-1,-1,-1,-1,-1,-1,-1,-1,-1,-1,-1,-1,-1,-1,-1,-1,-1,-1,-1,-1,-1,-1,-1,-1,-1,-1,-1,-1,-1,-1,-1,-1,-1,-1,-1,-1,-1,-1,-1,-1,-1,-1,-1,-1,-1,-1,-1,-1,-1,-1,-1,-1,-1],"split_conditions":[9.531472E4,4.4134336E4,3.9789947E5,2.6655863E1,1.0030389E1,1.0167366E1,4.4E1,2E0,1E0,8E1,3E0,1.6442033E2,5.227686E1,8.481206E0,2.1E1,3.07E2,1.5977E4,7.3E1,5E0,6.77E2,1.4805782E1,2.2192861E3,5.3E1,5E0,2.4E1,7E0,5.7E1,1.081E3,2E0,2E0,5.020944E1,8.83E2,5.89E2,2.1393778E5,2.1605E4,1.4E1,1E0,3.4426E4,9.43E2,4E1,7.01386E0,5E0,2.7172612E3,2.25E2,1.207E3,5.0370262E1,5E0,1.88E2,3E0,1.346E3,4E0,1E1,1.365E3,1.6442033E2,5.25E3,2.75E2,1.009E3,3.31E2,4.7410126E1,4.959827E1,1.6123372E5,5.053117E1,1.77E2,3.1411678E-1,3.407319E-1,2.69398E-1,1.9834071E-1,-1.8745382E-5,2.2405559E-1,3.11458E-1,2.9138914E-1,2.8835392E-1,2.5495756E-1,3.0277845E-1,8.9868546E-2,3.2439616E-1,2.9888004E-1,1.6407841E-1,2.5628558E-1,2.9527614E-1,9.565042E-2,8.495874E-2,2.1070488E-1,3.43919E-1,3.3282205E-1,3.2979268E-1,2.7389315E-1,-5.101061E-1,2.9965305E-1,1.2695977E-1,1.9106016E-1,3.4671035E-1,9.258303E-2,1.5983295E-1,-4.1327453E-3,3.3681202E-1,2.8788447E-1,2.750231E-1,-5.0642326E-2,9.472792E-2,3.072757E-1,-5.9330672E-2,2.3614375E-1,3.328927E-1,3.4158695E-1,3.1555268E-1,3.3351013E-1,3.4002572E-1,3.4706563E-1,2.9737267E-1,3.185171E-1,2.8453106E-1,3.177532E-1,3.117538E-1,3.2889676E-1,3.4445423E-1,3.347898E-1,3.348544E-1,3.1947118E-1,2.9748833E-1,1.0460898E-1,2.3697047E-1,3.2366997E-1,3.7358475E-1,-5.8512624E-2,5.290294E-2,2.959631E-1],"split_indices":[6,6,6,6,2,2,4,8,3,3,4,7,1,2,3,3,5,3,11,10,2,7,4,11,9,12,4,10,8,11,1,10,10,6,5,12,11,5,10,4,2,11,7,10,10,1,11,3,9,10,11,9,10,7,5,3,10,10,1,1,7,1,3,0,0,0,0,0,0,0,0,0,0,0,0,0,0,0,0,0,0,0,0,0,0,0,0,0,0,0,0,0,0,0,0,0,0,0,0,0,0,0,0,0,0,0,0,0,0,0,0,0,0,0,0,0,0,0,0,0,0,0,0,0,0,0,0],"split_type":[0,0,0,0,0,0,0,0,0,0,0,0,0,0,0,0,0,0,0,0,0,0,0,0,0,0,0,0,0,0,0,0,0,0,0,0,0,0,0,0,0,0,0,0,0,0,0,0,0,0,0,0,0,0,0,0,0,0,0,0,0,0,0,0,0,0,0,0,0,0,0,0,0,0,0,0,0,0,0,0,0,0,0,0,0,0,0,0,0,0,0,0,0,0,0,0,0,0,0,0,0,0,0,0,0,0,0,0,0,0,0,0,0,0,0,0,0,0,0,0,0,0,0,0,0,0,0],"sum_hessian":[9.33878E5,8.0043425E5,1.3344373E5,5.5783294E5,2.4260133E5,1.2362756E5,9.816173E3,3.3559938E4,5.24273E5,7.347439E4,5.0153176E4,1.3423981E5,1.08361516E5,9.070105E3,7.460671E2,1.4152996E4,1.9406941E4,2.1074443E4,5.239995E4,2.7584526E3,6.311653E3,7.754508E4,3.0816434E4,8.196114E1,6.6410596E2,1.6625545E4,1.17614266E5,8.062505E4,4.4364794E5,7.867618E2,4.9366414E4,1.41024E4,5.0595222E1,1.9166793E4,1.9076497E3,9.326931E3,6.821815E4,2.2998456E2,5.567772E2,9.953436E4,3.441136E5,1.6890648E4,3.2475766E4,5.898433E4,2.1640719E4,6.388468E4,5.372959E4,1.8932349E3,1.473231E4,3.091259E2,3.5498007E2,5.922233E1,2.2738817E1,5.936513E3,3.751397E2,1.090224E4,1.9914193E4,6.0242163E2,2.156031E3,5.963206E3,1.3443735E4,3.9425254E4,1.2974695E4,7.6705864E3,6.431814E3,1.5854996E4,3.3117969E3,1.6601425E2,6.3970306E1,3.0814209E4,3.307047E4,2.5692965E4,1.373229E4,1.3228516E4,2.1521931E2,6.1542876E3,6.8204077E3,9.3008374E2,5.033122E3,6.840688E1,2.087624E3,1.7954294E2,4.228787E2,1.297855E4,6.9356436E3,1.0499948E4,4.0229245E2,4.796129E0,3.7034357E2,1.1578779E3,4.7786353E3,2.1384985E1,1.3538314E0,4.6982025E1,1.2240303E1,2.1139207E2,1.43588E2,3.02194E2,6.9318757E0,1.4874194E2,1.4583567E4,9.0668384E2,9.86551E2,8.858793E3,1.2781926E4,4.0965312E4,1.2764277E4,4.1536636E3,5.4830664E4,6.2658467E3,2.620992E4,1.2538318E4,4.3523296E3,3.0572719E4,3.1354088E5,3.2736326E4,6.679803E4,1.0232508E4,5.798564E4,3.122557E2,2.445215E2,2.440138E3,6.8867925E3,9.530371E0,4.1064854E1,1.4543806E3,4.532691E2],"tree_param":{"num_deleted":"0","num_feature":"13","num_nodes":"127","size_leaf_vector":"0"}},{"base_weights":[9.8582774E-1,1.0161147E0,8.323973E-1,1.0348349E0,9.708821E-1,5.209602E-1,8.6808854E-1,9.1007876E-1,1.0430688E0,6.016263E-1,3.505824E-1,9.374747E-1,1.0103364E0,8.227459E-1,9.3422514E-1,1.0136491E0,8.375081E-1,5.423525E-1,8.657579E-1,8.934211E-1,7.6775336E-1,1.075751E0,9.9543804E-1,5.356902E-1,9.399149E-1,8.287476E-1,9.517656E-1,1.0966935E0,1.0334547E0,2.2807407E-1,4.4532904E-1,1.0178318E0,8.069078E-2,6.3525254E-1,4.4860834E-1,1.0937896E0,1.042095E0,4.76223E-1,9.98608E-2,1.0524545E0,1.0143944E0,5.009076E-1,2.0377427E-1,1.1064713E0,1.0695783E0,9.178703E-1,9.9193275E-1,2.6623753E-1,9.2737836E-1,8.500471E-1,9.594872E-1,7.414775E-1,2.9851487E-1,7.258439E-1,9.040326E-1,9.347623E-1,1.003675E0,9.688255E-1,8.470161E-1,9.250252E-1,7.17877E-1,5.877762E-1,9.649539E-1,2.7875122E-1,3.1632966E-1,1.7932485E-1,2.7741933E-1,1.9524646E-1,6.969405E-2,2.8768077E-1,2.6373154E-1,6.796136E-2,2.6541033E-1,1.8437561E-1,2.890425E-1,3.0950707E-1,2.4224475E-1,1.3494869E-1,2.8996074E-1,2.7366996E-1,2.3477489E-1,-3.5064614E-1,2.912577E-1,3.1675166E-1,2.9835737E-1,1.7691265E-1,3.0335155E-1,2.4836463E-1,2.8076145E-1,2.333532E-1,1.7102845E-1,2.9266067E-2,2.382403E-1,1.3366565E-1,2.621922E-1,2.89244E-1,2.0269439E-1,2.039328E-2,2.7366886E-1,2.820202E-1,1.118186E-1,-3.930151E-2,2.0834418E-1,3.1388903E-1,3.2552642E-1,2.921791E-1,3.1512243E-1,3.237261E-1,3.3255556E-1,1.1271223E-1,3.7754253E-3,1.1756527E-1,1.7873675E-1,3.011281E-1,3.1469333E-1,3.23455E-1,3.1291988E-1,2.8526723E-1,3.1945682E-1,-6.1609436E-2,5.9160497E-2,3.102409E-1,3.2931107E-1,-2.3516844E-1,1.3782713E-1,2.7451962E-1,1.2559663E-1],"categories":[],"categories_nodes":[],"categories_segments":[],"categories_sizes":[],"default_left":[0,1,1,1,1,0,1,1,1,1,1,1,1,1,1,1,1,1,1,1,1,1,1,0,1,0,1,1,1,0,1,0,1,1,0,1,1,0,1,1,1,0,0,1,1,1,1,1,0,0,0,1,1,1,1,0,1,0,1,0,1,0,1,0,0,0,0,0,0,0,0,0,0,0,0,0,0,0,0,0,0,0,0,0,0,0,0,0,0,0,0,0,0,0,0,0,0,0,0,0,0,0,0,0,0,0,0,0,0,0,0,0,0,0,0,0,0,0,0,0,0,0,0,0,0,0,0],"id":5,"left_children":[1,3,5,7,11,9,13,15,27,17,29,25,21,19,23,31,59,33,61,57,53,35,55,51,49,47,45,43,39,37,41,63,123,65,125,121,117,67,119,115,113,111,109,107,103,69,105,101,99,97,95,93,91,89,87,85,83,81,79,77,73,71,75,-1,-1,-1,-1,-1,-1,-1,-1,-1,-1,-1,-1,-1,-1,-1,-1,-1,-1,-1,-1,-1,-1,-1,-1,-1,-1,-1,-1,-1,-1,-1,-1,-1,-1,-1,-1,-1,-1,-1,-1,-1,-1,-1,-1,-1,-1,-1,-1,-1,-1,-1,-1,-1,-1,-1,-1,-1,-1,-1,-1,-1,-1,-1,-1],"loss_changes":[3.4235E3,5.20125E2,1.3499609E3,4.461875E2,2.3651562E2,1.7150024E2,3.2609375E2,2.0175977E2,2.0934375E2,1.322605E2,4.6524017E1,1.508125E2,7.942969E1,2.5066797E2,1.0000781E2,4.323828E1,1.6534473E2,6.0038696E1,4.2232788E1,9.818555E1,2.0711523E2,8.154297E0,3.26875E1,3.034378E1,7.605078E1,6.2902637E2,1.16484375E2,1.5265625E1,1.243125E2,5.5753456E1,3.029364E1,3.488379E1,1.6940104E1,3.719055E1,4.78349E1,1.1865234E0,1.0120605E1,2.5281952E1,3.443541E1,4.075E1,6.2546875E1,1.879889E1,1.3971643E1,1.359375E0,4.814453E0,7.3625E1,4.0507812E1,2.881763E2,6.756348E1,3.8043164E2,4.680078E1,1.2731186E1,2.9066046E1,2.2492871E2,1.995996E1,2.1182275E2,2.721875E1,4.7961914E1,7.29209E1,1.8012549E2,1.694602E2,4.385858E1,1.1172363E1,0E0,0E0,0E0,0E0,0E0,0E0,0E0,0E0,0E0,0E0,0E0,0E0,0E0,0E0,0E0,0E0,0E0,0E0,0E0,0E0,0E0,0E0,0E0,0E0,0E0,0E0,0E0,0E0,0E0,0E0,0E0,0E0,0E0,0E0,0E0,0E0,0E0,0E0,0E0,0E0,0E0,0E0,0E0,0E0,0E0,0E0,0E0,0E0,0E0,0E0,0E0,0E0,0E0,0E0,0E0,0E0,0E0,0E0,0E0,0E0,0E0,0E0,0E0,0E0],"parents":[2147483647,0,0,1,1,2,2,3,3,5,5,4,4,6,6,7,7,9,9,13,13,12,12,14,14,11,11,8,8,10,10,15,15,17,17,21,21,29,29,28,28,30,30,27,27,26,26,25,25,24,24,23,23,20,20,22,22,19,19,16,16,18,18,31,31,33,33,37,37,45,45,61,61,60,60,62,62,59,59,58,58,57,57,56,56,55,55,54,54,53,53,52,52,51,51,50,50,49,49,48,48,47,47,44,44,46,46,43,43,42,42,41,41,40,40,39,39,36,36,38,38,35,35,32,32,34,34],"right_children":[2,4,6,8,12,10,14,16,28,18,30,26,22,20,24,32,60,34,62,58,54,36,56,52,50,48,46,44,40,38,42,64,124,66,126,122,118,68,120,116,114,112,110,108,104,70,106,102,100,98,96,94,92,90,88,86,84,82,80,78,74,72,76,-1,-1,-1,-1,-1,-1,-1,-1,-1,-1,-1,-1,-1,-1,-1,-1,-1,-1,-1,-1,-1,-1,-1,-1,-1,-1,-1,-1,-1,-1,-1,-1,-1,-1,-1,-1,-1,-1,-1,-1,-1,-1,-1,-1,-1,-1,-1,-1,-1,-1,-1,-1,-1,-1,-1,-1,-1,-1,-1,-1,-1,-1,-1,-1],"split_conditions":[8.961284E4,4.4134336E4,2.2E1,2.6655863E1,9.934554E0,6.7119744E5,1.0083362E1,2E0,1E0,1.2201877E1,3E0,1.6442033E2,2.1E1,5.00993E1,3E0,3.07E2,1.21E2,8.45E2,2.6E1,8.399071E0,2.55E2,1.009E3,1.3969341E3,2.0223566E5,1.6442033E2,1.8E1,5.7E1,1.086E3,2.0016914E4,1E0,1.25E3,2E0,6.63E2,6E0,4.7590637E1,2.25E2,1.0124065E1,1.029E3,3.4E1,2E0,5E0,9.513203E0,2.4595E4,2.25E2,1.207E3,5.0370262E1,5E0,1.88E2,5.4367477E1,2E0,3.9789947E5,2E0,5E0,1.6147697E5,2E0,6E0,1E0,4.62E2,1.27E2,3.7E1,1.083789E1,2.1E1,3.9789947E5,2.7875122E-1,3.1632966E-1,1.7932485E-1,2.7741933E-1,1.9524646E-1,6.969405E-2,2.8768077E-1,2.6373154E-1,6.796136E-2,2.6541033E-1,1.8437561E-1,2.890425E-1,3.0950707E-1,2.4224475E-1,1.3494869E-1,2.8996074E-1,2.7366996E-1,2.3477489E-1,-3.5064614E-1,2.912577E-1,3.1675166E-1,2.9835737E-1,1.7691265E-1,3.0335155E-1,2.4836463E-1,2.8076145E-1,2.333532E-1,1.7102845E-1,2.9266067E-2,2.382403E-1,1.3366565E-1,2.621922E-1,2.89244E-1,2.0269439E-1,2.039328E-2,2.7366886E-1,2.820202E-1,1.118186E-1,-3.930151E-2,2.0834418E-1,3.1388903E-1,3.2552642E-1,2.921791E-1,3.1512243E-1,3.237261E-1,3.3255556E-1,1.1271223E-1,3.7754253E-3,1.1756527E-1,1.7873675E-1,3.011281E-1,3.1469333E-1,3.23455E-1,3.1291988E-1,2.8526723E-1,3.1945682E-1,-6.1609436E-2,5.9160497E-2,3.102409E-1,3.2931107E-1,-2.3516844E-1,1.3782713E-1,2.7451962E-1,1.2559663E-1],"split_indices":[6,6,3,6,2,6,2,8,3,2,11,7,3,1,4,3,3,10,4,2,3,10,7,6,7,12,4,10,6,11,10,11,10,11,1,10,2,10,4,8,11,2,5,10,10,1,11,3,1,12,6,11,11,6,11,12,11,5,3,4,2,3,6,0,0,0,0,0,0,0,0,0,0,0,0,0,0,0,0,0,0,0,0,0,0,0,0,0,0,0,0,0,0,0,0,0,0,0,0,0,0,0,0,0,0,0,0,0,0,0,0,0,0,0,0,0,0,0,0,0,0,0,0,0,0,0,0],"split_type":[0,0,0,0,0,0,0,0,0,0,0,0,0,0,0,0,0,0,0,0,0,0,0,0,0,0,0,0,0,0,0,0,0,0,0,0,0,0,0,0,0,0,0,0,0,0,0,0,0,0,0,0,0,0,0,0,0,0,0,0,0,0,0,0,0,0,0,0,0,0,0,0,0,0,0,0,0,0,0,0,0,0,0,0,0,0,0,0,0,0,0,0,0,0,0,0,0,0,0,0,0,0,0,0,0,0,0,0,0,0,0,0,0,0,0,0,0,0,0,0,0,0,0,0,0,0,0],"sum_hessian":[7.3690106E5,6.1541356E5,1.21487516E5,4.3525562E5,1.8015792E5,1.2492801E4,1.0899472E5,2.6955207E4,4.083004E5,8.476866E3,4.015935E3,9.756808E4,8.258984E4,6.4670586E4,4.4324133E4,1.1100285E4,1.5854922E4,6.9257197E3,1.5511466E3,2.8293367E4,3.637722E4,1.5307401E4,6.7282445E4,6.252361E2,4.36989E4,1.1341192E4,8.622688E4,6.2055812E4,3.462446E5,1.7528674E3,2.2630676E3,1.1050651E4,4.963403E1,3.475619E3,3.4501008E3,9.945451E3,5.36195E3,5.9621515E2,1.1566523E3,1.7337033E5,1.7287425E5,1.8388896E3,4.2417798E2,4.557985E4,1.647596E4,4.6777316E4,3.9449566E4,1.6924606E3,9.648731E3,7.823103E3,3.5875797E4,3.336315E2,2.9160458E2,2.7826248E4,8.550972E3,8.0557485E3,5.9226695E4,1.0771184E4,1.7522184E4,9.152562E3,6.7023604E3,4.0976575E2,1.1413809E3,3.236626E3,7.8140254E3,3.079697E3,3.9592197E2,3.4650626E2,2.4970888E2,2.2703143E4,2.4074174E4,1.8565776E2,2.2410799E2,4.720537E3,1.9818232E3,7.9774493E2,3.4363596E2,7.3623737E2,8.416324E3,8.701587E3,8.820597E3,9.691577E0,1.0761492E4,8.821837E3,5.040486E4,1.4620543E3,6.5936943E3,2.5290713E3,6.0219004E3,2.0858285E4,6.967963E3,2.0832915E2,8.327544E1,1.0453025E2,2.2910124E2,3.529402E4,5.817786E2,5.7635565E2,7.2467476E3,9.432251E3,2.1648022E2,8.783699E2,8.140907E2,6.6148257E3,9.861135E3,3.017688E4,9.272687E3,3.2071848E3,4.2372668E4,2.2282793E2,2.0135005E2,8.580637E2,9.808259E2,1.3224133E5,4.063293E4,4.631891E4,1.27051414E5,1.0794237E3,4.2825264E3,2.79411E2,8.7724133E2,6.287109E2,9.31674E3,1.4793378E1,3.4840652E1,2.06393E2,3.2437078E3],"tree_param":{"num_deleted":"0","num_feature":"13","num_nodes":"127","size_leaf_vector":"0"}},{"base_weights":[9.1694397E-1,9.5540214E-1,7.3750925E-1,1.0551989E0,9.4165397E-1,4.178695E-1,7.7700394E-1,1.0697237E0,1.0158887E0,5.901496E-1,3.403657E-1,9.661181E-1,8.9089066E-1,7.260248E-1,8.543872E-1,1.0290663E0,1.072754E0,-2.3237613E-1,6.1892015E-1,6.809514E-1,8.367496E-1,7.890924E-1,9.0425503E-1,7.81064E-1,8.9714444E-1,8.1276274E-1,9.7792107E-1,9.7742885E-1,1.0420209E0,2.8039142E-1,5.08561E-1,1.0584223E0,9.685279E-1,-4.2544743E-1,3.846934E-1,2.2085892E-1,8.922444E-1,5.26349E-1,2.5500023E-1,1.0509441E0,9.846204E-1,4.1138646E-1,6.284912E-1,1.029567E0,8.178585E-1,1.0224166E0,9.650926E-1,9.512937E-1,7.090201E-1,8.0853176E-1,9.1944396E-1,8.2061857E-1,4.885456E-1,7.2530085E-1,8.8539857E-1,8.7697345E-1,9.420686E-1,7.180888E-1,5.2944434E-1,1.0752951E0,1.0516006E0,5.086132E-1,8.3919686E-1,3.182507E-1,1.6030326E-1,-7.6757394E-2,-4.799437E-1,1.3986218E-1,2.6023793E-1,3.1734768E-1,3.0154604E-1,1.3007003E-1,2.2515377E-1,3.2251057E-1,2.8055456E-1,1.4308557E-1,2.6137695E-1,3.2277095E-1,3.061927E-1,2.0802412E-2,1.7233819E-1,1.819975E-1,2.2937422E-1,2.7842742E-1,2.9549137E-1,2.5053144E-1,2.7802655E-1,2.1442495E-1,2.7552426E-1,1.1579905E-1,2.5369614E-1,1.0496196E-1,2.0253189E-1,2.3595345E-1,2.7748293E-1,2.4646164E-1,2.8251952E-1,2.55624E-1,1.5410334E-1,2.2054292E-1,8.061749E-2,2.9385048E-1,2.2750366E-1,1.70724E-1,3.1993932E-1,2.643932E-1,2.9203507E-1,2.8903687E-1,3.202806E-1,1.2569394E-2,1.9693077E-1,1.6235158E-1,6.849751E-2,3.2166857E-1,2.7515134E-1,3.1091493E-1,3.2147738E-1,2.703074E-1,1.1764166E-1,1.0941244E-1,5.708107E-2,-2.7735578E-2,1.8322542E-1,2.7721986E-1,3.1901225E-1,-1.0668255E-1,1.4473973E-1],"categories":[],"categories_nodes":[],"categories_segments":[],"categories_sizes":[],"default_left":[0,1,1,0,1,0,0,1,1,0,1,1,1,1,1,1,1,1,1,1,0,0,1,0,1,1,0,0,1,0,1,1,1,1,1,0,1,0,0,1,1,0,0,1,1,1,1,1,1,1,1,0,1,1,1,1,1,0,0,0,1,1,1,0,0,0,0,0,0,0,0,0,0,0,0,0,0,0,0,0,0,0,0,0,0,0,0,0,0,0,0,0,0,0,0,0,0,0,0,0,0,0,0,0,0,0,0,0,0,0,0,0,0,0,0,0,0,0,0,0,0,0,0,0,0,0,0],"id":6,"left_children":[1,3,5,7,11,9,13,15,27,17,29,25,21,19,23,31,59,33,61,57,53,35,55,51,49,47,45,43,39,37,41,63,123,65,125,121,117,67,119,115,113,111,109,107,103,69,105,101,99,97,95,93,91,89,87,85,83,81,79,77,73,71,75,-1,-1,-1,-1,-1,-1,-1,-1,-1,-1,-1,-1,-1,-1,-1,-1,-1,-1,-1,-1,-1,-1,-1,-1,-1,-1,-1,-1,-1,-1,-1,-1,-1,-1,-1,-1,-1,-1,-1,-1,-1,-1,-1,-1,-1,-1,-1,-1,-1,-1,-1,-1,-1,-1,-1,-1,-1,-1,-1,-1,-1,-1,-1,-1],"loss_changes":[4.0082812E3,6.5540625E2,1.2941758E3,3.1984375E1,5.2134375E2,1.5039917E2,3.5941016E2,4.1054688E0,1.4706055E1,8.2929565E1,7.835358E1,5.1278125E2,1.8534375E2,2.7404883E2,1.1291406E2,4.229248E0,9.8046875E-1,1.4335946E1,8.170886E1,2.1968555E2,8.5646484E1,9.305029E2,1.23875E2,1.5413818E2,4.4476562E1,2.9082422E2,1.4940625E2,5.195703E1,3.7285156E0,3.5703278E1,2.3564453E1,1.9377441E0,3.1386719E0,1.7730515E1,2.2615442E0,2.9822888E2,5.865625E1,1.0592224E1,3.688214E1,1.3056641E0,6.5046387E0,2.6773819E1,1.4939484E1,1.0989746E1,9.635608E1,3.496875E1,1.4234375E2,4.6512207E1,1.3324268E2,5.874829E1,3.9106445E1,4.1131348E1,4.098654E1,1.9738525E2,6.1737305E1,1.4561328E2,2.9457031E1,1.6225488E2,1.5951538E2,7.03125E-2,1.062207E1,4.061029E1,1.266571E1,0E0,0E0,0E0,0E0,0E0,0E0,0E0,0E0,0E0,0E0,0E0,0E0,0E0,0E0,0E0,0E0,0E0,0E0,0E0,0E0,0E0,0E0,0E0,0E0,0E0,0E0,0E0,0E0,0E0,0E0,0E0,0E0,0E0,0E0,0E0,0E0,0E0,0E0,0E0,0E0,0E0,0E0,0E0,0E0,0E0,0E0,0E0,0E0,0E0,0E0,0E0,0E0,0E0,0E0,0E0,0E0,0E0,0E0,0E0,0E0,0E0,0E0,0E0,0E0],"parents":[2147483647,0,0,1,1,2,2,3,3,5,5,4,4,6,6,7,7,9,9,13,13,12,12,14,14,11,11,8,8,10,10,15,15,17,17,21,21,29,29,28,28,30,30,27,27,26,26,25,25,24,24,23,23,20,20,22,22,19,19,16,16,18,18,31,31,33,33,37,37,45,45,61,61,60,60,62,62,59,59,58,58,57,57,56,56,55,55,54,54,53,53,52,52,51,51,50,50,49,49,48,48,47,47,44,44,46,46,43,43,42,42,41,41,40,40,39,39,36,36,38,38,35,35,32,32,34,34],"right_children":[2,4,6,8,12,10,14,16,28,18,30,26,22,20,24,32,60,34,62,58,54,36,56,52,50,48,46,44,40,38,42,64,124,66,126,122,118,68,120,116,114,112,110,108,104,70,106,102,100,98,96,94,92,90,88,86,84,82,80,78,74,72,76,-1,-1,-1,-1,-1,-1,-1,-1,-1,-1,-1,-1,-1,-1,-1,-1,-1,-1,-1,-1,-1,-1,-1,-1,-1,-1,-1,-1,-1,-1,-1,-1,-1,-1,-1,-1,-1,-1,-1,-1,-1,-1,-1,-1,-1,-1,-1,-1,-1,-1,-1,-1,-1,-1,-1,-1,-1,-1,-1,-1,-1,-1,-1,-1],"split_conditions":[8.834007E4,1E0,2.2E1,1.086E3,4.29782E4,3.0389962E5,1.0083362E1,2.25E2,1.207E3,3E0,5E0,2.6655863E1,1.6442033E2,5.3E1,5.0149757E1,3.1527795E4,6E0,5E0,1.0961168E1,1.8211203E5,2E0,6E0,9.934554E0,1.9184517E5,2.9309062E3,2E0,2E0,5E0,5.255067E1,6E0,9.794404E0,5.3846E4,1.3441309E1,5.269E3,6.54E2,5.1346355E1,5.4367477E1,5.2379173E1,9.167E3,4E0,3E0,1.025E3,3.88E2,3.4E1,6E0,4.4E1,7.01386E0,3.7561E4,1.6123372E5,1E0,5.05E2,5E0,1.3E1,5.8E2,1.6442033E2,5.7E1,5E0,8E1,3.2E1,1.3731409E1,9.69E2,5.2049133E1,2.682E3,3.182507E-1,1.6030326E-1,-7.6757394E-2,-4.799437E-1,1.3986218E-1,2.6023793E-1,3.1734768E-1,3.0154604E-1,1.3007003E-1,2.2515377E-1,3.2251057E-1,2.8055456E-1,1.4308557E-1,2.6137695E-1,3.2277095E-1,3.061927E-1,2.0802412E-2,1.7233819E-1,1.819975E-1,2.2937422E-1,2.7842742E-1,2.9549137E-1,2.5053144E-1,2.7802655E-1,2.1442495E-1,2.7552426E-1,1.1579905E-1,2.5369614E-1,1.0496196E-1,2.0253189E-1,2.3595345E-1,2.7748293E-1,2.4646164E-1,2.8251952E-1,2.55624E-1,1.5410334E-1,2.2054292E-1,8.061749E-2,2.9385048E-1,2.2750366E-1,1.70724E-1,3.1993932E-1,2.643932E-1,2.9203507E-1,2.8903687E-1,3.202806E-1,1.2569394E-2,1.9693077E-1,1.6235158E-1,6.849751E-2,3.2166857E-1,2.7515134E-1,3.1091493E-1,3.2147738E-1,2.703074E-1,1.1764166E-1,1.0941244E-1,5.708107E-2,-2.7735578E-2,1.8322542E-1,2.7721986E-1,3.1901225E-1,-1.0668255E-1,1.4473973E-1],"split_indices":[6,3,3,10,6,6,2,10,10,4,11,6,7,4,1,6,11,11,2,6,11,12,2,6,7,8,8,11,1,9,2,5,2,0,10,1,1,1,5,11,11,10,10,8,11,4,2,5,7,12,10,11,9,10,7,4,11,3,4,2,10,1,5,0,0,0,0,0,0,0,0,0,0,0,0,0,0,0,0,0,0,0,0,0,0,0,0,0,0,0,0,0,0,0,0,0,0,0,0,0,0,0,0,0,0,0,0,0,0,0,0,0,0,0,0,0,0,0,0,0,0,0,0,0,0,0,0],"split_type":[0,0,0,0,0,0,0,0,0,0,0,0,0,0,0,0,0,0,0,0,0,0,0,0,0,0,0,0,0,0,0,0,0,0,0,0,0,0,0,0,0,0,0,0,0,0,0,0,0,0,0,0,0,0,0,0,0,0,0,0,0,0,0,0,0,0,0,0,0,0,0,0,0,0,0,0,0,0,0,0,0,0,0,0,0,0,0,0,0,0,0,0,0,0,0,0,0,0,0,0,0,0,0,0,0,0,0,0,0,0,0,0,0,0,0,0,0,0,0,0,0,0,0,0,0,0,0],"sum_hessian":[5.8094806E5,4.7840694E5,1.0254113E5,5.791712E4,4.204898E5,1.1277913E4,9.126322E4,4.2271812E4,1.5645309E4,3.497297E3,7.780616E3,2.8373347E5,1.3675634E5,5.50243E4,3.6238918E4,2.9556663E3,3.9316145E4,1.179564E2,3.3793408E3,3.9110473E4,1.5913827E4,1.5877336E4,1.20879016E5,1.3355399E4,2.288352E4,2.0281994E4,2.6345147E5,6.345235E3,9.300074E3,5.73745E3,2.0431658E3,1.9793589E3,9.763074E2,9.008177E1,2.7874626E1,2.4398843E3,1.3437452E4,5.3502985E2,5.2024204E3,8.033874E3,1.2662003E3,1.1311067E3,9.1205914E2,4.778466E3,1.5667689E3,5.8940094E4,2.0451138E5,8.681344E3,1.160065E4,4.608368E3,1.8275152E4,1.1762993E4,1.592406E3,4.840575E3,1.1073252E4,7.0232234E4,5.0646777E4,3.1407998E4,7.7024756E3,3.5055246E4,4.260899E3,2.2539497E3,1.1253911E3,1.9692668E3,1.0091987E1,7.977882E1,1.0302954E1,4.5684894E2,7.8180916E1,1.9297799E4,3.9642293E4,1.7223903E3,5.3155945E2,3.540063E3,7.20836E2,9.279256E1,1.0325985E3,3.4650965E4,4.0428152E2,6.866717E2,7.0158037E3,9.250557E3,2.2157441E4,3.821837E4,1.2428407E4,3.8157633E4,3.20746E4,1.7987294E3,9.274522E3,1.2685193E3,3.572056E3,9.150877E2,6.773183E2,8.871241E3,2.8917522E3,3.3958281E3,1.4879324E4,4.0136812E3,5.946871E2,1.0950292E4,6.5035815E2,7.570505E3,1.110839E3,7.8475653E2,7.820124E2,1.8560225E4,1.8595116E5,1.7547577E3,3.023708E3,4.1587284E1,8.7047186E2,6.607191E2,4.7038757E2,5.443115E2,7.218888E2,4.741356E3,3.2925183E3,1.3204816E4,2.3263611E2,1.9287821E3,3.2736384E3,1.3532217E3,1.0866626E3,6.720217E2,3.0428564E2,2.9442875E0,2.4930338E1],"tree_param":{"num_deleted":"0","num_feature":"13","num_nodes":"127","size_leaf_vector":"0"}},{"base_weights":[8.487283E-1,8.980033E-1,6.4976364E-1,1.0241647E0,8.8090247E-1,6.996427E-1,3.8504818E-1,1.0432914E0,9.7321725E-1,6.4619344E-1,7.943428E-1,9.1281575E-1,8.2627773E-1,2.6969758E-1,6.2028843E-1,9.9045855E-1,1.04728E0,7.204326E-1,5.707674E-1,4.7597843E-1,2.2851188E-1,7.9048586E-1,8.78279E-1,4.0488732E-1,7.4909467E-1,7.256968E-1,9.292636E-1,9.248376E-1,1.0067192E0,7.1658236E-1,8.43565E-1,1.0279844E0,9.149398E-1,8.367185E-1,6.4971834E-1,7.436097E-1,8.4504896E-1,6.7164963E-1,8.5640717E-1,9.619757E-1,1.0254165E0,7.422223E-1,8.7291765E-1,9.89833E-1,7.371827E-1,9.8300946E-1,9.1349155E-1,8.898937E-1,6.1105144E-1,7.668415E-1,9.803145E-2,2.624064E-1,7.397226E-1,3.5338873E-1,1.6102551E-1,8.601951E-1,9.3490976E-1,-1.655033E-1,5.2922106E-1,1.0505862E0,1.0199382E0,4.315525E-1,6.479699E-1,3.093234E-1,1.3522151E-1,2.0020814E-1,2.630823E-1,5.939618E-2,2.0611754E-1,2.8428733E-1,3.0372185E-1,1.770439E-1,7.207855E-2,3.1508553E-1,2.624275E-1,1.1694647E-1,2.0009066E-1,3.1541482E-1,2.9405397E-1,1.3435206E-1,2.439244E-1,2.0140474E-1,-1.2530445E-1,2.558307E-1,2.906005E-1,2.694928E-1,2.4099673E-1,-2.4813414E-1,6.1876636E-2,1.2511027E-1,1.614281E-3,1.8066894E-1,2.5853723E-1,-2.0481389E-2,1.2841915E-1,1.9309427E-1,-4.1742533E-2,1.9640031E-1,2.4492218E-1,1.3366987E-1,2.1169336E-1,2.2321524E-1,2.8571108E-1,2.8823215E-1,9.672235E-2,2.6321158E-1,2.8218752E-1,2.722694E-1,3.1154704E-1,2.5154668E-1,2.826947E-1,2.3788561E-1,1.5183659E-1,3.1143248E-1,2.9721037E-1,3.1592485E-1,2.641798E-1,2.0955467E-1,2.5986493E-1,2.6006964E-1,8.0460005E-2,2.673556E-1,2.1587782E-1,2.582861E-1,3.1031984E-1,2.1478757E-1,1.5907663E-1],"categories":[],"categories_nodes":[],"categories_segments":[],"categories_sizes":[],"default_left":[0,1,0,1,1,1,1,1,1,1,1,1,1,0,1,1,1,1,1,0,0,1,1,1,0,0,1,1,1,1,1,1,1,0,1,1,1,1,0,1,1,0,1,1,1,1,1,0,1,0,1,0,1,0,1,1,1,1,0,1,1,1,1,0,0,0,0,0,0,0,0,0,0,0,0,0,0,0,0,0,0,0,0,0,0,0,0,0,0,0,0,0,0,0,0,0,0,0,0,0,0,0,0,0,0,0,0,0,0,0,0,0,0,0,0,0,0,0,0,0,0,0,0,0,0,0,0],"id":7,"left_children":[1,3,5,7,11,9,13,15,27,17,29,25,21,19,23,31,59,33,61,57,53,35,55,51,49,47,45,43,39,37,41,63,123,65,125,121,117,67,119,115,113,111,109,107,103,69,105,101,99,97,95,93,91,89,87,85,83,81,79,77,73,71,75,-1,-1,-1,-1,-1,-1,-1,-1,-1,-1,-1,-1,-1,-1,-1,-1,-1,-1,-1,-1,-1,-1,-1,-1,-1,-1,-1,-1,-1,-1,-1,-1,-1,-1,-1,-1,-1,-1,-1,-1,-1,-1,-1,-1,-1,-1,-1,-1,-1,-1,-1,-1,-1,-1,-1,-1,-1,-1,-1,-1,-1,-1,-1,-1],"loss_changes":[4.5105E3,7.9475E2,1.2057266E3,4.1875E1,5.6540625E2,3.884961E2,3.928518E2,5.7070312E0,1.8564453E1,2.7470703E2,1.0550781E2,6.3025E2,2.2225E2,8.247174E1,1.3189197E2,5.4748535E0,1.6171875E0,2.0303613E2,2.6170898E2,5.530777E1,6.824231E1,1.8085938E2,4.9195312E1,8.497177E1,3.4362305E1,3.113379E2,1.5882812E2,5.9447754E1,4.9501953E0,6.698242E1,4.9835938E1,2.2214355E0,4.0144043E0,6.316455E1,1.2148193E2,1.3466602E2,1.01078125E2,5.929248E1,1.5883545E1,1.4697266E1,1.1699219E0,4.533081E1,3.0638672E1,1.3715088E1,1.177655E2,4.35E1,1.4196875E2,6.1339844E1,1.5245483E2,1.5596558E1,1.0472228E1,6.871321E1,8.415344E0,6.2954285E1,2.3539023E2,7.952344E1,3.1911133E1,2.6590317E1,3.4128174E1,4.5507812E-1,1.3359619E1,2.6375476E2,7.663574E1,0E0,0E0,0E0,0E0,0E0,0E0,0E0,0E0,0E0,0E0,0E0,0E0,0E0,0E0,0E0,0E0,0E0,0E0,0E0,0E0,0E0,0E0,0E0,0E0,0E0,0E0,0E0,0E0,0E0,0E0,0E0,0E0,0E0,0E0,0E0,0E0,0E0,0E0,0E0,0E0,0E0,0E0,0E0,0E0,0E0,0E0,0E0,0E0,0E0,0E0,0E0,0E0,0E0,0E0,0E0,0E0,0E0,0E0,0E0,0E0,0E0,0E0,0E0,0E0],"parents":[2147483647,0,0,1,1,2,2,3,3,5,5,4,4,6,6,7,7,9,9,13,13,12,12,14,14,11,11,8,8,10,10,15,15,17,17,21,21,29,29,28,28,30,30,27,27,26,26,25,25,24,24,23,23,20,20,22,22,19,19,16,16,18,18,31,31,33,33,37,37,45,45,61,61,60,60,62,62,59,59,58,58,57,57,56,56,55,55,54,54,53,53,52,52,51,51,50,50,49,49,48,48,47,47,44,44,46,46,43,43,42,42,41,41,40,40,39,39,36,36,38,38,35,35,32,32,34,34],"right_children":[2,4,6,8,12,10,14,16,28,18,30,26,22,20,24,32,60,34,62,58,54,36,56,52,50,48,46,44,40,38,42,64,124,66,126,122,118,68,120,116,114,112,110,108,104,70,106,102,100,98,96,94,92,90,88,86,84,82,80,78,74,72,76,-1,-1,-1,-1,-1,-1,-1,-1,-1,-1,-1,-1,-1,-1,-1,-1,-1,-1,-1,-1,-1,-1,-1,-1,-1,-1,-1,-1,-1,-1,-1,-1,-1,-1,-1,-1,-1,-1,-1,-1,-1,-1,-1,-1,-1,-1,-1,-1,-1,-1,-1,-1,-1,-1,-1,-1,-1,-1,-1,-1,-1,-1,-1,-1],"split_conditions":[8.461178E4,1E0,2.3076872E5,1.086E3,3.8777113E4,1.0358809E1,4.4E1,2.25E2,1.207E3,5.0473495E1,5.0254284E1,2.6655863E1,9.946178E0,5E0,1.4706465E4,3.1527795E4,6E0,8.399071E0,5.1274307E1,7.140824E0,9.167E3,5.7E1,5E0,2.9E1,5.3953068E1,2E0,2E0,5E0,1.1982E4,5E0,5.35E2,5.3846E4,1.3441309E1,9E1,1.273837E5,3.3E1,1.6442033E2,3E0,1.407E3,7.834E3,3.2691E4,1.3683326E1,1.85E2,3.4E1,2.51E4,3E0,5.3E1,2E0,1.5977E4,8.959522E0,2E0,4E0,5.0177357E1,1.7E1,9.411E3,3E0,1.9397E4,6.786973E0,2.24E2,1.3731409E1,9.69E2,7.2E1,3.4E1,3.093234E-1,1.3522151E-1,2.0020814E-1,2.630823E-1,5.939618E-2,2.0611754E-1,2.8428733E-1,3.0372185E-1,1.770439E-1,7.207855E-2,3.1508553E-1,2.624275E-1,1.1694647E-1,2.0009066E-1,3.1541482E-1,2.9405397E-1,1.3435206E-1,2.439244E-1,2.0140474E-1,-1.2530445E-1,2.558307E-1,2.906005E-1,2.694928E-1,2.4099673E-1,-2.4813414E-1,6.1876636E-2,1.2511027E-1,1.614281E-3,1.8066894E-1,2.5853723E-1,-2.0481389E-2,1.2841915E-1,1.9309427E-1,-4.1742533E-2,1.9640031E-1,2.4492218E-1,1.3366987E-1,2.1169336E-1,2.2321524E-1,2.8571108E-1,2.8823215E-1,9.672235E-2,2.6321158E-1,2.8218752E-1,2.722694E-1,3.1154704E-1,2.5154668E-1,2.826947E-1,2.3788561E-1,1.5183659E-1,3.1143248E-1,2.9721037E-1,3.1592485E-1,2.641798E-1,2.0955467E-1,2.5986493E-1,2.6006964E-1,8.0460005E-2,2.673556E-1,2.1587782E-1,2.582861E-1,3.1031984E-1,2.1478757E-1,1.5907663E-1],"split_indices":[6,3,6,10,6,2,4,10,10,1,1,6,2,8,7,6,11,2,1,2,5,4,11,9,1,8,8,11,5,11,10,5,2,3,6,4,7,4,10,5,5,2,3,8,5,11,4,11,5,2,11,12,1,9,5,11,5,2,3,2,10,3,3,0,0,0,0,0,0,0,0,0,0,0,0,0,0,0,0,0,0,0,0,0,0,0,0,0,0,0,0,0,0,0,0,0,0,0,0,0,0,0,0,0,0,0,0,0,0,0,0,0,0,0,0,0,0,0,0,0,0,0,0,0,0,0,0],"split_type":[0,0,0,0,0,0,0,0,0,0,0,0,0,0,0,0,0,0,0,0,0,0,0,0,0,0,0,0,0,0,0,0,0,0,0,0,0,0,0,0,0,0,0,0,0,0,0,0,0,0,0,0,0,0,0,0,0,0,0,0,0,0,0,0,0,0,0,0,0,0,0,0,0,0,0,0,0,0,0,0,0,0,0,0,0,0,0,0,0,0,0,0,0,0,0,0,0,0,0,0,0,0,0,0,0,0,0,0,0,0,0,0,0,0,0,0,0,0,0,0,0,0,0,0,0,0,0],"sum_hessian":[4.6012438E5,3.687881E5,9.1336266E4,4.401398E4,3.2477412E5,7.685348E4,1.4482789E4,3.1986162E4,1.2027818E4,4.9131293E4,2.7722182E4,2.0499488E5,1.1977926E5,9.719136E3,4.7636533E3,2.2627615E3,2.9723402E4,2.4756156E4,2.4375137E4,1.6157925E3,8.1033433E3,7.095674E4,4.8822516E4,1.7841624E3,2.979491E3,1.6566945E4,1.8842794E5,4.932907E3,7.094911E3,1.0751955E4,1.6970227E4,1.5031982E3,7.5956323E2,9.357457E3,1.5398699E4,3.8174777E4,3.2781965E4,8.1414873E3,2.6104678E3,2.1064678E3,4.9884434E3,3.817229E3,1.3152998E4,3.660721E3,1.2721864E3,4.2736195E4,1.4569175E5,6.8086797E3,9.758266E3,2.9002573E3,7.923359E1,1.2528336E3,5.313288E2,2.841392E3,5.261951E3,3.701781E4,1.1804707E4,1.2367027E2,1.4921222E3,2.6483562E4,3.2398389E3,8.697685E3,1.5677452E4,1.4944031E3,8.795177E0,1.7992489E3,7.558208E3,2.5694476E2,7.8845425E3,1.9407924E4,2.3328271E4,4.754103E3,3.9435815E3,2.674546E3,5.65293E2,1.0761912E3,1.4601261E4,2.617357E4,3.099925E2,1.1616595E3,3.3046262E2,2.8252441E1,9.541783E1,3.446068E3,8.358639E3,2.2155287E4,1.48625205E4,2.2955579E2,5.0323955E3,2.4019182E3,4.3947388E2,2.5266751E2,2.786613E2,4.1834338E2,8.3449023E2,2.3487305E1,5.5746284E1,8.931492E2,2.0071082E3,3.5512537E3,6.207012E3,2.0458441E3,4.7628354E3,8.2574084E2,4.4644553E2,6.2511297E4,8.318045E4,1.3677725E3,2.2929485E3,8.800227E3,4.3527715E3,3.1401602E3,6.770688E2,3.6317805E3,1.3566628E3,9.8818176E2,1.118286E3,4.142065E3,2.86399E4,2.5642563E3,4.6211483E1,5.3380854E3,3.283669E4,5.287965E2,2.3076675E2,9.90278E3,5.4959185E3],"tree_param":{"num_deleted":"0","num_feature":"13","num_nodes":"127","size_leaf_vector":"0"}},{"base_weights":[7.773244E-1,8.47694E-1,5.891126E-1,9.971625E-1,8.265804E-1,6.4440244E-1,3.519443E-1,1.0226704E0,9.306909E-1,5.9161496E-1,7.3997474E-1,6.37027E-1,8.383666E-1,2.027562E-1,5.261288E-1,9.5553046E-1,1.0278311E0,6.712717E-1,5.105281E-1,3.125452E-1,1.0505835E-1,8.918331E-1,7.840962E-1,3.1575084E-1,6.038717E-1,8.2592005E-1,5.154725E-1,8.70495E-1,9.733932E-1,7.1340567E-1,8.584891E-1,1.0015119E0,8.64219E-1,7.789164E-1,5.972775E-1,9.9898976E-1,8.8186276E-1,6.80726E-1,8.1465465E-1,9.884702E-1,8.7811947E-1,7.308106E-1,8.7677026E-1,9.5182717E-1,6.5321183E-1,6.43817E-1,3.7436724E-1,8.3579785E-1,-4.833059E-1,4.9481884E-1,7.21946E-1,-3.5089687E-1,4.8618343E-1,2.8851211E-2,3.1963187E-1,7.5739825E-1,8.722351E-1,1.8076265E-2,3.5926244E-1,1.0322956E0,9.9135333E-1,2.9952312E-1,5.5682015E-1,3.0165443E-1,1.1211537E-1,1.9534682E-1,2.4171661E-1,2.5194633E-1,1.9246833E-1,3.1777266E-2,2.1534364E-1,-7.2020344E-2,1.2463454E-1,3.0937636E-1,2.4290033E-1,1.5414375E-1,2.0971946E-1,3.0990955E-1,2.868811E-1,9.20786E-2,1.9121538E-1,-6.253898E-1,1.8195827E-2,2.4306966E-1,2.7583566E-1,2.1565469E-1,2.460465E-1,1.412426E-1,5.6321926E-2,1.7255846E-1,-3.4726254E-4,9.063181E-2,1.7124987E-1,-3.5305664E-1,1.1000247E-1,1.2024604E-1,2.3173286E-1,1.19039185E-1,1.985281E-1,3.1094563E-1,-2.4090677E-1,2.1991067E-1,2.883826E-1,1.0011309E-1,3.055145E-1,-1.5745984E-1,1.3367441E-1,2.5461328E-1,3.044049E-1,2.5571814E-1,2.8974965E-1,2.3879811E-1,1.4498147E-1,3.0774868E-1,2.3090714E-1,2.90512E-1,3.1007373E-1,2.5178555E-1,2.7285045E-1,6.748442E-2,2.5039923E-1,3.0028486E-1,-4.8526338E-1,2.4005276E-1,3.029388E-1,1.6485132E-1,2.2491041E-1],"categories":[],"categories_nodes":[],"categories_segments":[],"categories_sizes":[],"default_left":[1,1,1,1,1,1,1,0,1,1,1,1,1,0,1,1,1,1,1,0,1,0,1,0,1,1,1,1,1,1,1,1,0,0,0,1,1,1,1,1,1,0,1,1,1,1,1,0,1,1,1,1,1,0,1,0,1,0,1,1,1,1,1,0,0,0,0,0,0,0,0,0,0,0,0,0,0,0,0,0,0,0,0,0,0,0,0,0,0,0,0,0,0,0,0,0,0,0,0,0,0,0,0,0,0,0,0,0,0,0,0,0,0,0,0,0,0,0,0,0,0,0,0,0,0,0,0],"id":8,"left_children":[1,3,5,7,11,9,13,15,27,17,29,25,21,19,23,31,59,33,61,57,53,35,55,51,49,47,45,43,39,37,41,63,123,65,125,121,117,67,119,115,113,111,109,107,103,69,105,101,99,97,95,93,91,89,87,85,83,81,79,77,73,71,75,-1,-1,-1,-1,-1,-1,-1,-1,-1,-1,-1,-1,-1,-1,-1,-1,-1,-1,-1,-1,-1,-1,-1,-1,-1,-1,-1,-1,-1,-1,-1,-1,-1,-1,-1,-1,-1,-1,-1,-1,-1,-1,-1,-1,-1,-1,-1,-1,-1,-1,-1,-1,-1,-1,-1,-1,-1,-1,-1,-1,-1,-1,-1,-1],"loss_changes":[4.872547E3,8.442969E2,1.3127969E3,5.5246094E1,5.237344E2,4.0921875E2,4.9187158E2,7.314453E0,2.280664E1,3.3755664E2,9.034863E1,3.1507812E2,6.4034375E2,1.09368195E2,1.4265356E2,6.3691406E0,2.5957031E0,2.0970312E2,2.530957E2,6.605423E1,8.826602E1,1.18015625E2,2.5734375E2,2.6816327E2,8.1743164E1,6.996118E1,1.5122119E2,6.703198E1,6.852539E0,7.7543945E1,1.1695557E1,2.4884033E0,4.640381E0,3.627539E1,1.1348682E2,5.0149414E1,1.19046875E2,1.1068359E2,6.7711426E1,3.1987305E0,1.1115112E1,1.0393311E1,9.202881E0,1.7179443E1,1.21684814E2,1.7418896E2,2.5549353E2,6.813379E1,2.0710522E1,5.403015E1,4.929834E1,2.8540735E2,2.91044E1,6.533047E1,2.8119507E1,2.0301562E2,7.386328E1,5.908625E1,6.012787E1,1.19140625E-1,1.691211E1,2.92036E2,1.2971387E2,0E0,0E0,0E0,0E0,0E0,0E0,0E0,0E0,0E0,0E0,0E0,0E0,0E0,0E0,0E0,0E0,0E0,0E0,0E0,0E0,0E0,0E0,0E0,0E0,0E0,0E0,0E0,0E0,0E0,0E0,0E0,0E0,0E0,0E0,0E0,0E0,0E0,0E0,0E0,0E0,0E0,0E0,0E0,0E0,0E0,0E0,0E0,0E0,0E0,0E0,0E0,0E0,0E0,0E0,0E0,0E0,0E0,0E0,0E0,0E0,0E0,0E0,0E0,0E0],"parents":[2147483647,0,0,1,1,2,2,3,3,5,5,4,4,6,6,7,7,9,9,13,13,12,12,14,14,11,11,8,8,10,10,15,15,17,17,21,21,29,29,28,28,30,30,27,27,26,26,25,25,24,24,23,23,20,20,22,22,19,19,16,16,18,18,31,31,33,33,37,37,45,45,61,61,60,60,62,62,59,59,58,58,57,57,56,56,55,55,54,54,53,53,52,52,51,51,50,50,49,49,48,48,47,47,44,44,46,46,43,43,42,42,41,41,40,40,39,39,36,36,38,38,35,35,32,32,34,34],"right_children":[2,4,6,8,12,10,14,16,28,18,30,26,22,20,24,32,60,34,62,58,54,36,56,52,50,48,46,44,40,38,42,64,124,66,126,122,118,68,120,116,114,112,110,108,104,70,106,102,100,98,96,94,92,90,88,86,84,82,80,78,74,72,76,-1,-1,-1,-1,-1,-1,-1,-1,-1,-1,-1,-1,-1,-1,-1,-1,-1,-1,-1,-1,-1,-1,-1,-1,-1,-1,-1,-1,-1,-1,-1,-1,-1,-1,-1,-1,-1,-1,-1,-1,-1,-1,-1,-1,-1,-1,-1,-1,-1,-1,-1,-1,-1,-1,-1,-1,-1,-1,-1,-1,-1,-1,-1,-1],"split_conditions":[6.8728414E4,1E0,1.9184517E5,1.086E3,2.6655863E1,1.0358809E1,4.7E1,2.25E2,1.207E3,5.0418896E1,5.227686E1,2E0,2.8040314E4,8.88E2,2.9309062E3,3.1527795E4,6E0,8.457807E0,5.0861946E1,3.74E2,5E0,1.3E1,5E0,1.3E1,9.513203E0,3.07E2,1.3E2,5E0,5.255067E1,5E0,1.083789E1,5.3846E4,1.3441309E1,2.9309062E3,5E0,2.7409772E5,5.3E1,1E0,1.44E2,1.359E3,3E0,1.148E3,2.46E2,3.4E1,6E0,3.7E1,7.014E3,8.83E2,5.89E2,5.3153082E4,4.9833984E1,1.6442033E2,1.6E1,4.755024E1,6E0,1.0017183E1,1.9397E4,2.1E1,5.254299E1,1.3731409E1,9.69E2,1.2E1,3.6246E4,3.0165443E-1,1.1211537E-1,1.9534682E-1,2.4171661E-1,2.5194633E-1,1.9246833E-1,3.1777266E-2,2.1534364E-1,-7.2020344E-2,1.2463454E-1,3.0937636E-1,2.4290033E-1,1.5414375E-1,2.0971946E-1,3.0990955E-1,2.868811E-1,9.20786E-2,1.9121538E-1,-6.253898E-1,1.8195827E-2,2.4306966E-1,2.7583566E-1,2.1565469E-1,2.460465E-1,1.412426E-1,5.6321926E-2,1.7255846E-1,-3.4726254E-4,9.063181E-2,1.7124987E-1,-3.5305664E-1,1.1000247E-1,1.2024604E-1,2.3173286E-1,1.19039185E-1,1.985281E-1,3.1094563E-1,-2.4090677E-1,2.1991067E-1,2.883826E-1,1.0011309E-1,3.055145E-1,-1.5745984E-1,1.3367441E-1,2.5461328E-1,3.044049E-1,2.5571814E-1,2.8974965E-1,2.3879811E-1,1.4498147E-1,3.0774868E-1,2.3090714E-1,2.90512E-1,3.1007373E-1,2.5178555E-1,2.7285045E-1,6.748442E-2,2.5039923E-1,3.0028486E-1,-4.8526338E-1,2.4005276E-1,3.029388E-1,1.6485132E-1,2.2491041E-1],"split_indices":[6,3,6,10,6,2,4,10,10,1,1,8,6,10,7,6,11,2,1,10,11,4,11,12,2,3,3,11,1,11,2,5,2,7,11,7,4,11,10,10,11,10,3,8,11,4,5,10,10,7,1,7,9,1,11,2,5,3,1,2,10,9,5,0,0,0,0,0,0,0,0,0,0,0,0,0,0,0,0,0,0,0,0,0,0,0,0,0,0,0,0,0,0,0,0,0,0,0,0,0,0,0,0,0,0,0,0,0,0,0,0,0,0,0,0,0,0,0,0,0,0,0,0,0,0,0,0],"split_type":[0,0,0,0,0,0,0,0,0,0,0,0,0,0,0,0,0,0,0,0,0,0,0,0,0,0,0,0,0,0,0,0,0,0,0,0,0,0,0,0,0,0,0,0,0,0,0,0,0,0,0,0,0,0,0,0,0,0,0,0,0,0,0,0,0,0,0,0,0,0,0,0,0,0,0,0,0,0,0,0,0,0,0,0,0,0,0,0,0,0,0,0,0,0,0,0,0,0,0,0,0,0,0,0,0,0,0,0,0,0,0,0,0,0,0,0,0,0,0,0,0,0,0,0,0,0,0],"sum_hessian":[3.6793103E5,2.6780078E5,1.0013024E5,3.3140996E4,2.3465978E5,8.1199E4,1.893124E4,2.3939932E4,9.201063E3,5.231242E4,2.8886576E4,1.3739986E4,2.209198E5,1.019847E4,8.7327705E3,1.7220962E3,2.2217836E4,2.6385268E4,2.5927154E4,4.801045E3,5.397425E3,1.1127648E5,1.0964331E5,2.357706E3,6.3750645E3,5.37757E3,8.362417E3,3.8272805E3,5.373783E3,2.360233E4,5.284246E3,1.1387106E3,5.833856E2,1.074467E4,1.5640598E4,9.463884E3,1.0181259E5,1.7849006E4,5.7533237E3,4.6314805E3,7.4230255E2,6.669747E2,4.6172715E3,2.7824058E3,1.0448748E3,4.3773584E3,3.9850586E3,5.33766E3,3.9909836E1,3.3168381E3,3.0582263E3,4.7982202E2,1.877884E3,3.983717E3,1.4137076E3,8.416013E4,2.5483184E4,6.575778E2,4.1434673E3,1.977079E4,2.4470476E3,4.6660786E3,2.1261076E4,1.1308982E3,7.8123612E0,1.8677784E3,8.876892E3,3.5219094E3,1.4327097E4,5.2964465E2,3.8477139E3,8.2498724E2,3.8410913E3,2.0025731E3,4.444745E2,1.6328705E4,4.9323706E3,1.9568686E4,2.0210371E2,3.489043E3,6.544244E2,1.2098763E1,6.4547906E2,1.1024525E4,1.4458658E4,5.214301E4,3.2017123E4,6.575008E2,7.5620685E2,2.0647298E2,3.7772441E3,5.929757E2,1.2849083E3,2.2276688E2,2.5705515E2,4.1677228E2,2.641454E3,2.0919204E3,1.2249177E3,6.5468993E0,3.3362938E1,2.938201E3,2.3994592E3,5.5830524E2,4.8656952E2,2.9196713E2,3.6930916E3,1.0592262E3,1.7231796E3,3.633377E3,9.838946E2,5.261982E2,1.407765E2,3.1065134E2,4.316512E2,3.2195627E3,1.4119176E3,4.0087957E4,6.1724637E4,1.8921231E2,5.5641113E3,9.457418E3,6.4656878E0,4.096612E2,1.7372444E2,1.1911775E4,3.7288223E3],"tree_param":{"num_deleted":"0","num_feature":"13","num_nodes":"127","size_leaf_vector":"0"}},{"base_weights":[7.012745E-1,7.832366E-1,4.9846414E-1,9.707877E-1,7.5806224E-1,5.679747E-1,3.1376198E-1,1.0043459E0,8.857757E-1,4.9508417E-1,6.4787656E-1,5.4903096E-1,7.7187806E-1,1.4719844E-1,4.558354E-1,9.171577E-1,1.0111982E0,5.943755E-1,3.941086E-1,2.4316955E-1,5.794123E-2,8.495615E-1,7.18629E-1,2.4533075E-1,5.1804733E-1,7.582647E-1,4.2632473E-1,8.1207514E-1,9.3975896E-1,5.143487E-1,6.7496896E-1,9.8064685E-1,8.117385E-1,6.943523E-1,4.7592786E-1,9.8235804E-1,8.3673406E-1,-4.200278E-1,6.735817E-1,8.6449885E-1,9.7160023E-1,5.820732E-1,7.0467967E-1,9.118042E-1,5.684759E-1,3.1787717E-1,5.9313595E-1,5.4762655E-1,8.5444206E-1,4.2554772E-1,6.30853E-1,-1.3655305E0,4.0707454E-1,-4.2614043E-3,2.4576153E-1,6.891928E-1,8.186212E-1,1.7570156E-1,4.0562555E-1,1.0171174E0,9.6343285E-1,1.7887472E-1,4.5789108E-1,2.9584426E-1,9.004344E-2,1.5803914E-1,2.1872933E-1,5.7192477E-3,-6.83116E-1,4.1642092E-2,1.6498035E-1,1.2051423E-1,-4.453164E-2,3.0472898E-1,2.2201623E-1,1.0590726E-1,1.6788903E-1,3.0542964E-1,2.7548328E-1,1.6330099E-1,4.9471784E-2,-1.9616206E-1,5.8107395E-2,2.0832273E-1,2.5475994E-1,1.9517441E-1,2.2693717E-1,2.8572077E-2,1.3275445E-1,1.6792018E-2,-6.803516E-2,1.2366712E-1,-4.9625528E-1,-6.5346545E-1,-1.8800598E-1,1.2146879E-1,2.0522423E-1,6.6354915E-2,1.5035492E-1,4.3134823E-2,2.7009168E-1,5.0299507E-2,2.4899761E-1,2.6356637E-1,2.6751295E-2,1.0142944E-1,2.1947995E-1,2.3556077E-1,2.9783168E-1,2.2320372E-1,1.8366288E-1,1.437169E-1,1.923458E-1,2.9801026E-1,2.740082E-1,3.073875E-1,2.2088023E-1,2.3545577E-1,2.6124E-1,2.286304E-1,1.8490486E-1,2.758109E-1,3.0392233E-1,2.7684066E-1,2.0582415E-1,1.4781038E-1,-1.8947203E-1],"categories":[],"categories_nodes":[],"categories_segments":[],"categories_sizes":[],"default_left":[1,1,1,1,1,1,1,0,1,1,1,0,1,0,1,1,1,1,1,1,1,1,1,0,1,1,1,1,0,0,1,1,0,1,1,1,1,1,1,0,1,0,1,1,1,1,1,0,1,1,1,0,1,0,0,1,1,0,0,1,1,1,1,0,0,0,0,0,0,0,0,0,0,0,0,0,0,0,0,0,0,0,0,0,0,0,0,0,0,0,0,0,0,0,0,0,0,0,0,0,0,0,0,0,0,0,0,0,0,0,0,0,0,0,0,0,0,0,0,0,0,0,0,0,0,0,0],"id":9,"left_children":[1,3,5,7,11,9,13,15,27,17,29,25,21,19,23,31,59,33,61,57,53,35,55,51,49,47,45,43,39,37,41,63,123,65,125,121,117,67,119,115,113,111,109,107,103,69,105,101,99,97,95,93,91,89,87,85,83,81,79,77,73,71,75,-1,-1,-1,-1,-1,-1,-1,-1,-1,-1,-1,-1,-1,-1,-1,-1,-1,-1,-1,-1,-1,-1,-1,-1,-1,-1,-1,-1,-1,-1,-1,-1,-1,-1,-1,-1,-1,-1,-1,-1,-1,-1,-1,-1,-1,-1,-1,-1,-1,-1,-1,-1,-1,-1,-1,-1,-1,-1,-1,-1,-1,-1,-1,-1],"loss_changes":[4.9575E3,1.00216406E3,1.1019844E3,7.081445E1,5.404297E2,3.629375E2,5.5546655E2,9.833984E0,2.7572266E1,3.2682666E2,1.0728223E2,2.9786475E2,7.260469E2,9.256769E1,1.657815E2,8.060425E0,3.7382812E0,1.9442139E2,2.2199048E2,5.700891E1,6.5438736E1,1.2086328E2,3.0623438E2,7.5402673E2,1.017583E2,8.648389E1,1.3228967E2,7.2811646E1,8.996094E0,7.475521E2,6.784473E1,2.7774048E0,6.3894043E0,5.152295E1,1.4020618E2,1.1232422E1,1.1446094E2,5.968475E2,2.127246E1,2.4488037E1,2.7387695E0,3.6200684E1,6.767676E1,2.1156982E1,1.3062732E2,1.844306E2,1.01598816E2,1.4450912E2,9.5853516E1,8.297992E1,5.2682373E1,1.572157E2,2.8583252E1,5.642348E1,4.122751E1,2.0866797E2,8.942871E1,5.50671E1,5.0910263E1,5.0390625E-1,2.0981934E1,2.6989713E2,1.3292944E2,0E0,0E0,0E0,0E0,0E0,0E0,0E0,0E0,0E0,0E0,0E0,0E0,0E0,0E0,0E0,0E0,0E0,0E0,0E0,0E0,0E0,0E0,0E0,0E0,0E0,0E0,0E0,0E0,0E0,0E0,0E0,0E0,0E0,0E0,0E0,0E0,0E0,0E0,0E0,0E0,0E0,0E0,0E0,0E0,0E0,0E0,0E0,0E0,0E0,0E0,0E0,0E0,0E0,0E0,0E0,0E0,0E0,0E0,0E0,0E0,0E0,0E0,0E0,0E0],"parents":[2147483647,0,0,1,1,2,2,3,3,5,5,4,4,6,6,7,7,9,9,13,13,12,12,14,14,11,11,8,8,10,10,15,15,17,17,21,21,29,29,28,28,30,30,27,27,26,26,25,25,24,24,23,23,20,20,22,22,19,19,16,16,18,18,31,31,33,33,37,37,45,45,61,61,60,60,62,62,59,59,58,58,57,57,56,56,55,55,54,54,53,53,52,52,51,51,50,50,49,49,48,48,47,47,44,44,46,46,43,43,42,42,41,41,40,40,39,39,36,36,38,38,35,35,32,32,34,34],"right_children":[2,4,6,8,12,10,14,16,28,18,30,26,22,20,24,32,60,34,62,58,54,36,56,52,50,48,46,44,40,38,42,64,124,66,126,122,118,68,120,116,114,112,110,108,104,70,106,102,100,98,96,94,92,90,88,86,84,82,80,78,74,72,76,-1,-1,-1,-1,-1,-1,-1,-1,-1,-1,-1,-1,-1,-1,-1,-1,-1,-1,-1,-1,-1,-1,-1,-1,-1,-1,-1,-1,-1,-1,-1,-1,-1,-1,-1,-1,-1,-1,-1,-1,-1,-1,-1,-1,-1,-1,-1,-1,-1,-1,-1,-1,-1,-1,-1,-1,-1,-1,-1,-1,-1,-1,-1,-1],"split_conditions":[6.8728414E4,1E0,1.6147697E5,1.086E3,2.6655863E1,9.300455E0,4.7E1,2.25E2,1.207E3,5.0418896E1,1.6442033E2,2E0,2.257981E4,9.05E2,1.0967427E3,2.9884049E4,6E0,8.571718E0,5.0861946E1,5.2153004E1,5E0,1.3E1,5E0,2E0,9.561754E0,2E0,5.6E1,5E0,1.1982E4,1.9E1,5.45E2,5.3846E4,4E0,2.9309062E3,5.0305283E1,1.1E1,5.3E1,5.7E1,9.2400516E4,3E0,3.2691E4,1.0961168E1,1.131E3,3.4E1,2.51E4,1.022905E1,1.5241E4,7.19E2,2E0,8E1,4.9925476E1,1.9213E4,7E0,1.36E2,9.815133E0,1.0030389E1,5.05E2,2.1E1,6.7119744E5,1.3731409E1,9.69E2,8.278634E0,7.404442E0,2.9584426E-1,9.004344E-2,1.5803914E-1,2.1872933E-1,5.7192477E-3,-6.83116E-1,4.1642092E-2,1.6498035E-1,1.2051423E-1,-4.453164E-2,3.0472898E-1,2.2201623E-1,1.0590726E-1,1.6788903E-1,3.0542964E-1,2.7548328E-1,1.6330099E-1,4.9471784E-2,-1.9616206E-1,5.8107395E-2,2.0832273E-1,2.5475994E-1,1.9517441E-1,2.2693717E-1,2.8572077E-2,1.3275445E-1,1.6792018E-2,-6.803516E-2,1.2366712E-1,-4.9625528E-1,-6.5346545E-1,-1.8800598E-1,1.2146879E-1,2.0522423E-1,6.6354915E-2,1.5035492E-1,4.3134823E-2,2.7009168E-1,5.0299507E-2,2.4899761E-1,2.6356637E-1,2.6751295E-2,1.0142944E-1,2.1947995E-1,2.3556077E-1,2.9783168E-1,2.2320372E-1,1.8366288E-1,1.437169E-1,1.923458E-1,2.9801026E-1,2.740082E-1,3.073875E-1,2.2088023E-1,2.3545577E-1,2.6124E-1,2.286304E-1,1.8490486E-1,2.758109E-1,3.0392233E-1,2.7684066E-1,2.0582415E-1,1.4781038E-1,-1.8947203E-1],"split_indices":[6,3,6,10,6,2,4,10,10,1,7,8,6,10,7,6,11,2,1,1,11,4,11,12,2,11,4,11,5,12,10,5,11,7,1,4,4,4,6,11,5,2,10,8,5,2,5,10,3,3,1,5,12,3,2,2,10,3,6,2,10,2,2,0,0,0,0,0,0,0,0,0,0,0,0,0,0,0,0,0,0,0,0,0,0,0,0,0,0,0,0,0,0,0,0,0,0,0,0,0,0,0,0,0,0,0,0,0,0,0,0,0,0,0,0,0,0,0,0,0,0,0,0,0,0,0,0],"split_type":[0,0,0,0,0,0,0,0,0,0,0,0,0,0,0,0,0,0,0,0,0,0,0,0,0,0,0,0,0,0,0,0,0,0,0,0,0,0,0,0,0,0,0,0,0,0,0,0,0,0,0,0,0,0,0,0,0,0,0,0,0,0,0,0,0,0,0,0,0,0,0,0,0,0,0,0,0,0,0,0,0,0,0,0,0,0,0,0,0,0,0,0,0,0,0,0,0,0,0,0,0,0,0,0,0,0,0,0,0,0,0,0,0,0,0,0,0,0,0,0,0,0,0,0,0,0,0],"sum_hessian":[2.9825788E5,2.1241238E5,8.584549E4,2.5132898E4,1.8727948E5,6.237085E4,2.3474643E4,1.801192E4,7.1209795E3,3.2620213E4,2.9750637E4,1.1613262E4,1.7566622E5,1.0806911E4,1.2667731E4,1.3222502E3,1.668967E4,1.644481E4,1.6175402E4,5.2067676E3,5.6001436E3,7.143573E4,1.0423049E5,2.8908828E3,9.776849E3,4.2910894E3,7.322172E3,3.0174546E3,4.103525E3,5.0215225E3,2.4729115E4,8.2006195E2,5.021883E2,8.915085E3,7.5297256E3,6.285836E3,6.514989E4,7.3091125E2,4.2906113E3,1.2283467E3,2.8751782E3,5.997489E3,1.8731627E4,2.1390059E3,8.7844885E2,4.4391147E3,2.8830574E3,1.3472242E3,2.943865E3,5.3745425E3,4.402306E3,2.6310352E2,2.6277793E3,4.207631E3,1.3925128E3,8.053116E4,2.3699334E4,3.680385E3,1.5263826E3,1.4831425E4,1.8582454E3,3.6985293E3,1.2476873E4,8.130409E2,7.021067E0,1.5339525E3,7.3811323E3,5.9193787E2,1.3897342E2,2.5065215E3,1.9325933E3,2.2003052E3,1.498224E3,1.5026711E3,3.5557416E2,6.1461914E3,6.3306816E3,1.4676405E4,1.5501921E2,9.675723E2,5.5881024E2,7.7366776E1,3.6030183E3,4.6864272E3,1.9012906E4,5.1169375E4,2.9361781E4,7.8978845E2,6.0272437E2,3.3118828E3,8.957479E2,2.6220293E3,5.7500257E0,1.2436296E2,1.3874055E2,8.4095874E2,3.5613474E3,1.4528645E3,3.921678E3,1.7871965E2,2.7651453E3,5.7503253E2,7.721917E2,5.328786E2,3.4557025E2,1.01569006E3,1.8673673E3,8.385484E2,1.3004574E3,1.3136775E4,5.5948516E3,2.1892317E3,3.808257E3,2.0812458E3,7.9393243E2,5.431323E2,6.8521436E2,2.5832225E4,3.9317668E4,1.6799543E3,2.610657E3,2.0706345E3,4.2152017E3,2.632072E2,2.3898106E2,7.417934E3,1.1179143E2],"tree_param":{"num_deleted":"0","num_feature":"13","num_nodes":"127","size_leaf_vector":"0"}},{"base_weights":[6.2086E-1,7.3097426E-1,4.4453874E-1,9.4426656E-1,7.0202196E-1,5.1372063E-1,2.6923922E-1,9.891294E-1,8.3469725E-1,3.301073E-1,5.483656E-1,4.620753E-1,7.2155184E-1,1.1657468E-1,3.7851533E-1,8.8261425E-1,9.9781036E-1,-4.9848872E-1,5.3227234E-1,2.4512162E-2,2.0855029E-1,7.993502E-1,6.6860205E-1,1.7919481E-1,4.3184227E-1,6.841795E-1,3.4377655E-1,4.1538748E-1,8.498942E-1,4.8905593E-1,6.442533E-1,9.5958835E-1,7.58174E-1,-1.0360801E0,6.850853E-2,8.861607E-1,7.69988E-1,4.4125095E-1,6.908676E-1,3.033477E-1,8.2201856E-1,7.1156335E-1,5.8875024E-1,7.526476E-1,-4.4146645E-1,4.862852E-1,2.2488774E-1,7.517441E-1,2.7509075E-1,6.52613E-1,3.8959664E-1,-1.112364E0,3.335579E-1,1.854387E-1,6.211974E-1,6.372365E-1,7.786197E-1,6.2008873E-2,-2.8139096E-1,1.0104903E0,9.5608044E-1,5.477259E-1,-4.0154713E-1,2.945646E-1,1.8228152E-1,-1.8083599E-1,-5.815946E-1,9.69702E-2,1.4839862E-1,-1.107453E0,7.3252216E-2,1.5357341E-1,2.3367094E-1,-2.7693608E-1,1.8554801E-1,2.96864E-1,2.378339E-1,2.8606877E-1,3.0402178E-1,-3.340383E-1,4.674403E-2,2.0848825E-3,6.872385E-2,1.9036303E-1,2.4451484E-1,1.0807812E-1,1.9515415E-1,4.6224717E-2,2.3713051E-1,1.0650936E-3,7.0243895E-2,6.6141926E-2,1.3466729E-1,-1.0028588E0,-2.9192147E-1,4.283615E-2,1.3715002E-1,2.5535515E-1,1.8218994E-1,-1.0572501E0,1.6483325E-1,-2.7660257E-3,1.744961E-1,1.51397E-1,2.6424244E-1,1.6350572E-1,-8.371366E-1,7.2696204E-3,2.9952037E-1,1.5942119E-1,2.3280819E-1,2.6330474E-1,2.0418246E-1,2.1796411E-1,2.6489002E-1,2.3150696E-1,-6.3128036E-1,-7.6535165E-2,2.1089447E-1,2.6637775E-1,-8.3824265E-1,2.670553E-1,1.8654387E-1,4.5819785E-2,-8.087825E-1],"categories":[],"categories_nodes":[],"categories_segments":[],"categories_sizes":[],"default_left":[0,0,0,1,1,1,1,1,1,0,1,0,1,1,1,1,1,0,1,0,0,1,0,0,1,1,0,0,1,1,1,1,1,1,1,1,1,1,0,0,1,0,1,1,0,1,0,1,1,0,1,0,1,1,0,0,1,1,1,1,1,0,1,0,0,0,0,0,0,0,0,0,0,0,0,0,0,0,0,0,0,0,0,0,0,0,0,0,0,0,0,0,0,0,0,0,0,0,0,0,0,0,0,0,0,0,0,0,0,0,0,0,0,0,0,0,0,0,0,0,0,0,0,0,0],"id":10,"left_children":[1,3,5,7,11,9,13,15,27,17,29,25,21,19,23,31,59,33,61,57,53,35,55,51,49,47,45,43,39,37,41,63,121,65,123,119,115,67,117,-1,113,111,109,107,105,101,69,103,99,97,95,93,91,89,87,85,83,81,79,77,75,71,73,-1,-1,-1,-1,-1,-1,-1,-1,-1,-1,-1,-1,-1,-1,-1,-1,-1,-1,-1,-1,-1,-1,-1,-1,-1,-1,-1,-1,-1,-1,-1,-1,-1,-1,-1,-1,-1,-1,-1,-1,-1,-1,-1,-1,-1,-1,-1,-1,-1,-1,-1,-1,-1,-1,-1,-1,-1,-1,-1,-1,-1,-1],"loss_changes":[4.775758E3,9.344375E2,1.1467598E3,8.812109E1,6.2446875E2,4.3116406E2,4.464298E2,1.0985352E1,3.3184082E1,1.803697E3,3.240918E2,2.6351196E2,5.0735938E2,9.454605E1,1.6571094E2,8.618652E0,5.3085938E0,6.438522E2,1.25116455E2,6.4041245E1,5.3155045E1,1.2657617E2,2.526836E2,6.570764E2,1.1450586E2,9.618689E1,1.10892456E2,5.4091785E1,2.1996094E1,3.3975195E2,8.1009766E1,4.10437E0,6.244705E0,4.22838E2,2.3996274E2,8.441211E1,1.8415039E2,1.7948828E2,7.751636E1,0E0,2.458252E1,5.003076E1,1.2794336E2,2.3937904E1,1.2473292E2,1.4077698E2,2.7083032E2,9.498865E1,5.188534E2,1.7252808E1,1.7221936E2,1.0607379E2,3.828534E1,4.6872665E1,2.3264236E1,2.0974219E2,8.4890625E1,4.5744102E1,2.2195761E2,5.410156E-1,1.4419434E1,7.009619E1,7.583781E1,0E0,0E0,0E0,0E0,0E0,0E0,0E0,0E0,0E0,0E0,0E0,0E0,0E0,0E0,0E0,0E0,0E0,0E0,0E0,0E0,0E0,0E0,0E0,0E0,0E0,0E0,0E0,0E0,0E0,0E0,0E0,0E0,0E0,0E0,0E0,0E0,0E0,0E0,0E0,0E0,0E0,0E0,0E0,0E0,0E0,0E0,0E0,0E0,0E0,0E0,0E0,0E0,0E0,0E0,0E0,0E0,0E0,0E0,0E0,0E0,0E0,0E0],"parents":[2147483647,0,0,1,1,2,2,3,3,5,5,4,4,6,6,7,7,9,9,13,13,12,12,14,14,11,11,8,8,10,10,15,15,17,17,21,21,29,29,28,28,30,30,27,27,26,26,25,25,24,24,23,23,20,20,22,22,19,19,16,16,18,18,31,31,33,33,37,37,46,46,61,61,62,62,60,60,59,59,58,58,57,57,56,56,55,55,54,54,53,53,52,52,51,51,50,50,49,49,48,48,45,45,47,47,44,44,43,43,42,42,41,41,40,40,36,36,38,38,35,35,32,32,34,34],"right_children":[2,4,6,8,12,10,14,16,28,18,30,26,22,20,24,32,60,34,62,58,54,36,56,52,50,48,46,44,40,38,42,64,122,66,124,120,116,68,118,-1,114,112,110,108,106,102,70,104,100,98,96,94,92,90,88,86,84,82,80,78,76,72,74,-1,-1,-1,-1,-1,-1,-1,-1,-1,-1,-1,-1,-1,-1,-1,-1,-1,-1,-1,-1,-1,-1,-1,-1,-1,-1,-1,-1,-1,-1,-1,-1,-1,-1,-1,-1,-1,-1,-1,-1,-1,-1,-1,-1,-1,-1,-1,-1,-1,-1,-1,-1,-1,-1,-1,-1,-1,-1,-1,-1,-1,-1],"split_conditions":[5.538114E4,1E0,1.4164225E5,1.086E3,2.6655863E1,1.6442033E2,4.7E1,2.25E2,2.6655863E1,1.9E1,5.7E1,2E0,2.0016914E4,9.513203E0,1.6442033E2,2.862841E4,5E0,5.129174E1,5.4367477E1,2.24E2,1.4805782E1,2E0,5E0,2E0,3.9E1,3.7561E4,1.04E2,5E0,7.834E3,1.1583347E1,9.4E1,5.2595444E1,4E0,8.961284E4,5.361003E1,2.4E1,1.8E1,8.2E1,3E0,3.033477E-1,1.197E3,1E0,5E0,2.1751E4,9E0,3.7E1,1.09E2,2E0,3.9289E4,5.2E1,8E1,6.12E2,9.561754E0,1.0967427E3,2.1E1,6.786973E0,5.01E2,5E0,2.26E2,1.055E3,9.73E2,1.2427236E1,8.984476E0,2.945646E-1,1.8228152E-1,-1.8083599E-1,-5.815946E-1,9.69702E-2,1.4839862E-1,-1.107453E0,7.3252216E-2,1.5357341E-1,2.3367094E-1,-2.7693608E-1,1.8554801E-1,2.96864E-1,2.378339E-1,2.8606877E-1,3.0402178E-1,-3.340383E-1,4.674403E-2,2.0848825E-3,6.872385E-2,1.9036303E-1,2.4451484E-1,1.0807812E-1,1.9515415E-1,4.6224717E-2,2.3713051E-1,1.0650936E-3,7.0243895E-2,6.6141926E-2,1.3466729E-1,-1.0028588E0,-2.9192147E-1,4.283615E-2,1.3715002E-1,2.5535515E-1,1.8218994E-1,-1.0572501E0,1.6483325E-1,-2.7660257E-3,1.744961E-1,1.51397E-1,2.6424244E-1,1.6350572E-1,-8.371366E-1,7.2696204E-3,2.9952037E-1,1.5942119E-1,2.3280819E-1,2.6330474E-1,2.0418246E-1,2.1796411E-1,2.6489002E-1,2.3150696E-1,-6.3128036E-1,-7.6535165E-2,2.1089447E-1,2.6637775E-1,-8.3824265E-1,2.670553E-1,1.8654387E-1,4.5819785E-2,-8.087825E-1],"split_indices":[6,3,6,10,6,7,4,10,6,12,4,8,6,2,7,6,11,1,1,3,2,8,11,12,3,5,3,11,5,2,3,1,11,6,1,9,9,3,4,0,10,11,11,5,9,4,3,11,5,4,3,5,2,7,3,2,10,11,3,5,10,2,2,0,0,0,0,0,0,0,0,0,0,0,0,0,0,0,0,0,0,0,0,0,0,0,0,0,0,0,0,0,0,0,0,0,0,0,0,0,0,0,0,0,0,0,0,0,0,0,0,0,0,0,0,0,0,0,0,0,0,0,0,0,0],"split_type":[0,0,0,0,0,0,0,0,0,0,0,0,0,0,0,0,0,0,0,0,0,0,0,0,0,0,0,0,0,0,0,0,0,0,0,0,0,0,0,0,0,0,0,0,0,0,0,0,0,0,0,0,0,0,0,0,0,0,0,0,0,0,0,0,0,0,0,0,0,0,0,0,0,0,0,0,0,0,0,0,0,0,0,0,0,0,0,0,0,0,0,0,0,0,0,0,0,0,0,0,0,0,0,0,0,0,0,0,0,0,0,0,0,0,0,0,0,0,0,0,0,0,0,0,0],"sum_hessian":[2.459925E5,1.5142377E5,9.456874E4,1.809389E4,1.3332988E5,6.780687E4,2.6761873E4,1.2831885E4,5.262006E3,1.0764908E4,5.704196E4,1.0037085E4,1.2329278E5,1.1165351E4,1.5596522E4,9.747313E2,1.1857154E4,2.111054E3,8.6538545E3,5.5806724E3,5.5846787E3,4.9924785E4,7.3368E4,3.292919E3,1.2303604E4,3.4864817E3,6.550603E3,1.8503026E2,5.0769756E3,3.5246793E4,2.179517E4,5.980742E2,3.7665707E2,1.083202E3,1.0278519E3,1.2610934E4,3.731385E4,2.8499125E4,6.747668E3,7.4304944E2,4.3339263E3,9.844581E3,1.1950589E4,1.3285843E2,5.217183E1,2.9779407E3,3.5726624E3,2.9915615E3,4.9492023E2,1.9738812E3,1.0329723E4,3.5088147E2,2.9420376E3,5.289853E3,2.9482544E2,5.709673E4,1.6271268E4,4.9720146E3,6.086577E2,9.076114E3,2.7810396E3,8.513382E3,1.4047221E2,5.6076715E2,3.730708E1,7.329869E2,3.5021515E2,8.88155E3,1.9617576E4,1.6574312E1,3.5560881E3,7.3741694E3,1.1392122E3,9.300921E1,4.746301E1,2.3038398E3,4.771998E2,4.5817896E2,8.617936E3,2.0912073E2,3.99537E2,3.7403865E3,1.2316283E3,3.2875833E3,1.2983685E4,2.6131006E3,5.448363E4,7.8916756E1,2.1590869E2,1.1175751E3,4.172278E3,1.4869675E3,1.4550701E3,1.9272408E1,3.3160907E2,2.220851E3,8.1088716E3,3.634391E2,1.6104421E3,3.2534584E1,4.6238565E2,4.8079282E2,2.497148E3,1.0281412E3,1.9634203E3,3.728256E1,1.4889272E1,3.379333E1,9.9065094E1,9.151988E3,2.7986008E3,1.5420267E3,8.302555E3,1.6937267E3,2.6401997E3,3.7292504E4,2.1349333E1,8.5062004E1,6.662606E3,1.2605646E4,5.287219E0,1.8857288E2,1.880842E2,9.983792E2,2.947272E1],"tree_param":{"num_deleted":"0","num_feature":"13","num_nodes":"125","size_leaf_vector":"0"}},{"base_weights":[5.380188E-1,6.5942025E-1,3.67742E-1,9.140237E-1,6.2687373E-1,4.473607E-1,2.3082134E-1,9.7245455E-1,7.780506E-1,3.6526674E-1,5.326579E-1,3.8220584E-1,6.4898676E-1,9.6876346E-2,3.1159958E-1,8.3842427E-1,9.837966E-1,4.1239378E-1,1.3749449E-1,4.6823166E-2,2.571645E-1,7.3367846E-1,5.9010375E-1,2.3709337E-1,4.4416958E-1,6.092839E-1,2.719936E-1,6.74519E-1,8.599497E-1,4.9319723E-1,6.626546E-1,9.328715E-1,6.920798E-1,2.6912916E-1,4.7862437E-1,9.3789685E-1,7.1483505E-1,4.4423893E-1,6.6357684E-1,8.946865E-1,6.3533545E-1,7.4232775E-1,5.082571E-1,8.157077E-1,3.7787542E-1,1.722976E-1,4.6620035E-1,4.6056885E-1,8.1714344E-1,6.524823E-1,3.7767655E-1,2.291317E-2,2.9195982E-1,5.568717E-1,1.8733084E-1,7.416127E-1,5.612964E-1,2.9549776E-2,5.9234077E-1,1.0006125E0,9.29434E-1,-2.7333668E-1,4.5727092E-1,2.8850806E-1,1.5793371E-1,1.3703057E-1,-1.9704256E-2,1.4977987E-1,9.372441E-2,7.82381E-2,-1.8517396E-1,-5.9255505E-1,3.3745226E-2,2.9213735E-1,2.1757263E-1,1.6289416E-1,3.0610057E-2,2.8617835E-1,3.0199432E-1,2.4298237E-1,2.2319818E-2,3.9030913E-2,-1.3823439E-2,8.978526E-2,1.7460486E-1,2.696175E-1,2.0265572E-1,4.9172085E-2,2.9749933E-1,7.362165E-2,2.2641593E-1,4.9596407E-2,1.1919732E-1,-2.4205057E-1,6.61339E-2,9.676886E-2,2.065018E-1,8.956797E-2,2.0840354E-1,2.5343025E-1,-4.87493E-1,3.540197E-2,2.0118569E-1,-1.900767E-2,3.011122E-1,7.37502E-3,1.9087563E-1,1.8286698E-1,2.8567758E-1,1.9816317E-1,7.428583E-2,1.9908834E-1,2.497329E-1,2.9272726E-1,1.285134E-1,2.5137958E-1,2.9209256E-1,1.9020654E-1,2.3057054E-1,1.3547471E-1,2.201353E-1,2.5197914E-1,2.9604056E-1,2.331404E-1,1.17705084E-1,4.1713614E-2,1.5112957E-1],"categories":[],"categories_nodes":[],"categories_segments":[],"categories_sizes":[],"default_left":[1,1,1,1,1,1,1,0,1,1,1,1,1,1,1,0,1,1,1,1,0,1,1,1,1,0,1,0,1,1,0,1,0,1,0,0,1,1,1,1,1,1,1,1,1,0,1,0,1,1,0,0,1,1,1,1,1,0,1,0,0,1,1,0,0,0,0,0,0,0,0,0,0,0,0,0,0,0,0,0,0,0,0,0,0,0,0,0,0,0,0,0,0,0,0,0,0,0,0,0,0,0,0,0,0,0,0,0,0,0,0,0,0,0,0,0,0,0,0,0,0,0,0,0,0,0,0],"id":11,"left_children":[1,3,5,7,11,9,13,15,27,17,29,25,21,19,23,31,59,33,61,57,53,35,55,51,49,47,45,43,39,37,41,63,123,65,125,121,117,67,119,115,113,111,109,107,103,69,105,101,99,97,95,93,91,89,87,85,83,81,79,77,73,71,75,-1,-1,-1,-1,-1,-1,-1,-1,-1,-1,-1,-1,-1,-1,-1,-1,-1,-1,-1,-1,-1,-1,-1,-1,-1,-1,-1,-1,-1,-1,-1,-1,-1,-1,-1,-1,-1,-1,-1,-1,-1,-1,-1,-1,-1,-1,-1,-1,-1,-1,-1,-1,-1,-1,-1,-1,-1,-1,-1,-1,-1,-1,-1,-1],"loss_changes":[4.2786406E3,1.0007383E3,9.3911426E2,1.0804199E2,5.794375E2,3.8126855E2,3.4274524E2,1.3728516E1,3.4361572E1,2.9795215E2,1.3671289E2,2.2215686E2,4.8958984E2,9.561707E1,1.9508765E2,9.7724E0,7.133789E0,2.1813086E2,6.255875E2,8.5583466E1,5.9255417E1,1.5439062E2,2.5258594E2,1.4868994E2,9.82251E1,8.932715E1,1.15750244E2,7.611554E1,1.7355103E1,1.7068604E2,7.611255E1,4.8261414E0,7.3307953E0,4.5703302E2,1.342146E2,1.5464355E1,1.5972461E2,1.1536548E2,6.7734985E1,8.088257E0,2.1501862E1,2.8520508E1,8.396918E1,3.419702E1,1.6306285E2,2.7648352E2,1.5233926E2,1.2180682E2,8.293298E1,2.5461243E1,9.208789E1,4.232975E2,1.343418E2,3.2811005E1,4.3202972E1,9.552637E1,2.6426758E2,6.697658E1,3.135794E1,9.3408203E-1,1.8296753E1,1.3688654E3,8.146747E1,0E0,0E0,0E0,0E0,0E0,0E0,0E0,0E0,0E0,0E0,0E0,0E0,0E0,0E0,0E0,0E0,0E0,0E0,0E0,0E0,0E0,0E0,0E0,0E0,0E0,0E0,0E0,0E0,0E0,0E0,0E0,0E0,0E0,0E0,0E0,0E0,0E0,0E0,0E0,0E0,0E0,0E0,0E0,0E0,0E0,0E0,0E0,0E0,0E0,0E0,0E0,0E0,0E0,0E0,0E0,0E0,0E0,0E0,0E0,0E0,0E0,0E0,0E0,0E0],"parents":[2147483647,0,0,1,1,2,2,3,3,5,5,4,4,6,6,7,7,9,9,13,13,12,12,14,14,11,11,8,8,10,10,15,15,17,17,21,21,29,29,28,28,30,30,27,27,26,26,25,25,24,24,23,23,20,20,22,22,19,19,16,16,18,18,31,31,33,33,37,37,45,45,61,61,60,60,62,62,59,59,58,58,57,57,56,56,55,55,54,54,53,53,52,52,51,51,50,50,49,49,48,48,47,47,44,44,46,46,43,43,42,42,41,41,40,40,39,39,36,36,38,38,35,35,32,32,34,34],"right_children":[2,4,6,8,12,10,14,16,28,18,30,26,22,20,24,32,60,34,62,58,54,36,56,52,50,48,46,44,40,38,42,64,124,66,126,122,118,68,120,116,114,112,110,108,104,70,106,102,100,98,96,94,92,90,88,86,84,82,80,78,74,72,76,-1,-1,-1,-1,-1,-1,-1,-1,-1,-1,-1,-1,-1,-1,-1,-1,-1,-1,-1,-1,-1,-1,-1,-1,-1,-1,-1,-1,-1,-1,-1,-1,-1,-1,-1,-1,-1,-1,-1,-1,-1,-1,-1,-1,-1,-1,-1,-1,-1,-1,-1,-1,-1,-1,-1,-1,-1,-1,-1,-1,-1,-1,-1,-1],"split_conditions":[5.355752E4,1E0,1.2082726E5,1.086E3,2.6655863E1,9.300455E0,4.7E1,2.25E2,1.207E3,2.31E2,1.2427236E1,2E0,2.0233777E4,5E0,1.0083362E1,2.862841E4,5E0,6.965E3,2.57E2,5.3953068E1,1.7463423E5,1.3E1,2E0,1.6442033E2,5.2E1,8.83E2,1.0006909E1,5E0,5.255067E1,5E0,1.362753E1,5.2595444E1,1.68E2,8.278634E0,7E0,1.1E1,5.3E1,1.061E3,5.71E2,4E0,3E0,5.2317184E1,5.6E1,3.4E1,6E0,2.36E2,1.5056E4,2E0,3.07E2,4.46E2,2.57E2,1.8E1,3E0,1E1,2.5E1,3.8E1,5.9140106E2,8.53E2,6.7119744E5,4.531E3,9.73E2,5.1274307E1,6.9E1,2.8850806E-1,1.5793371E-1,1.3703057E-1,-1.9704256E-2,1.4977987E-1,9.372441E-2,7.82381E-2,-1.8517396E-1,-5.9255505E-1,3.3745226E-2,2.9213735E-1,2.1757263E-1,1.6289416E-1,3.0610057E-2,2.8617835E-1,3.0199432E-1,2.4298237E-1,2.2319818E-2,3.9030913E-2,-1.3823439E-2,8.978526E-2,1.7460486E-1,2.696175E-1,2.0265572E-1,4.9172085E-2,2.9749933E-1,7.362165E-2,2.2641593E-1,4.9596407E-2,1.1919732E-1,-2.4205057E-1,6.61339E-2,9.676886E-2,2.065018E-1,8.956797E-2,2.0840354E-1,2.5343025E-1,-4.87493E-1,3.540197E-2,2.0118569E-1,-1.900767E-2,3.011122E-1,7.37502E-3,1.9087563E-1,1.8286698E-1,2.8567758E-1,1.9816317E-1,7.428583E-2,1.9908834E-1,2.497329E-1,2.9272726E-1,1.285134E-1,2.5137958E-1,2.9209256E-1,1.9020654E-1,2.3057054E-1,1.3547471E-1,2.201353E-1,2.5197914E-1,2.9604056E-1,2.331404E-1,1.17705084E-1,4.1713614E-2,1.5112957E-1],"split_indices":[6,3,6,10,6,2,4,10,10,3,2,8,6,11,2,6,11,5,3,1,6,4,8,7,4,10,2,11,1,11,2,1,8,2,9,4,4,10,10,11,11,1,4,8,11,3,5,11,3,10,3,12,11,9,9,4,7,10,6,5,10,1,4,0,0,0,0,0,0,0,0,0,0,0,0,0,0,0,0,0,0,0,0,0,0,0,0,0,0,0,0,0,0,0,0,0,0,0,0,0,0,0,0,0,0,0,0,0,0,0,0,0,0,0,0,0,0,0,0,0,0,0,0,0,0,0,0],"split_type":[0,0,0,0,0,0,0,0,0,0,0,0,0,0,0,0,0,0,0,0,0,0,0,0,0,0,0,0,0,0,0,0,0,0,0,0,0,0,0,0,0,0,0,0,0,0,0,0,0,0,0,0,0,0,0,0,0,0,0,0,0,0,0,0,0,0,0,0,0,0,0,0,0,0,0,0,0,0,0,0,0,0,0,0,0,0,0,0,0,0,0,0,0,0,0,0,0,0,0,0,0,0,0,0,0,0,0,0,0,0,0,0,0,0,0,0,0,0,0,0,0,0,0,0,0,0,0],"sum_hessian":[2.0698983E5,1.2083547E5,8.615436E4,1.3692842E4,1.07142625E5,5.4475094E4,3.1679266E4,9.572955E3,4.119888E3,2.776147E4,2.6713623E4,8.882387E3,9.8260234E4,1.1918473E4,1.9760793E4,7.527339E2,8.820221E3,2.3001545E4,4.7599263E3,9.083317E3,2.8351553E3,4.029392E4,5.7966312E4,1.2652626E4,7.108167E3,2.9009094E3,5.981477E3,1.823709E3,2.2961792E3,2.0496629E4,6.216994E3,4.542179E2,2.98516E2,7.2733916E3,1.5728153E4,3.3997568E3,3.6894164E4,1.5924389E4,4.57224E3,1.9860513E3,3.1012796E2,4.0983374E3,2.1186565E3,1.2344282E3,5.892808E2,3.9537217E3,2.0277552E3,1.6929137E3,1.2079957E3,1.7177864E3,5.390381E3,2.5805273E3,1.0072099E4,5.3445306E2,2.3007021E3,9.256741E3,4.870957E4,8.805551E3,2.7776675E2,6.7231494E3,2.0970715E3,2.0834148E3,2.6765115E3,4.2286395E2,3.1353956E1,4.660896E3,2.6124958E3,1.1232731E4,4.6916577E3,3.5558354E3,3.9788626E2,3.842735E2,1.6991414E3,1.719723E3,3.7734854E2,2.1558357E3,5.2067584E2,7.8785785E2,5.9352915E3,1.9519609E2,8.257066E1,3.7795803E3,5.02597E3,3.5707683E3,4.51388E4,2.7372866E3,6.5194546E3,2.2367666E3,6.3935585E1,2.0848376E2,3.259693E2,4.5754277E3,5.496671E3,4.9560947E2,2.084918E3,4.579912E3,8.104689E2,1.8384595E2,1.5339404E3,1.1951311E3,1.2864635E1,6.4407666E2,1.048837E3,3.4613898E2,2.4314185E2,5.640602E2,1.4636951E3,4.9403967E2,7.4038855E2,1.3363263E3,7.8233014E2,2.192197E3,1.9061404E3,1.15851074E2,1.9427689E2,1.1622305E3,8.238208E2,1.4739394E4,2.2154771E4,1.1393513E3,3.432889E3,1.1380956E3,2.2616611E3,2.3128972E2,6.722627E1,1.0846234E3,1.464353E4],"tree_param":{"num_deleted":"0","num_feature":"13","num_nodes":"127","size_leaf_vector":"0"}},{"base_weights":[4.546699E-1,5.818656E-1,2.9614547E-1,8.7861484E-1,5.4687196E-1,3.8376924E-1,1.945883E-1,9.535565E-1,7.1465605E-1,3.408586E-1,5.3388166E-1,7.02775E-1,5.0782794E-1,1.6131842E-1,4.5946166E-1,7.8589886E-1,9.6839935E-1,2.963405E-1,5.8141226E-1,1.1273955E-1,3.1846982E-1,4.093761E-1,5.961893E-1,6.116627E-1,3.7316483E-1,5.926975E-1,8.005584E-1,9.8694694E-1,6.725555E-1,-5.3187612E-2,5.5603576E-1,8.872578E-1,5.888787E-1,8.163602E-2,3.3716744E-1,3.0152053E-1,6.0926485E-1,-4.8980483E-1,3.8353145E-1,5.365857E-1,7.8580874E-1,-8.93937E-1,5.6536233E-1,1.8755001E-1,9.913224E-1,-1.1853537E-1,8.163879E-1,8.0664337E-1,4.3396187E-1,5.4933643E-1,2.6173073E-1,5.0488025E-1,7.8327805E-1,2.0038211E-1,4.422505E-1,-2.7769763E0,6.0330045E-1,1.4746141E-1,-2.3687685E-1,9.908803E-1,8.974617E-1,4.953325E-1,7.7333814E-1,2.7654752E-1,1.2728447E-1,-1.7066103E-1,9.2705704E-2,-3.9753005E-1,8.461867E-2,1.13371864E-1,-1.1310638E0,2.3122826E-1,1.2954818E-1,2.8664258E-1,1.9480889E-1,1.918964E-1,2.679602E-1,2.787085E-1,2.9966116E-1,-5.035316E-4,-1.748521E-1,-1.6134486E-2,5.9328984E-2,6.6293776E-2,1.9048645E-1,-1.1887177E0,2.3641877E-1,1.09191634E-1,2.1836121E-1,7.080291E-2,-4.664798E-1,1.4435501E-1,2.5871912E-1,2.2996202E-1,1.16727255E-1,-4.3891448E-1,8.989614E-2,1.4883256E-1,2.822836E-1,3.8383476E-2,1.9770584E-1,2.4595475E-1,-7.5028776E-3,3.0002376E-1,2.0050967E-1,2.8367773E-1,2.3152338E-1,-6.525351E-2,1.6650239E-1,5.7987407E-2,1.7524596E-1,4.3608215E-2,-6.649978E-1,1.24366306E-1,2.6407745E-1,2.1661125E-1,6.213367E-2,-8.737826E-2,1.9133453E-1,-6.733789E-2,2.2245023E-1,1.1010582E-1,1.873047E-2,1.3959041E-1,2.8171507E-1,8.1281565E-2,1.2977073E-1],"categories":[],"categories_nodes":[],"categories_segments":[],"categories_sizes":[],"default_left":[0,1,0,1,0,1,1,0,1,1,1,1,1,1,1,1,1,1,0,0,1,1,1,1,1,0,0,0,1,1,1,1,1,0,1,0,0,1,1,0,1,0,1,1,1,1,1,1,1,0,1,0,1,1,1,1,0,0,0,0,1,1,1,0,0,0,0,0,0,0,0,0,0,0,0,0,0,0,0,0,0,0,0,0,0,0,0,0,0,0,0,0,0,0,0,0,0,0,0,0,0,0,0,0,0,0,0,0,0,0,0,0,0,0,0,0,0,0,0,0,0,0,0,0,0,0,0],"id":12,"left_children":[1,3,5,7,11,9,13,15,27,17,29,25,21,19,23,31,59,33,61,57,53,35,55,51,49,47,45,43,39,37,41,63,123,65,125,121,117,67,119,115,113,111,109,107,103,69,105,101,99,97,95,93,91,89,87,85,83,81,79,77,73,71,75,-1,-1,-1,-1,-1,-1,-1,-1,-1,-1,-1,-1,-1,-1,-1,-1,-1,-1,-1,-1,-1,-1,-1,-1,-1,-1,-1,-1,-1,-1,-1,-1,-1,-1,-1,-1,-1,-1,-1,-1,-1,-1,-1,-1,-1,-1,-1,-1,-1,-1,-1,-1,-1,-1,-1,-1,-1,-1,-1,-1,-1,-1,-1,-1],"loss_changes":[3.5920586E3,1.0259414E3,7.05708E2,1.27410645E2,5.378613E2,2.7406543E2,3.2366614E2,1.7036133E1,3.6869873E1,3.544397E2,1.2310718E2,1.9010938E2,6.149219E2,2.4914032E2,5.360974E1,1.1198761E1,9.581055E0,2.4492554E2,8.5032104E1,3.0271432E2,1.1255768E2,7.2098193E2,8.955469E2,2.6755432E1,5.1259247E1,2.8265405E2,1.3647412E2,1.3401489E0,4.3293945E1,6.59788E1,1.2382617E2,5.7798157E0,8.319817E0,6.607701E2,1.4823315E2,3.4025134E2,3.0122266E2,1.1189824E2,3.7831192E1,7.8867065E1,5.3868225E1,8.097484E1,6.324048E1,6.578127E-1,5.58136E-1,2.907255E2,5.2424805E1,3.8989014E1,3.2953754E2,2.0661163E1,1.0547166E2,2.7457932E1,1.312439E1,2.4712744E2,8.383972E1,3.3517596E2,4.4990332E2,2.2961642E2,1.833216E2,1.53125E0,2.2273315E1,6.2146606E1,2.5051392E1,0E0,0E0,0E0,0E0,0E0,0E0,0E0,0E0,0E0,0E0,0E0,0E0,0E0,0E0,0E0,0E0,0E0,0E0,0E0,0E0,0E0,0E0,0E0,0E0,0E0,0E0,0E0,0E0,0E0,0E0,0E0,0E0,0E0,0E0,0E0,0E0,0E0,0E0,0E0,0E0,0E0,0E0,0E0,0E0,0E0,0E0,0E0,0E0,0E0,0E0,0E0,0E0,0E0,0E0,0E0,0E0,0E0,0E0,0E0,0E0,0E0,0E0,0E0,0E0],"parents":[2147483647,0,0,1,1,2,2,3,3,5,5,4,4,6,6,7,7,9,9,13,13,12,12,14,14,11,11,8,8,10,10,15,15,17,17,21,21,29,29,28,28,30,30,27,27,26,26,25,25,24,24,23,23,20,20,22,22,19,19,16,16,18,18,31,31,33,33,37,37,45,45,61,61,60,60,62,62,59,59,58,58,57,57,56,56,55,55,54,54,53,53,52,52,51,51,50,50,49,49,48,48,47,47,44,44,46,46,43,43,42,42,41,41,40,40,39,39,36,36,38,38,35,35,32,32,34,34],"right_children":[2,4,6,8,12,10,14,16,28,18,30,26,22,20,24,32,60,34,62,58,54,36,56,52,50,48,46,44,40,38,42,64,124,66,126,122,118,68,120,116,114,112,110,108,104,70,106,102,100,98,96,94,92,90,88,86,84,82,80,78,74,72,76,-1,-1,-1,-1,-1,-1,-1,-1,-1,-1,-1,-1,-1,-1,-1,-1,-1,-1,-1,-1,-1,-1,-1,-1,-1,-1,-1,-1,-1,-1,-1,-1,-1,-1,-1,-1,-1,-1,-1,-1,-1,-1,-1,-1,-1,-1,-1,-1,-1,-1,-1,-1,-1,-1,-1,-1,-1,-1,-1,-1,-1,-1,-1,-1],"split_conditions":[5.2586766E4,1E0,1.0421198E5,1.086E3,2E0,5E0,2.6E2,2.25E2,7.834E3,1.1970261E1,9.03E2,3E0,5.7E1,5E0,5.1159237E1,3.1527795E4,5E0,1.6442033E2,5.227686E1,2.24E2,8E1,1.0358809E1,6.474022E0,5.0254284E1,3.309E4,5.2E1,2E0,2.6655863E1,1.207E3,8.18E2,3E0,5.2595444E1,1.3441309E1,1.5E1,5.7E1,2.35E2,2.2E1,5.1159237E1,4.62E2,5E0,1.1982E4,5.4241325E1,1.44E2,2.7172612E3,1.422E3,1.4706465E4,1.6E1,2.1E1,7.14E2,2.918E4,6.852055E0,2E0,5.8E2,7.8E1,5.3E1,8.555407E4,1.6442033E2,1.6442033E2,3E0,4.531E3,9.73E2,1E0,5.3E1,2.7654752E-1,1.2728447E-1,-1.7066103E-1,9.2705704E-2,-3.9753005E-1,8.461867E-2,1.13371864E-1,-1.1310638E0,2.3122826E-1,1.2954818E-1,2.8664258E-1,1.9480889E-1,1.918964E-1,2.679602E-1,2.787085E-1,2.9966116E-1,-5.035316E-4,-1.748521E-1,-1.6134486E-2,5.9328984E-2,6.6293776E-2,1.9048645E-1,-1.1887177E0,2.3641877E-1,1.09191634E-1,2.1836121E-1,7.080291E-2,-4.664798E-1,1.4435501E-1,2.5871912E-1,2.2996202E-1,1.16727255E-1,-4.3891448E-1,8.989614E-2,1.4883256E-1,2.822836E-1,3.8383476E-2,1.9770584E-1,2.4595475E-1,-7.5028776E-3,3.0002376E-1,2.0050967E-1,2.8367773E-1,2.3152338E-1,-6.525351E-2,1.6650239E-1,5.7987407E-2,1.7524596E-1,4.3608215E-2,-6.649978E-1,1.24366306E-1,2.6407745E-1,2.1661125E-1,6.213367E-2,-8.737826E-2,1.9133453E-1,-6.733789E-2,2.2245023E-1,1.1010582E-1,1.873047E-2,1.3959041E-1,2.8171507E-1,8.1281565E-2,1.2977073E-1],"split_indices":[6,3,6,10,8,11,3,10,5,2,5,11,4,11,1,6,11,7,1,3,3,2,2,1,5,4,3,6,10,10,9,1,2,12,4,3,3,1,5,11,5,1,10,7,10,7,4,9,10,5,2,11,10,3,4,7,7,7,11,5,10,11,4,0,0,0,0,0,0,0,0,0,0,0,0,0,0,0,0,0,0,0,0,0,0,0,0,0,0,0,0,0,0,0,0,0,0,0,0,0,0,0,0,0,0,0,0,0,0,0,0,0,0,0,0,0,0,0,0,0,0,0,0,0,0,0,0],"split_type":[0,0,0,0,0,0,0,0,0,0,0,0,0,0,0,0,0,0,0,0,0,0,0,0,0,0,0,0,0,0,0,0,0,0,0,0,0,0,0,0,0,0,0,0,0,0,0,0,0,0,0,0,0,0,0,0,0,0,0,0,0,0,0,0,0,0,0,0,0,0,0,0,0,0,0,0,0,0,0,0,0,0,0,0,0,0,0,0,0,0,0,0,0,0,0,0,0,0,0,0,0,0,0,0,0,0,0,0,0,0,0,0,0,0,0,0,0,0,0,0,0,0,0,0,0,0,0],"sum_hessian":[1.7815306E5,9.884213E4,7.931093E4,1.0423745E4,8.841839E4,4.2574645E4,3.6736285E4,7.1505757E3,3.2731694E3,3.31125E4,9.4621455E3,1.7705041E4,7.071335E4,3.2638303E4,4.097982E3,5.859496E2,6.564626E3,2.794338E4,5.1691187E3,2.4932766E4,7.7055376E3,3.34496E4,3.726375E4,1.4805898E3,2.617392E3,8.332251E3,9.37279E3,4.3530884E2,2.8378606E3,3.4403494E2,9.11811E3,3.845901E2,2.013595E2,4.46507E3,2.347831E4,2.1728104E4,1.1721499E4,1.7197675E2,1.720582E2,1.2922029E3,1.5456577E3,5.7669155E1,9.060441E3,2.608444E0,4.327004E2,1.5858386E2,9.214206E3,3.5472043E3,4.7850464E3,1.0125976E3,1.6047944E3,9.151237E2,5.654661E2,3.9447937E3,3.760744E3,7.757293E1,3.7186176E4,2.2680816E4,2.2519492E3,4.975018E3,1.589608E3,3.5710608E3,1.5980579E3,3.5694815E2,2.7641932E1,1.1561135E3,3.3089563E3,8.2250534E1,8.972621E1,1.4039397E2,1.8189898E1,6.6701544E2,2.9040454E3,1.286039E3,3.0356906E2,7.5846875E2,8.395891E2,5.825787E2,4.3924395E3,1.3411749E3,9.1077423E2,4.5355073E3,1.8145309E4,2.8440242E3,3.4342152E4,5.8131947E1,1.9440985E1,2.9535537E3,8.0719025E2,3.8671675E3,7.762623E1,1.18829506E2,4.4663663E2,2.790067E2,6.36117E2,3.3717323E1,1.5710771E3,8.9342865E2,1.1916895E2,2.0284608E3,2.7565857E3,3.491773E3,5.5431408E1,4.1923645E2,1.3463967E1,2.3609834E3,6.8532227E3,1.4348369E0,1.1736071E0,4.3612772E2,8.624313E3,3.2792965E1,2.487619E1,3.145677E2,1.23109E3,8.260499E2,4.6615295E2,3.5950815E2,1.1361991E4,6.39002E1,1.08158E2,1.70552E4,4.672904E3,1.505562E2,5.08033E1,1.3860223E4,9.618088E3],"tree_param":{"num_deleted":"0","num_feature":"13","num_nodes":"127","size_leaf_vector":"0"}},{"base_weights":[3.7489253E-1,5.1868933E-1,2.467933E-1,8.458479E-1,4.825378E-1,1.8559621E-1,3.7427428E-1,9.4011E-1,6.584936E-1,1.2374802E-1,3.246632E-1,2.0854977E-1,5.1521367E-1,1.8235567E-1,4.222743E-1,7.4289036E-1,9.5837235E-1,1.0592045E-2,2.0083448E-1,-2.1579196E-1,4.503727E-1,6.78693E-1,4.765903E-1,7.7608836E-1,4.0404078E-1,2.9032934E-1,-8.61348E-2,6.659567E-2,6.8829423E-1,1.7604381E-1,4.282119E-1,8.5423726E-1,4.8649192E-1,9.599668E-2,-4.556437E-1,8.5119075E-1,6.0881734E-1,1.4981811E-1,6.8384326E-1,9.8179847E-1,6.458739E-1,4.5782226E-1,-6.331163E-3,-4.8156053E-1,9.642982E-1,3.17577E-1,-3.6222896E-1,6.926705E-1,2.3368905E-1,3.5918513E-1,5.720832E-1,8.8916624E-1,6.6636294E-1,4.8973113E-1,2.126666E-1,2.0228657E-1,5.068649E-1,-5.1309544E-1,2.866241E-1,9.787377E-1,8.124237E-1,5.854616E-1,1.6631588E-1,1.3658325E-1,2.710732E-1,3.9081327E-3,1.2098905E-1,9.926577E-2,2.3150733E-2,2.0360966E-1,1.3307954E-2,1.9082363E-1,-2.8689122E-1,2.9033497E-1,8.283501E-2,-3.0538702E-2,6.372126E-2,2.941718E-1,2.064374E-1,9.7043544E-2,-4.1268086E-1,-4.2641333E-1,-6.8982415E-2,1.24136545E-1,1.7667407E-1,1.1628E-1,-1.407966E-1,7.484121E-2,-4.368269E-1,1.650196E-1,1.1660042E-1,5.786354E-3,2.090268E-1,1.2975053E-1,2.841552E-1,-5.8151394E-2,1.8629666E-1,1.4085297E-1,8.382328E-2,1.07778184E-1,-2.0899657E-2,2.3729636E-1,-3.610097E-1,2.9549047E-1,1.5555391E-2,-3.6918423E-1,-1.5931457E-2,1.0495793E-1,-7.350765E-1,9.824935E-3,-4.550907E-1,1.1875757E-1,1.8477646E-1,2.2990073E-1,1.5531535E-1,2.984316E-1,1.6885817E-1,1.436132E-1,2.203633E-1,2.2725467E-1,-9.280651E-2,2.5839406E-1,-5.21644E-1,2.8713655E-1,4.1423965E-2,-1.6993938E-2,-2.674629E-1],"categories":[],"categories_nodes":[],"categories_segments":[],"categories_sizes":[],"default_left":[1,1,1,1,1,1,1,0,1,1,1,1,1,0,1,0,1,0,1,1,0,1,1,0,1,0,1,0,1,0,1,1,1,1,0,1,1,1,1,1,1,1,0,0,1,1,1,0,1,1,1,1,1,