{"learner":{"attributes":{"scikit_learn":"{\"use_label_encoder\": false, \"n_estimators\": 50, \"objective\": \"binary:logistic\", \"max_depth\": 6, \"max_leaves\": null, \"max_bin\": null, \"grow_policy\": null, \"learning_rate\": null, \"verbosity\": null, \"booster\": null, \"tree_method\": \"gpu_hist\", \"gamma\": null, \"min_child_weight\": null, \"max_delta_step\": null, \"subsample\": null, \"sampling_method\": null, \"colsample_bytree\": null, \"colsample_bylevel\": null, \"colsample_bynode\": null, \"reg_alpha\": null, \"reg_lambda\": null, \"scale_pos_weight\": null, \"base_score\": null, \"missing\": NaN, \"num_parallel_tree\": null, \"random_state\": 0, \"n_jobs\": -1, \"monotone_constraints\": null, \"interaction_constraints\": null, \"importance_type\": \"gain\", \"gpu_id\": 0, \"validate_parameters\": null, \"predictor\": null, \"enable_categorical\": false, \"max_cat_to_onehot\": null, \"eval_metric\": null, \"early_stopping_rounds\": null, \"callbacks\": null, \"classes_\": [false, true], \"kwargs\": {}, \"n_classes_\": 2, \"_features_count\": 13, \"n_features_in_\": 13, \"_estimator_type\": \"classifier\"}"},"feature_names":[],"feature_types":[],"gradient_booster":{"model":{"gbtree_model_param":{"num_parallel_tree":"1","num_trees":"50","size_leaf_vector":"0"},"tree_info":[0,0,0,0,0,0,0,0,0,0,0,0,0,0,0,0,0,0,0,0,0,0,0,0,0,0,0,0,0,0,0,0,0,0,0,0,0,0,0,0,0,0,0,0,0,0,0,0,0,0],"trees":[{"base_weights":[-1.9892838E0,-1.9903297E0,-1.8562013E0,-1.9571635E0,-1.9917662E0,-1.6163241E0,-1.8706912E0,-1.9783942E0,-1.7816392E0,-1.6993166E0,-7.083333E-1,-1.9941331E0,-1.9818923E0,-1.8545258E0,-5.946243E-1,-1.9788847E0,-1.3909465E0,-1.7323519E0,-5E-1,-1.8729858E0,-1.9823897E0,-1.8899508E0,-1.8209147E0,-5.995951E-1,-1.9930357E0,-1.6095223E0,-1.8848464E0,1.2173913E0,-1.0569105E0,-1.9811844E0,-1.9142708E0,-5.263158E-1,-1.753406E0,-1.7887282E0,-1.9067669E0,-1.2884616E0,1.904762E-1,5.172414E-1,2.857143E-1,-6.268657E-1,-1.8926343E0,-1.2500607E0,-1.7852125E0,-1.9668016E0,-5.979867E-1,-1.9501334E0,-1.9834588E0,-1.7240732E0,-1.8406383E0,-5.955028E-1,-1.7560664E0,-1.7924528E0,1.2E0,-7E-1,3E-1,-5.974356E-1,-5.9113467E-1,-2.5E-1,2.3076925E-1,-1.7837839E-1,-4.8695654E-1,-5.8014566E-1,-5.9500176E-1,4.2857148E-2,-3.2142857E-1,5.2000004E-1,-3.3333337E-1,-5.786982E-1,-3.4468085E-1,-4.4507363E-1,-5.579228E-1,-5.4451203E-1,-5.7081085E-1,-4.8287675E-1,-5.295029E-1,-0E0,-5.9012014E-1,-5.9365577E-1,-5.969887E-1,-4.9432036E-1,-5.596888E-1,-3.12E-1,-5.271215E-1,-5.7085574E-1,-3.989529E-1,3.3913043E-1,-4.434783E-1,4.0000004E-1,-2.3076925E-1,-5.650146E-1,-5.816209E-1,1.875E-1,-2.5714287E-1,-4.8891786E-1,-5.4973346E-1,-2.3750001E-1,-5.774517E-1,-5.298969E-1,-8.0000006E-2],"categories":[],"categories_nodes":[],"categories_segments":[],"categories_sizes":[],"default_left":[1,1,1,1,1,1,1,1,1,1,1,1,1,1,0,1,1,1,1,1,1,1,1,0,1,1,1,1,1,1,1,1,1,1,1,1,1,0,1,1,1,1,1,1,0,1,1,1,1,0,1,1,1,1,0,0,0,0,0,0,0,0,0,0,0,0,0,0,0,0,0,0,0,0,0,0,0,0,0,0,0,0,0,0,0,0,0,0,0,0,0,0,0,0,0,0,0,0,0],"id":0,"left_children":[1,3,5,7,11,9,13,15,25,17,27,23,19,21,-1,29,51,31,53,49,45,33,47,-1,43,41,39,37,35,55,95,57,97,93,89,59,91,-1,87,85,83,81,79,75,-1,61,77,73,71,-1,69,67,65,63,-1,-1,-1,-1,-1,-1,-1,-1,-1,-1,-1,-1,-1,-1,-1,-1,-1,-1,-1,-1,-1,-1,-1,-1,-1,-1,-1,-1,-1,-1,-1,-1,-1,-1,-1,-1,-1,-1,-1,-1,-1,-1,-1,-1,-1],"loss_changes":[2.565E2,8.45E1,4.7734375E1,2.8378125E2,3.8E1,6.2039062E1,2.1113281E1,1.70625E1,1.449414E2,2.9571777E1,4.961767E1,3E0,1.4875E1,1.0890625E1,0E0,6.4375E0,6.5348045E1,1.805127E1,7.3E0,1.72417E1,8E0,6.5195312E0,8.677734E0,0E0,4E0,1.9540869E2,4.977539E1,4.936817E0,1.8008682E1,3.390625E0,2.684668E1,6.309041E0,1.3625E1,2.9030762E0,7.6171875E-2,1.1112175E1,5.315476E0,0E0,6.8278394E0,5.1792343E1,2.7197266E1,1.0795068E2,2.0139648E1,5.8046875E0,0E0,2.1484375E0,6E0,2.152588E0,4.7109375E0,0E0,1.9361084E1,2.440628E0,1.2711111E1,6.4142847E0,0E0,0E0,0E0,0E0,0E0,0E0,0E0,0E0,0E0,0E0,0E0,0E0,0E0,0E0,0E0,0E0,0E0,0E0,0E0,0E0,0E0,0E0,0E0,0E0,0E0,0E0,0E0,0E0,0E0,0E0,0E0,0E0,0E0,0E0,0E0,0E0,0E0,0E0,0E0,0E0,0E0,0E0,0E0,0E0,0E0],"parents":[2147483647,0,0,1,1,2,2,3,3,5,5,4,4,6,6,7,7,9,9,12,12,13,13,11,11,8,8,10,10,15,15,17,17,21,21,28,28,27,27,26,26,25,25,24,24,20,20,22,22,19,19,16,16,18,18,29,29,31,31,35,35,45,45,53,53,52,52,51,51,50,50,48,48,47,47,43,43,46,46,42,42,41,41,40,40,39,39,38,38,34,34,36,36,33,33,30,30,32,32],"right_children":[2,4,6,8,12,10,14,16,26,18,28,24,20,22,-1,30,52,32,54,50,46,34,48,-1,44,42,40,38,36,56,96,58,98,94,90,60,92,-1,88,86,84,82,80,76,-1,62,78,74,72,-1,70,68,66,64,-1,-1,-1,-1,-1,-1,-1,-1,-1,-1,-1,-1,-1,-1,-1,-1,-1,-1,-1,-1,-1,-1,-1,-1,-1,-1,-1,-1,-1,-1,-1,-1,-1,-1,-1,-1,-1,-1,-1,-1,-1,-1,-1,-1,-1],"split_conditions":[3.4488875E5,1.6442033E2,1.6442033E2,5.3356992E4,6.7998555E4,2.7661E4,4.4E1,3.09E2,5.129174E1,5.3408142E1,3.0331E4,3E0,3E0,8.84E2,-5.946243E-1,4.2365727E4,1.018E3,1.584E3,6E0,1.1469256E1,2.2E1,3.35E2,7.599382E0,-5.995951E-1,2.3E1,1.6072E4,4.55E2,2E0,1.0006909E1,2E0,6.852055E0,1.172E3,2.93E2,1.3307E4,4E0,2E0,1.3369629E1,5.172414E-1,1.789E3,3E0,5.3697334E1,9.414574E0,2.5897E4,2.7E1,-5.979867E-1,1.1858561E1,1.0083362E1,2E0,5E0,-5.955028E-1,2E0,4.9333466E1,7.029016E0,7.62E2,3E-1,-5.974356E-1,-5.9113467E-1,-2.5E-1,2.3076925E-1,-1.7837839E-1,-4.8695654E-1,-5.8014566E-1,-5.9500176E-1,4.2857148E-2,-3.2142857E-1,5.2000004E-1,-3.3333337E-1,-5.786982E-1,-3.4468085E-1,-4.4507363E-1,-5.579228E-1,-5.4451203E-1,-5.7081085E-1,-4.8287675E-1,-5.295029E-1,-0E0,-5.9012014E-1,-5.9365577E-1,-5.969887E-1,-4.9432036E-1,-5.596888E-1,-3.12E-1,-5.271215E-1,-5.7085574E-1,-3.989529E-1,3.3913043E-1,-4.434783E-1,4.0000004E-1,-2.3076925E-1,-5.650146E-1,-5.816209E-1,1.875E-1,-2.5714287E-1,-4.8891786E-1,-5.4973346E-1,-2.3750001E-1,-5.774517E-1,-5.298969E-1,-8.0000006E-2],"split_indices":[6,7,7,6,6,5,4,3,1,1,5,3,4,10,0,6,10,5,11,2,3,10,2,0,3,5,5,11,2,8,2,10,8,5,11,11,2,0,0,11,1,2,5,0,0,2,2,11,11,0,11,1,2,10,0,0,0,0,0,0,0,0,0,0,0,0,0,0,0,0,0,0,0,0,0,0,0,0,0,0,0,0,0,0,0,0,0,0,0,0,0,0,0,0,0,0,0,0,0],"split_type":[0,0,0,0,0,0,0,0,0,0,0,0,0,0,0,0,0,0,0,0,0,0,0,0,0,0,0,0,0,0,0,0,0,0,0,0,0,0,0,0,0,0,0,0,0,0,0,0,0,0,0,0,0,0,0,0,0,0,0,0,0,0,0,0,0,0,0,0,0,0,0,0,0,0,0,0,0,0,0,0,0,0,0,0,0,0,0,0,0,0,0,0,0,0,0,0,0,0,0],"sum_hessian":[1.8707095E6,1.8561068E6,1.460275E4,7.7106E4,1.7790008E6,8.3825E2,1.37645E4,6.877675E4,8.32925E3,7.6725E2,7.1E1,1.4348368E6,3.44164E5,1.20355E4,1.729E3,6.8717E4,5.975E1,7.4625E2,2.1E1,1.5815E3,3.425825E5,5.83275E3,6.20275E3,2.800965E5,1.1547402E6,3.1285E3,5.20075E3,1.05E1,6.05E1,6.632675E4,2.39025E3,1.325E1,7.33E2,8.4625E2,4.9865E3,5.1E1,9.5E0,6.25E0,4.25E0,3.25E1,5.16825E3,1.02975E3,2.09875E3,1.1114E4,1.1436262E6,1.10485E4,3.31534E5,1.0645E3,5.13825E3,7.995E2,7.82E2,5.2E1,7.75E0,1.9E1,2E0,3.3808E4,3.251875E4,1.1E1,2.25E0,1.75E1,3.35E1,7.44825E3,3.60025E3,6E0,1.3E1,6.5E0,1.25E0,4.125E1,1.075E1,2.1975E2,5.6225E2,3.65925E3,1.479E3,2.91E2,7.735E2,1.5E0,1.11125E4,1.94254E5,1.3728E5,7.825E2,1.31625E3,7.3025E2,2.995E2,5.07375E3,9.45E1,1.05E1,2.2E1,2E0,2.25E0,2.9145E3,2.072E3,7E0,2.5E0,1.9075E2,6.555E2,2.3E1,2.36725E3,7.265E2,6.5E0],"tree_param":{"num_deleted":"0","num_feature":"13","num_nodes":"99","size_leaf_vector":"0"}},{"base_weights":[-1.5389253E0,-1.5398788E0,-1.4189323E0,-1.5098518E0,-1.541183E0,-1.2184113E0,-1.4312166E0,-1.5271579E0,-1.3379458E0,-1.2841668E0,-5.190653E-1,-1.5429254E0,-1.5289748E0,-1.4166849E0,-4.5975098E-1,-1.5310003E0,-1.4593711E0,-1.3181626E0,-5.056627E-1,-1.3998544E0,-1.5296688E0,-1.4324653E0,-1.3541791E0,-1.5400183E0,-1.5450977E0,-1.1751252E0,-1.4303738E0,9.61114E-1,-7.844686E-1,-1.5314083E0,-1.0647144E0,-1.1242183E0,-1.4040885E0,-1.3799834E0,-1.4538417E0,-2.6403108E-1,-1.2442833E0,4.0894315E-1,2.386899E-1,-6.614125E-1,-1.4420469E0,-8.998369E-1,-1.3271575E0,-4.6393612E-1,-1.5404221E0,-1.5424268E0,-1.5359442E0,-1.4931613E0,-1.5311255E0,-1.4050186E0,-1.2829696E0,-4.5988375E-1,-1.3183271E0,-8.007489E-1,-1.4743999E0,1.598117E-1,-7.598351E-1,-4.622706E-1,-4.5645148E-1,-6.3200206E-2,-4.1227722E-1,2.3836611E-1,-1.9602995E-1,-4.6296635E-1,-4.5530352E-1,-2.8310814E-1,2.4405253E-1,-3.968764E-1,2.16056E-1,-4.0793863E-1,-4.583513E-1,3.8578156E-2,-3.8293442E-1,-3.1968898E-1,-4.2509785E-1,-3.6511266E-1,-4.327191E-1,-4.3036485E-1,-3.893775E-1,-4.57526E-1,-4.6138045E-1,-4.531666E-1,-4.3207586E-1,-4.6053183E-1,-4.6349612E-1,-4.5982245E-1,-4.6248358E-1,-4.0368035E-1,-1.9494799E-1,-2.1502551E-1,-4.0193292E-1,-4.41896E-1,-3.8637677E-1,-2.9476705E-1,-1.5266662E-2,3.2961032E-1,-1.847396E-1,-3.96233E-1,-4.3757305E-1,-2.0160934E-1,-4.6487468E-1,-4.224423E-1,-3.9876065E-1,-4.185899E-1,2.513644E-1,-4.2449313E-1,2.9326206E-1],"categories":[],"categories_nodes":[],"categories_segments":[],"categories_sizes":[],"default_left":[1,0,1,1,1,1,1,1,1,1,0,1,1,1,0,1,1,0,1,0,0,1,1,1,0,1,0,0,1,1,1,0,1,1,1,0,1,0,0,0,1,1,1,0,0,0,1,1,1,1,0,0,1,1,1,0,1,0,0,0,0,0,0,0,0,0,0,0,0,0,0,0,0,0,0,0,0,0,0,0,0,0,0,0,0,0,0,0,0,0,0,0,0,0,0,0,0,0,0,0,0,0,0,0,0,0,0],"id":1,"left_children":[1,3,5,7,11,9,13,15,25,17,27,23,19,21,-1,29,53,31,55,51,47,33,49,45,43,41,39,37,35,57,103,59,105,101,97,61,99,-1,95,93,91,89,87,-1,83,63,85,81,79,77,75,-1,73,71,69,67,65,-1,-1,-1,-1,-1,-1,-1,-1,-1,-1,-1,-1,-1,-1,-1,-1,-1,-1,-1,-1,-1,-1,-1,-1,-1,-1,-1,-1,-1,-1,-1,-1,-1,-1,-1,-1,-1,-1,-1,-1,-1,-1,-1,-1,-1,-1,-1,-1,-1,-1],"loss_changes":[1.94E2,6.425E1,3.1564453E1,2.0860938E2,3.225E1,3.5538208E1,1.6574219E1,1.4515625E1,9.590527E1,1.8361206E1,2.79945E1,6.75E0,1.6125E1,9.058594E0,0E0,9.953125E0,3.3185547E1,9.891235E0,5.484063E0,9.915527E0,8.5E0,7.9628906E0,6.400879E0,3.75E0,2.875E0,9.731445E1,3.613379E1,2.867199E0,1.3874092E1,3.375E0,3.6695053E1,4.91243E1,1.3647278E1,1.8339844E0,2.0410156E0,1.2518312E1,4.4166145E0,0E0,4.455568E0,1.242601E1,1.7506836E1,6.673938E1,1.8041504E1,0E0,2.125E0,5.1875E0,1.8125E0,5.013672E0,5.625E0,2.286377E0,8.286865E0,0E0,1.567688E1,3.537455E1,1.8703613E1,8.91985E0,7.4544287E0,0E0,0E0,0E0,0E0,0E0,0E0,0E0,0E0,0E0,0E0,0E0,0E0,0E0,0E0,0E0,0E0,0E0,0E0,0E0,0E0,0E0,0E0,0E0,0E0,0E0,0E0,0E0,0E0,0E0,0E0,0E0,0E0,0E0,0E0,0E0,0E0,0E0,0E0,0E0,0E0,0E0,0E0,0E0,0E0,0E0,0E0,0E0,0E0,0E0,0E0],"parents":[2147483647,0,0,1,1,2,2,3,3,5,5,4,4,6,6,7,7,9,9,12,12,13,13,11,11,8,8,10,10,15,15,17,17,21,21,28,28,27,27,26,26,25,25,24,24,23,23,20,20,22,22,19,19,16,16,18,18,29,29,31,31,35,35,45,45,56,56,55,55,54,54,53,53,52,52,50,50,49,49,48,48,47,47,44,44,46,46,42,42,41,41,40,40,39,39,38,38,34,34,36,36,33,33,30,30,32,32],"right_children":[2,4,6,8,12,10,14,16,26,18,28,24,20,22,-1,30,54,32,56,52,48,34,50,46,44,42,40,38,36,58,104,60,106,102,98,62,100,-1,96,94,92,90,88,-1,84,64,86,82,80,78,76,-1,74,72,70,68,66,-1,-1,-1,-1,-1,-1,-1,-1,-1,-1,-1,-1,-1,-1,-1,-1,-1,-1,-1,-1,-1,-1,-1,-1,-1,-1,-1,-1,-1,-1,-1,-1,-1,-1,-1,-1,-1,-1,-1,-1,-1,-1,-1,-1,-1,-1,-1,-1,-1,-1],"split_conditions":[3.4488875E5,1.6442033E2,1.6442033E2,6.3088152E4,8.8543555E4,2.7661E4,4.4E1,4.2365727E4,5.1254955E1,5.2408443E1,3.0331E4,5.7E1,3E0,1.19E3,-4.5975098E-1,3.09E2,7.062447E0,9.46441E0,7.62E2,4.819382E1,2.2E1,8.571718E0,2.4594E4,3.560316E4,1.55E2,1.6072E4,1.584E3,2E0,1.4E1,2E0,1.013E3,5.210911E1,2.93E2,9.19E2,2.1E1,5.1220383E1,1.9E1,4.0894315E-1,1.789E3,1.05E3,1.4952556E5,9.414574E0,3.9E1,-4.6393612E-1,3E0,2.3077189E5,1.0358809E1,1.054E3,9.634809E0,1.5E1,5E0,-4.5988375E-1,2E0,5.32E2,9.944056E0,2E0,6E0,-4.622706E-1,-4.5645148E-1,-6.3200206E-2,-4.1227722E-1,2.3836611E-1,-1.9602995E-1,-4.6296635E-1,-4.5530352E-1,-2.8310814E-1,2.4405253E-1,-3.968764E-1,2.16056E-1,-4.0793863E-1,-4.583513E-1,3.8578156E-2,-3.8293442E-1,-3.1968898E-1,-4.2509785E-1,-3.6511266E-1,-4.327191E-1,-4.3036485E-1,-3.893775E-1,-4.57526E-1,-4.6138045E-1,-4.531666E-1,-4.3207586E-1,-4.6053183E-1,-4.6349612E-1,-4.5982245E-1,-4.6248358E-1,-4.0368035E-1,-1.9494799E-1,-2.1502551E-1,-4.0193292E-1,-4.41896E-1,-3.8637677E-1,-2.9476705E-1,-1.5266662E-2,3.2961032E-1,-1.847396E-1,-3.96233E-1,-4.3757305E-1,-2.0160934E-1,-4.6487468E-1,-4.224423E-1,-3.9876065E-1,-4.185899E-1,2.513644E-1,-4.2449313E-1,2.9326206E-1],"split_indices":[6,7,7,6,6,5,4,6,1,1,5,4,4,10,0,3,2,2,10,1,3,2,5,6,3,5,5,11,9,8,10,1,8,10,3,1,4,0,0,10,6,2,9,0,11,7,2,10,2,9,11,0,11,10,2,11,11,0,0,0,0,0,0,0,0,0,0,0,0,0,0,0,0,0,0,0,0,0,0,0,0,0,0,0,0,0,0,0,0,0,0,0,0,0,0,0,0,0,0,0,0,0,0,0,0,0,0],"split_type":[0,0,0,0,0,0,0,0,0,0,0,0,0,0,0,0,0,0,0,0,0,0,0,0,0,0,0,0,0,0,0,0,0,0,0,0,0,0,0,0,0,0,0,0,0,0,0,0,0,0,0,0,0,0,0,0,0,0,0,0,0,0,0,0,0,0,0,0,0,0,0,0,0,0,0,0,0,0,0,0,0,0,0,0,0,0,0,0,0,0,0,0,0,0,0,0,0,0,0,0,0,0,0,0,0,0,0],"sum_hessian":[1.7135279E6,1.7000068E6,1.3521175E4,7.080745E4,1.6291992E6,7.863009E2,1.2734874E4,6.4323973E4,6.4834785E3,7.179591E2,6.8341805E1,1.4256059E6,2.035934E5,1.1150133E4,1.5847412E3,6.0853027E4,3.470945E3,6.872548E2,3.0704308E1,1.0990804E3,2.0249433E5,8.885066E3,2.2650662E3,6.1000075E5,8.156051E5,2.352697E3,4.1307817E3,9.992322E0,5.8349483E1,6.0797543E4,5.5482758E1,2.1532544E2,4.7192938E2,2.5905195E3,6.294547E3,2.8108887E1,3.0240597E1,5.849928E0,4.142394E0,6.2631638E1,4.0681501E3,8.395049E2,1.5131921E3,6.3196875E5,1.836364E5,3.8313966E5,2.2686106E5,7.8097383E3,1.946846E5,1.3106248E3,9.544414E2,4.10746E2,6.883344E2,7.8645775E1,3.3922993E3,8.588676E0,2.2115631E1,3.0962016E4,2.9835527E4,4.666633E1,1.6865912E2,7.279422E0,2.0829466E1,3.7116725E5,1.1972406E4,2.0159966E1,1.9556664E0,1.982437E0,6.6062393E0,1.08717E3,2.3051294E3,2.6873816E1,5.177196E1,1.9660364E2,4.9173077E2,6.8132794E2,2.7311343E2,1.017622E3,2.9300275E2,1.03297125E5,9.138747E4,5.856754E3,1.9529846E3,8.4992805E4,9.86436E4,1.4512619E5,8.173488E4,1.47212E3,4.107219E1,5.9466034E2,2.4484457E2,3.380895E3,6.872552E2,4.0643303E1,2.1988337E1,1.922086E0,2.220308E0,2.259186E2,6.0686284E3,1.1634367E1,1.860623E1,1.6492869E3,9.4123267E2,4.7496624E1,7.9861336E0,4.7018564E2,1.7437366E0],"tree_param":{"num_deleted":"0","num_feature":"13","num_nodes":"107","size_leaf_vector":"0"}},{"base_weights":[-1.3330977E0,-1.3342143E0,-1.1959271E0,-1.2993805E0,-1.3357369E0,-9.96968E-1,-1.2084885E0,-1.3212719E0,-1.1270018E0,-1.0573165E0,-3.9664096E-1,-1.3381767E0,-1.3237833E0,-1.1921059E0,-3.9765826E-1,-1.274333E0,-1.3256792E0,-1.0832994E0,-2.3841345E-1,-1.195488E0,-1.3243791E0,-1.230826E0,-1.1593317E0,-1.3350911E0,-1.3404078E0,-9.721313E-1,-1.2255434E0,8.123101E-1,-6.057589E-1,-1.2794415E0,-6.354591E-1,-6.8196076E-1,-1.1293721E0,-1.1161159E0,-1.2515326E0,-1.137309E0,-2.2235139E-1,3.4993792E-1,2.0847723E-1,-1.2688638E0,-1.0588009E0,-6.910228E-1,-1.124416E0,-4.0256122E-1,-1.3353318E0,-1.3355625E0,-1.3045263E0,-1.2820204E0,-1.3257794E0,-1.1317872E0,-1.2270654E0,-3.9909944E-1,-1.0883586E0,-1.3306901E0,-1.3015438E0,-3.5309258E-1,2.3790619E-1,-3.8513198E-1,-1.5831773E-1,-2.2510666E-1,6.9375314E-2,-3.7849194E-1,1.5442333E-2,-4.013546E-1,-3.9925697E-1,-4.1386034E-2,-3.6194825E-1,-1.9198023E-1,-3.954021E-1,-3.89981E-1,-4.0096435E-1,-2.5170472E-1,-3.5762778E-1,-3.6917126E-1,-6.5239385E-2,-3.4760758E-1,-3.0993047E-1,-3.9615202E-1,-3.9997447E-1,-3.8971484E-1,-3.6916092E-1,-3.9885658E-1,-4.0210307E-1,-3.9252526E-1,-3.3157018E-1,-2.94747E-1,-3.6319432E-1,-3.430985E-1,-1.5905343E-1,-3.66039E-1,-2.111307E-1,-3.8202724E-1,-1.5057486E-1,2.8328496E-1,-1.5004952E-1,-3.6381817E-1,-3.8449353E-1,3.728164E-1,-1.6930458E-1,-3.8405815E-1,-3.1592458E-1,-2.7007616E-1,3.6065573E-1,-3.6944225E-1,-2.7767283E-1],"categories":[],"categories_nodes":[],"categories_segments":[],"categories_sizes":[],"default_left":[1,1,1,0,1,1,1,1,1,1,1,1,1,1,0,1,1,0,1,1,1,1,1,1,1,1,0,0,0,1,1,1,1,1,1,1,1,0,1,1,0,0,1,0,1,0,1,0,1,1,1,0,0,1,1,1,0,0,0,0,0,0,0,0,0,0,0,0,0,0,0,0,0,0,0,0,0,0,0,0,0,0,0,0,0,0,0,0,0,0,0,0,0,0,0,0,0,0,0,0,0,0,0,0,0],"id":2,"left_children":[1,3,5,7,11,9,13,15,25,17,27,23,19,21,-1,29,53,31,55,51,47,33,49,45,43,41,39,37,35,57,101,59,103,99,95,61,97,-1,93,91,89,87,85,-1,81,63,83,79,77,75,73,-1,71,69,67,65,-1,-1,-1,-1,-1,-1,-1,-1,-1,-1,-1,-1,-1,-1,-1,-1,-1,-1,-1,-1,-1,-1,-1,-1,-1,-1,-1,-1,-1,-1,-1,-1,-1,-1,-1,-1,-1,-1,-1,-1,-1,-1,-1,-1,-1,-1,-1,-1,-1],"loss_changes":[2.1775E2,7.35E1,2.7699219E1,2.2295312E2,3.8E1,2.4670471E1,1.9269531E1,9.2265625E0,1.0119531E2,1.3118347E1,1.6889349E1,6E0,1.60625E1,1.069043E1,0E0,1.4053711E1,4.1015625E0,1.0491821E1,2.7185373E0,1.410376E1,1.19375E1,8.961914E0,8.291504E0,5.0625E0,3.125E0,1.1111035E2,2.8245605E1,1.8935275E0,1.1132931E1,1.4034668E1,1.9632341E1,4.2485294E0,1.0196716E1,5.644409E0,2.7529297E0,3.4892178E0,1.7586529E1,0E0,3.0332155E0,1.0715332E1,4.7872498E1,6.644522E1,1.9538818E1,0E0,2.5E0,3.3125E0,4.1708984E0,4.868164E0,7E0,8.630859E0,4.9990234E0,0E0,1.4659546E1,5.4453125E0,8.994141E1,3.366942E0,0E0,0E0,0E0,0E0,0E0,0E0,0E0,0E0,0E0,0E0,0E0,0E0,0E0,0E0,0E0,0E0,0E0,0E0,0E0,0E0,0E0,0E0,0E0,0E0,0E0,0E0,0E0,0E0,0E0,0E0,0E0,0E0,0E0,0E0,0E0,0E0,0E0,0E0,0E0,0E0,0E0,0E0,0E0,0E0,0E0,0E0,0E0,0E0,0E0],"parents":[2147483647,0,0,1,1,2,2,3,3,5,5,4,4,6,6,7,7,9,9,12,12,13,13,11,11,8,8,10,10,15,15,17,17,21,21,28,28,27,27,26,26,25,25,24,24,23,23,20,20,22,22,19,19,16,16,18,18,29,29,31,31,35,35,45,45,55,55,54,54,53,53,52,52,50,50,49,49,48,48,47,47,44,44,46,46,42,42,41,41,40,40,39,39,38,38,34,34,36,36,33,33,30,30,32,32],"right_children":[2,4,6,8,12,10,14,16,26,18,28,24,20,22,-1,30,54,32,56,52,48,34,50,46,44,42,40,38,36,58,102,60,104,100,96,62,98,-1,94,92,90,88,86,-1,82,64,84,80,78,76,74,-1,72,70,68,66,-1,-1,-1,-1,-1,-1,-1,-1,-1,-1,-1,-1,-1,-1,-1,-1,-1,-1,-1,-1,-1,-1,-1,-1,-1,-1,-1,-1,-1,-1,-1,-1,-1,-1,-1,-1,-1,-1,-1,-1,-1,-1,-1,-1,-1,-1,-1,-1,-1],"split_conditions":[3.4488875E5,1.6442033E2,1.6442033E2,5.3356992E4,7.419358E4,2.7661E4,4.4E1,7.571533E0,5.129174E1,5.3408142E1,3.0331E4,5.7E1,3E0,8.59E2,-3.9765826E-1,2.4E1,1.58E2,3.315E3,2.6381E4,1.1469256E1,2.2E1,3.35E2,5E0,3.039644E5,1.51E2,1.6072E4,1.3010373E5,2E0,3.2105E4,3.03E2,5E0,9.757063E0,3.4E1,3.4E1,3E0,1.0006909E1,3.4427E4,3.4993792E-1,1.789E3,5.411908E1,5.2E1,3.586E3,2.5897E4,-4.0256122E-1,3E0,3.560316E4,1.2E1,1.054E3,1.0083362E1,4E0,5.3836E4,-3.9909944E-1,2E0,5.2E1,1.71E2,1.042E3,2.3790619E-1,-3.8513198E-1,-1.5831773E-1,-2.2510666E-1,6.9375314E-2,-3.7849194E-1,1.5442333E-2,-4.013546E-1,-3.9925697E-1,-4.1386034E-2,-3.6194825E-1,-1.9198023E-1,-3.954021E-1,-3.89981E-1,-4.0096435E-1,-2.5170472E-1,-3.5762778E-1,-3.6917126E-1,-6.5239385E-2,-3.4760758E-1,-3.0993047E-1,-3.9615202E-1,-3.9997447E-1,-3.8971484E-1,-3.6916092E-1,-3.9885658E-1,-4.0210307E-1,-3.9252526E-1,-3.3157018E-1,-2.94747E-1,-3.6319432E-1,-3.430985E-1,-1.5905343E-1,-3.66039E-1,-2.111307E-1,-3.8202724E-1,-1.5057486E-1,2.8328496E-1,-1.5004952E-1,-3.6381817E-1,-3.8449353E-1,3.728164E-1,-1.6930458E-1,-3.8405815E-1,-3.1592458E-1,-2.7007616E-1,3.6065573E-1,-3.6944225E-1,-2.7767283E-1],"split_indices":[6,7,7,6,6,5,4,2,1,1,5,4,4,10,0,9,3,5,5,2,3,10,11,7,3,5,6,11,5,3,11,2,4,4,11,2,5,0,0,1,4,5,5,0,11,6,9,10,2,11,5,0,11,4,3,10,0,0,0,0,0,0,0,0,0,0,0,0,0,0,0,0,0,0,0,0,0,0,0,0,0,0,0,0,0,0,0,0,0,0,0,0,0,0,0,0,0,0,0,0,0,0,0,0,0],"split_type":[0,0,0,0,0,0,0,0,0,0,0,0,0,0,0,0,0,0,0,0,0,0,0,0,0,0,0,0,0,0,0,0,0,0,0,0,0,0,0,0,0,0,0,0,0,0,0,0,0,0,0,0,0,0,0,0,0,0,0,0,0,0,0,0,0,0,0,0,0,0,0,0,0,0,0,0,0,0,0,0,0,0,0,0,0,0,0,0,0,0,0,0,0,0,0,0,0,0,0,0,0,0,0,0,0],"sum_hessian":[1.4309934E6,1.4194289E6,1.156451E4,5.9475582E4,1.3599532E6,6.915366E2,1.0872973E4,5.276764E4,6.7079443E3,6.2767737E2,6.3859253E1,1.1293241E6,2.3062919E5,9.547711E3,1.3252617E3,4.554295E3,4.8213344E4,6.0806146E2,1.961588E1,1.0755657E3,2.2955362E5,4.3600654E3,5.1876455E3,4.7415606E5,6.5516806E5,2.6126697E3,4.0952747E3,8.991751E0,5.48675E1,4.517173E3,3.712191E1,6.424314E1,5.438183E2,6.750945E2,3.6849712E3,2.2167925E1,3.2699577E1,5.0803514E0,3.9113994E0,3.2454753E3,8.4979926E2,9.199798E2,1.69269E3,5.083913E5,1.4677675E5,4.6691306E5,7.2430063E3,7.375227E3,2.2217839E5,3.7005093E3,1.4871364E3,4.7113333E2,6.044324E2,3.987952E4,8.333824E3,1.8244993E1,1.3708861E0,4.490589E3,2.6583767E1,5.9932827E1,4.3103123E0,2.0013496E1,2.154429E0,3.1405394E5,1.5285912E5,1.5499326E1,2.7456672E0,2.033079E2,8.130516E3,6.41619E3,3.346333E4,1.8025221E2,4.2418015E2,1.4817728E3,5.363512E0,2.8993254E3,8.011837E2,1.3033964E5,9.183875E4,5.523892E3,1.851335E3,6.809886E4,7.867789E4,7.0988403E3,1.441658E2,6.444323E2,1.0482577E3,2.3960066E2,6.8037915E2,5.8261725E2,2.67182E2,3.2256355E3,1.983989E1,1.7557861E0,2.1556134E0,1.6281215E3,2.0568496E3,5.6901174E0,2.700946E1,1.8201076E2,4.930837E2,3.28924E1,4.229512E0,3.5894437E2,1.8487393E2],"tree_param":{"num_deleted":"0","num_feature":"13","num_nodes":"105","size_leaf_vector":"0"}},{"base_weights":[-1.2153102E0,-1.2167248E0,-1.0475472E0,-1.173041E0,-1.2186521E0,-1.105739E0,-9.90891E-1,-1.2002378E0,-9.690556E-1,-1.0749631E0,-1.1918284E0,-1.2212623E0,-1.2004832E0,-7.205792E-1,-1.0111965E0,-1.217857E0,-1.18304E0,-1.1317804E0,-1.0119802E0,1.9581746E-1,-7.943855E-1,-1.0253576E0,-1.2014874E0,-9.448502E-1,-1.0423628E0,-1.2170813E0,-1.2243942E0,-8.094429E-1,-1.0867373E0,-3.5930496E-1,-4.4115296E-1,-1.2187597E0,-7.123559E-1,-1.1761081E0,-1.079301E0,-6.2042326E-1,-1.0710707E0,9.156843E-2,-1.0947113E0,-7.881688E-1,1.7983899E-1,-5.695533E-1,-1.0273834E0,-1.2263215E0,-1.2177684E0,-1.2176569E0,-1.1809494E0,-1.0665017E0,-9.3653625E-1,-6.6567516E-1,-9.603605E-1,-8.441245E-1,1.3470621E-1,-1.1482677E0,-1.203654E0,-3.9440337E-1,7.1365255E-1,-1.1539648E0,-1.2192625E0,-8.7366116E-1,-1.066332E0,-3.5210958E-1,-3.6613062E-1,-2.4664567E-1,-3.5609588E-1,4.0188065E-1,-2.415091E-1,-3.4765166E-1,-3.6584982E-1,-3.1021705E-1,-3.5981935E-1,-2.1200944E-1,-2.898914E-1,-3.51054E-1,-3.6955342E-1,-3.508992E-1,-2.8791678E-1,-2.3293559E-2,4.0104613E-1,-1.818708E-1,2.520664E-1,-3.5841972E-1,-3.641323E-1,-3.5120514E-1,-3.245724E-1,-1.147879E-1,4.7161144E-1,-2.0482624E-1,-3.270288E-1,-2.8319123E-1,-3.5482326E-1,-2.9944667E-1,1.1510322E-1,-2.82862E-1,4.0398908E-1,-3.6634636E-1,-3.633429E-1,-1.7827253E-1,-3.219195E-1,-3.6318493E-1,-3.671807E-1,-3.6745334E-1,-3.6886466E-1,-2.868433E-1,-3.7399825E-1,-1.04110084E-1,-2.4771424E-1,-1.2246031E-1,-3.0305865E-1,-2.6751405E-1,-3.439232E-1,-3.3252892E-1,-1.4591439E-1,-2.7499782E-2,-2.1898915E-1,-3.196168E-1,3.0753097E-1,-5.152076E-2,-3.2763395E-1],"categories":[],"categories_nodes":[],"categories_segments":[],"categories_sizes":[],"default_left":[1,1,0,1,1,1,1,1,1,1,1,1,1,0,1,1,1,1,1,1,1,1,1,1,1,0,1,1,0,0,0,0,1,0,1,0,1,0,1,0,0,1,1,1,1,1,1,1,1,0,1,1,0,0,1,1,1,0,1,0,1,0,0,0,0,0,0,0,0,0,0,0,0,0,0,0,0,0,0,0,0,0,0,0,0,0,0,0,0,0,0,0,0,0,0,0,0,0,0,0,0,0,0,0,0,0,0,0,0,0,0,0,0,0,0,0,0,0,0],"id":3,"left_children":[1,3,5,7,11,9,13,15,27,17,29,25,21,19,23,31,57,33,59,55,51,35,53,49,47,45,43,41,37,-1,39,61,115,63,117,113,109,65,111,107,-1,105,103,101,99,95,67,97,93,91,89,87,85,83,81,79,77,75,73,71,69,-1,-1,-1,-1,-1,-1,-1,-1,-1,-1,-1,-1,-1,-1,-1,-1,-1,-1,-1,-1,-1,-1,-1,-1,-1,-1,-1,-1,-1,-1,-1,-1,-1,-1,-1,-1,-1,-1,-1,-1,-1,-1,-1,-1,-1,-1,-1,-1,-1,-1,-1,-1,-1,-1,-1,-1,-1,-1],"loss_changes":[2.705E2,9.425E1,3.0507812E1,2.6528906E2,5.0125E1,1.1225098E1,2.5983398E1,1.13984375E1,1.05351074E2,1.1333984E1,4.894409E0,1.0875E1,2.28125E1,2.3388992E1,8.370117E0,8.666016E0,2.1214844E1,2.97583E0,1.1573364E1,8.352158E0,1.4813889E1,1.3894226E1,1.428125E1,5.668091E0,6.8395996E0,7.0625E0,5.5E0,1.2510449E2,3.0659912E1,0E0,4.4923067E0,1.4257812E-1,2.5416891E1,2.7904053E0,9.670349E0,4.6917324E0,8.508911E0,2.657506E1,2.642163E1,3.283472E-1,0E0,6.50741E1,1.8466187E1,5E-1,3.921875E0,7.6875E0,4.0625E0,7.0842285E0,9.634277E0,2.826857E1,3.9050293E0,1.124585E1,1.3262155E1,6.676758E0,1.034375E1,3.9052856E0,7.215213E0,3.526953E1,4.4541016E0,6.660797E0,3.8687744E0,0E0,0E0,0E0,0E0,0E0,0E0,0E0,0E0,0E0,0E0,0E0,0E0,0E0,0E0,0E0,0E0,0E0,0E0,0E0,0E0,0E0,0E0,0E0,0E0,0E0,0E0,0E0,0E0,0E0,0E0,0E0,0E0,0E0,0E0,0E0,0E0,0E0,0E0,0E0,0E0,0E0,0E0,0E0,0E0,0E0,0E0,0E0,0E0,0E0,0E0,0E0,0E0,0E0,0E0,0E0,0E0,0E0,0E0],"parents":[2147483647,0,0,1,1,2,2,3,3,5,5,4,4,6,6,7,7,9,9,13,13,12,12,14,14,11,11,8,8,10,10,15,15,17,17,21,21,28,28,30,30,27,27,26,26,25,25,24,24,23,23,20,20,22,22,19,19,16,16,18,18,31,31,33,33,37,37,46,46,60,60,59,59,58,58,57,57,56,56,55,55,54,54,53,53,52,52,51,51,50,50,49,49,48,48,45,45,47,47,44,44,43,43,42,42,41,41,39,39,36,36,38,38,35,35,32,32,34,34],"right_children":[2,4,6,8,12,10,14,16,28,18,30,26,22,20,24,32,58,34,60,56,52,36,54,50,48,46,44,42,38,-1,40,62,116,64,118,114,110,66,112,108,-1,106,104,102,100,96,68,98,94,92,90,88,86,84,82,80,78,76,74,72,70,-1,-1,-1,-1,-1,-1,-1,-1,-1,-1,-1,-1,-1,-1,-1,-1,-1,-1,-1,-1,-1,-1,-1,-1,-1,-1,-1,-1,-1,-1,-1,-1,-1,-1,-1,-1,-1,-1,-1,-1,-1,-1,-1,-1,-1,-1,-1,-1,-1,-1,-1,-1,-1,-1,-1,-1,-1,-1],"split_conditions":[3.4488875E5,1.6442033E2,5.829678E5,5.3356992E4,8.8543555E4,3.5E1,1.6442033E2,2E0,5.133894E1,9.02E2,2.8E1,5.7E1,3E0,9E0,8.571718E0,3.07E2,1.1525951E1,2.2224E4,2E0,7.81292E0,3.2105E4,1.7E1,2.2E1,2.68E2,1.214E3,3.039644E5,1.55E2,9.414574E0,4.55E2,-3.5930496E-1,7.9E1,4.885121E1,1.018E3,2.1E1,1.6442033E2,1E0,2E0,3E0,5.3697334E1,4.8E1,1.7983899E-1,1.5977E4,1.4230023E1,1.3021306E1,3E0,3.7884523E4,4.4E1,3.27E2,1.9E2,1.9234938E5,3.5E1,2.2E1,2.2E1,1.054E3,9.634809E0,5.268E3,6.33E2,3.2363473E4,5.1166977E1,8.686187E0,1.2013166E1,-3.5210958E-1,-3.6613062E-1,-2.4664567E-1,-3.5609588E-1,4.0188065E-1,-2.415091E-1,-3.4765166E-1,-3.6584982E-1,-3.1021705E-1,-3.5981935E-1,-2.1200944E-1,-2.898914E-1,-3.51054E-1,-3.6955342E-1,-3.508992E-1,-2.8791678E-1,-2.3293559E-2,4.0104613E-1,-1.818708E-1,2.520664E-1,-3.5841972E-1,-3.641323E-1,-3.5120514E-1,-3.245724E-1,-1.147879E-1,4.7161144E-1,-2.0482624E-1,-3.270288E-1,-2.8319123E-1,-3.5482326E-1,-2.9944667E-1,1.1510322E-1,-2.82862E-1,4.0398908E-1,-3.6634636E-1,-3.633429E-1,-1.7827253E-1,-3.219195E-1,-3.6318493E-1,-3.671807E-1,-3.6745334E-1,-3.6886466E-1,-2.868433E-1,-3.7399825E-1,-1.04110084E-1,-2.4771424E-1,-1.2246031E-1,-3.0305865E-1,-2.6751405E-1,-3.439232E-1,-3.3252892E-1,-1.4591439E-1,-2.7499782E-2,-2.1898915E-1,-3.196168E-1,3.0753097E-1,-5.152076E-2,-3.2763395E-1],"split_indices":[6,7,6,6,6,4,7,8,1,10,12,4,4,9,2,3,2,5,11,2,5,3,3,10,10,7,3,2,5,0,10,1,10,3,7,11,11,11,1,12,0,5,2,2,11,6,4,5,3,7,4,3,3,10,2,0,10,6,1,2,2,0,0,0,0,0,0,0,0,0,0,0,0,0,0,0,0,0,0,0,0,0,0,0,0,0,0,0,0,0,0,0,0,0,0,0,0,0,0,0,0,0,0,0,0,0,0,0,0,0,0,0,0,0,0,0,0,0,0],"split_type":[0,0,0,0,0,0,0,0,0,0,0,0,0,0,0,0,0,0,0,0,0,0,0,0,0,0,0,0,0,0,0,0,0,0,0,0,0,0,0,0,0,0,0,0,0,0,0,0,0,0,0,0,0,0,0,0,0,0,0,0,0,0,0,0,0,0,0,0,0,0,0,0,0,0,0,0,0,0,0,0,0,0,0,0,0,0,0,0,0,0,0,0,0,0,0,0,0,0,0,0,0,0,0,0,0,0,0,0,0,0,0,0,0,0,0,0,0,0,0],"sum_hessian":[1.1455795E6,1.1359948E6,9.584701E3,4.8028863E4,1.0879659E6,4.719141E3,4.86556E3,4.237432E4,5.654544E3,3.4863147E3,1.2328264E3,9.512404E5,1.367255E5,3.425079E2,4.5230522E3,2.089624E4,2.147808E4,1.8239481E3,1.6623667E3,2.5406128E1,3.1710178E2,7.855027E2,1.3594E5,1.4556398E3,3.0674126E3,4.0754516E5,5.436952E5,2.4030896E3,3.2514543E3,1.2226946E3,1.0131857E1,2.0857584E4,3.865684E1,9.7715826E2,8.4678986E2,8.115842E1,7.0434424E2,2.17855E1,3.229669E3,7.780032E0,2.3518248E0,1.1456613E3,1.2574283E3,4.2103588E5,1.2265933E5,4.011223E5,6.422852E3,2.4903008E3,5.771117E2,7.8926834E1,1.3767129E3,3.0107513E2,1.6026651E1,5.3386826E3,1.3060133E5,1.1984609E1,1.3421519E1,1.193272E4,9.54536E3,4.7376398E2,1.1886027E3,7.7301447E2,2.008457E4,3.1418728E1,9.4573956E2,8.901221E0,1.2884278E1,4.101482E3,2.32137E3,9.63642E2,2.2496066E2,1.7214703E2,3.0161694E2,1.9668364E3,7.578524E3,1.103576E4,8.9696E2,6.2987623E0,7.122757E0,1.0663904E1,1.3207041E0,6.9474E4,6.1127324E4,3.978218E3,1.3604647E3,1.2324531E1,3.7021203E0,1.8408273E2,1.1699239E2,1.287098E3,8.961487E1,5.997344E1,1.8953394E1,5.7609973E2,1.0119885E0,2.608664E5,1.402559E5,3.5388836E1,2.4549119E3,5.688544E4,6.577388E4,2.8910534E5,1.3193053E5,9.531334E2,3.0429495E2,6.1434863E2,5.313126E2,3.9163198E0,3.8637123E0,2.1214355E2,4.9220068E2,3.1576394E3,7.202944E1,1.4243105E1,6.691531E1,3.245013E1,6.206712E0,1.1988257E1,8.348016E2],"tree_param":{"num_deleted":"0","num_feature":"13","num_nodes":"119","size_leaf_vector":"0"}},{"base_weights":[-1.139479E0,-1.1413231E0,-9.3089265E-1,-1.0853702E0,-1.1438236E0,-9.063008E-1,-1.1106968E0,-1.1198109E0,-8.427173E-1,-6.1842334E-1,-9.2428416E-1,-1.1479087E0,-1.1239811E0,-9.6504664E-1,-3.3828908E-1,-1.142344E0,-1.0980216E0,-8.439324E-1,1.1062772E-1,-1.0489986E0,-1.1265557E0,-1.0323826E0,1.0556078E0,-3.470657E-1,-1.1458075E0,-6.7369056E-1,-9.790608E-1,-9.795323E-1,-8.792027E-1,-1.1433686E0,-6.118319E-1,-8.8700974E-1,1.0415285E-1,-1.0689839E0,1.6489509E-1,-7.474985E-1,-9.0725625E-1,-8.251086E-1,-1.0089074E0,-1.0383928E0,-7.6271313E-1,-4.4466382E-1,-8.994112E-1,-1.0971622E0,-1.1462837E0,-9.781161E-1,-1.1272488E0,-2.0233028E-1,6.001621E-1,-4.9961403E-1,-1.0572853E0,-1.0627593E0,-1.1426197E0,4.4060802E-1,-4.7131252E-1,-3.4416616E-1,-3.3282813E-1,-3.1502092E-1,-1.8548141E-1,-2.60634E-1,-3.0173743E-1,-3.4463128E-1,-3.422519E-1,-2.1375833E-1,2.3725279E-1,1.893118E-2,3.3831966E-1,-3.2506418E-1,-3.474767E-1,-3.2498994E-1,-2.565554E-1,-3.2480478E-1,-2.9499495E-1,-2.1155564E-1,-7.065853E-2,-3.3554736E-1,-3.4192348E-1,-3.3180106E-1,-2.7853388E-1,-3.421619E-1,-2.513476E-1,-3.1419727E-1,-2.2960691E-1,-7.604478E-2,-2.0540164E-1,-2.910506E-1,-1.0980485E-1,2.6442343E-1,-3.1253994E-1,-2.8569028E-1,-3.16123E-1,-1.8065676E-1,-2.4117999E-1,-3.12859E-1,-2.2386222E-1,-3.3533558E-1,-1.9747797E-1,-2.831997E-1,2.5291482E-1,-2.8615582E-1,1.3814297E-1],"categories":[],"categories_nodes":[],"categories_segments":[],"categories_sizes":[],"default_left":[1,0,1,1,1,1,1,1,1,0,1,1,1,1,0,1,1,1,1,0,0,1,1,0,1,1,1,1,1,1,1,1,0,1,0,1,1,1,1,0,1,1,0,1,1,1,1,0,0,1,1,0,0,0,1,0,0,0,0,0,0,0,0,0,0,0,0,0,0,0,0,0,0,0,0,0,0,0,0,0,0,0,0,0,0,0,0,0,0,0,0,0,0,0,0,0,0,0,0,0,0],"id":4,"left_children":[1,3,5,7,11,9,13,15,25,17,27,23,19,21,-1,29,51,31,53,49,45,33,47,-1,43,41,39,37,35,55,97,57,99,95,-1,91,59,93,89,87,85,83,81,77,61,79,75,-1,-1,73,71,69,67,65,63,-1,-1,-1,-1,-1,-1,-1,-1,-1,-1,-1,-1,-1,-1,-1,-1,-1,-1,-1,-1,-1,-1,-1,-1,-1,-1,-1,-1,-1,-1,-1,-1,-1,-1,-1,-1,-1,-1,-1,-1,-1,-1,-1,-1,-1,-1],"loss_changes":[3.43625E2,1.23E2,3.3731934E1,3.1670703E2,6.75E1,3.523584E1,1.2321777E0,1.50859375E1,1.08308105E2,6.744942E1,1.5347656E1,1.2E1,2.684375E1,1.5365936E1,0E0,8.181641E0,2.5435547E1,1.2876373E1,1.896326E1,2.1478027E1,1.334375E1,6.4964447E0,7.68909E0,0E0,1.19375E1,1.0890326E2,3.2774902E1,1.2392822E1,1.2598877E1,8.613281E-1,1.7055206E1,1.2475861E1,5.9052997E0,1.2701416E0,0E0,4.737091E0,1.0339844E1,7.3217773E0,5.2019043E0,1.4323486E1,4.6271637E1,4.807289E1,2.0293518E1,7.2695312E0,6.375E0,1.4079224E1,1.403125E1,0E0,0E0,3.836214E0,7.8793945E0,3.948535E1,5.6445312E0,1.6230396E1,1.1470615E1,0E0,0E0,0E0,0E0,0E0,0E0,0E0,0E0,0E0,0E0,0E0,0E0,0E0,0E0,0E0,0E0,0E0,0E0,0E0,0E0,0E0,0E0,0E0,0E0,0E0,0E0,0E0,0E0,0E0,0E0,0E0,0E0,0E0,0E0,0E0,0E0,0E0,0E0,0E0,0E0,0E0,0E0,0E0,0E0,0E0,0E0],"parents":[2147483647,0,0,1,1,2,2,3,3,5,5,4,4,6,6,7,7,9,9,12,12,13,13,11,11,8,8,10,10,15,15,17,17,21,21,28,28,27,27,26,26,25,25,24,24,20,20,22,22,19,19,16,16,18,18,29,29,31,31,36,36,44,44,54,54,53,53,52,52,51,51,50,50,49,49,46,46,43,43,45,45,42,42,41,41,40,40,39,39,38,38,35,35,37,37,33,33,30,30,32,32],"right_children":[2,4,6,8,12,10,14,16,26,18,28,24,20,22,-1,30,52,32,54,50,46,34,48,-1,44,42,40,38,36,56,98,58,100,96,-1,92,60,94,90,88,86,84,82,78,62,80,76,-1,-1,74,72,70,68,66,64,-1,-1,-1,-1,-1,-1,-1,-1,-1,-1,-1,-1,-1,-1,-1,-1,-1,-1,-1,-1,-1,-1,-1,-1,-1,-1,-1,-1,-1,-1,-1,-1,-1,-1,-1,-1,-1,-1,-1,-1,-1,-1,-1,-1,-1,-1],"split_conditions":[3.4488875E5,1.6442033E2,4.4E1,5.3356992E4,7.419358E4,1.6442033E2,1.6442033E2,2E0,5.1346355E1,3.4E1,8.59E2,3E0,2.2E1,2.1304E4,-3.3828908E-1,3.07E2,1.1525951E1,5.3076466E1,3.0032E4,3E0,3E0,5.0304947E1,8.67E2,-3.470657E-1,2.3E1,9.414574E0,1.3010373E5,3.35E2,7.599382E0,3.8136E4,3.9586E4,9.85E2,8.646E3,1.185E3,1.6489509E-1,2E0,5E0,3.4E1,3E0,4.55E2,5.2E1,1.57E4,4.8317425E1,1.4E1,3.700273E4,1.1469256E1,1.0083362E1,-2.0233028E-1,6.001621E-1,6E0,1.054E3,2.993673E4,5.1254955E1,2.4122E4,1.1451853E1,-3.4416616E-1,-3.3282813E-1,-3.1502092E-1,-1.8548141E-1,-2.60634E-1,-3.0173743E-1,-3.4463128E-1,-3.422519E-1,-2.1375833E-1,2.3725279E-1,1.893118E-2,3.3831966E-1,-3.2506418E-1,-3.474767E-1,-3.2498994E-1,-2.565554E-1,-3.2480478E-1,-2.9499495E-1,-2.1155564E-1,-7.065853E-2,-3.3554736E-1,-3.4192348E-1,-3.3180106E-1,-2.7853388E-1,-3.421619E-1,-2.513476E-1,-3.1419727E-1,-2.2960691E-1,-7.604478E-2,-2.0540164E-1,-2.910506E-1,-1.0980485E-1,2.6442343E-1,-3.1253994E-1,-2.8569028E-1,-3.16123E-1,-1.8065676E-1,-2.4117999E-1,-3.12859E-1,-2.2386222E-1,-3.3533558E-1,-1.9747797E-1,-2.831997E-1,2.5291482E-1,-2.8615582E-1,1.3814297E-1],"split_indices":[6,7,4,6,6,7,7,8,1,4,10,3,3,5,0,3,2,1,5,4,4,1,10,0,3,2,6,10,2,5,5,10,5,10,0,11,11,4,11,5,4,5,1,9,6,2,2,0,0,9,10,6,1,5,2,0,0,0,0,0,0,0,0,0,0,0,0,0,0,0,0,0,0,0,0,0,0,0,0,0,0,0,0,0,0,0,0,0,0,0,0,0,0,0,0,0,0,0,0,0,0],"split_type":[0,0,0,0,0,0,0,0,0,0,0,0,0,0,0,0,0,0,0,0,0,0,0,0,0,0,0,0,0,0,0,0,0,0,0,0,0,0,0,0,0,0,0,0,0,0,0,0,0,0,0,0,0,0,0,0,0,0,0,0,0,0,0,0,0,0,0,0,0,0,0,0,0,0,0,0,0,0,0,0,0,0,0,0,0,0,0,0,0,0,0,0,0,0,0,0,0,0,0,0,0],"sum_hessian":[8.9592125E5,8.880658E5,7.855415E3,3.8008387E4,8.5005744E5,6.915607E3,9.398082E2,3.328105E4,4.7273354E3,4.086893E2,6.5069175E3,7.048806E5,1.4517683E5,1.03923294E2,8.3588495E2,1.6336045E4,1.6945006E4,3.1201855E2,9.6670746E1,4.832744E3,1.4034408E5,1.01045166E2,2.8781278E0,1.3359402E5,5.712866E5,2.1133418E3,2.6139937E3,2.9144653E3,3.5924517E3,1.63034E4,3.2644924E1,2.985194E2,1.3499157E1,9.907725E1,1.9679208E0,6.3569226E2,2.9567598E3,4.704452E2,2.4440203E3,2.048427E3,5.655665E2,1.0504629E3,1.0628789E3,5.5608457E3,5.6572575E5,6.588121E2,1.3968527E5,1.1178179E0,1.7603099E0,7.2722946E1,4.760021E3,9.47682E3,7.4681855E3,6.1845222E1,3.4825523E1,1.4612304E4,1.6910964E3,1.8398006E2,1.14539345E2,2.133485E3,8.2327454E2,3.8817475E5,1.7755098E5,2.9603378E1,5.2221456E0,4.062035E1,2.122487E1,1.5777512E3,5.8904346E3,8.619647E3,8.571727E2,3.533243E3,1.2267781E3,3.9952526E1,3.277042E1,8.2180984E4,5.7504277E4,5.278668E3,2.821779E2,3.020175E2,3.567946E2,5.0208142E2,5.607975E2,5.858521E2,4.6461078E2,3.7041153E2,1.95155E2,3.1723633E0,2.0452546E3,1.0900461E3,1.3539741E3,1.8108974E2,4.5460254E2,1.218744E2,3.485708E2,8.701665E1,1.20606E1,2.686294E1,5.781985E0,2.9784722E0,1.0520684E1],"tree_param":{"num_deleted":"0","num_feature":"13","num_nodes":"101","size_leaf_vector":"0"}},{"base_weights":[-1.0862267E0,-1.0886426E0,-8.289432E-1,-1.016489E0,-1.0919232E0,-8.006418E-1,-1.0480381E0,-1.0636178E0,-7.483673E-1,-5.156775E-1,-8.196331E-1,-1.097328E0,-1.065853E0,-8.8851076E-1,-3.2203948E-1,-1.0900126E0,-1.0375297E0,-7.297199E-1,7.855793E-2,-9.7036606E-1,-1.0692064E0,-9.2697567E-1,5.398688E-1,-1.0905588E0,-1.1023057E0,-5.5791795E-1,-8.9508086E-1,-7.346222E-1,-8.590748E-1,-1.0912129E0,-5.256033E-1,-7.5958365E-1,6.4358896E-1,-7.885652E-1,-3.280715E-1,-8.890854E-1,-7.1419364E-1,-8.1296015E-1,-6.7569226E-1,-9.6233827E-1,-6.2963194E-1,-3.7475714E-1,-8.691199E-1,-1.1055033E0,-1.0909545E0,-1.0915632E0,-1.0266078E0,-8.810821E-1,-1.0701276E0,-1.898688E-1,4.6916223E-1,-3.960155E-1,-9.803859E-1,-9.973284E-1,-1.0901878E0,3.2706168E-1,-3.4818938E-1,-3.288961E-1,-3.1392798E-1,-1.718501E-1,-3.0909857E-1,-2.4947652E-1,-1.7316882E-1,-3.235013E-1,-3.305763E-1,1.966416E-5,-3.1689453E-1,1.3256536E-2,2.6960993E-1,-3.0606848E-1,-3.3272567E-1,-3.0560946E-1,-2.4364752E-1,-3.0366832E-1,-2.6706958E-1,6.111558E-2,-1.4778842E-1,-3.1761646E-1,-3.259509E-1,-3.25305E-1,-2.1604057E-1,-3.1253096E-1,-2.481028E-1,-3.3090442E-1,-3.3321714E-1,-3.2893747E-1,-3.2445437E-1,-2.663297E-1,4.412723E-1,-1.6824816E-1,-2.5851853E-2,-3.1005555E-1,-1.1512133E-1,-2.6374403E-1,-3.2641298E-1,-1.1675466E-1,-2.0824389E-1,-2.570039E-1,-2.9333666E-1,-1.9392772E-1,-2.6467633E-1,-2.7338994E-1,-8.163136E-2,-2.3922333E-1,2.6707762E-1,3.359693E-1,-2.2263037E-1],"categories":[],"categories_nodes":[],"categories_segments":[],"categories_sizes":[],"default_left":[0,1,1,1,1,0,0,1,1,1,1,1,1,1,0,1,1,0,1,0,1,1,1,1,1,0,1,0,1,1,0,1,1,1,0,1,1,1,0,1,1,1,0,0,1,1,0,0,1,0,0,1,1,0,0,1,0,0,0,0,0,0,0,0,0,0,0,0,0,0,0,0,0,0,0,0,0,0,0,0,0,0,0,0,0,0,0,0,0,0,0,0,0,0,0,0,0,0,0,0,0,0,0,0,0,0,0],"id":5,"left_children":[1,3,5,7,11,9,13,15,25,17,27,23,19,21,-1,29,53,31,55,51,47,33,49,45,43,41,39,37,35,57,103,59,105,101,-1,97,61,99,95,93,91,89,87,83,63,85,81,79,77,-1,-1,75,73,71,69,67,65,-1,-1,-1,-1,-1,-1,-1,-1,-1,-1,-1,-1,-1,-1,-1,-1,-1,-1,-1,-1,-1,-1,-1,-1,-1,-1,-1,-1,-1,-1,-1,-1,-1,-1,-1,-1,-1,-1,-1,-1,-1,-1,-1,-1,-1,-1,-1,-1,-1,-1],"loss_changes":[4.286875E2,1.609375E2,3.9049805E1,3.7563477E2,9.1125E1,3.043164E1,2.0181885E0,1.6314453E1,1.2403076E2,4.570816E1,1.7285156E1,1.70625E1,3.4984375E1,6.3533707E0,0E0,7.944336E0,2.592871E1,1.1314682E1,1.0288988E1,2.1635498E1,1.7890625E1,1.5381165E0,5.1034303E0,1.365625E1,1.0125E1,1.1036835E2,4.4309937E1,7.300171E0,1.52092285E1,1.7216797E0,1.17207985E1,1.2495468E1,4.8963366E0,3.5836105E0,0E0,7.827881E0,9.655792E0,7.796509E0,4.8917236E0,2.0014648E1,5.0399338E1,6.569011E1,3.2666016E1,1.96875E0,8.328125E0,9.9375E0,9.948975E0,1.6727173E1,1.9046875E1,0E0,0E0,3.9996424E0,9.894531E0,2.7855469E1,6.1586914E0,9.848809E0,8.82736E0,0E0,0E0,0E0,0E0,0E0,0E0,0E0,0E0,0E0,0E0,0E0,0E0,0E0,0E0,0E0,0E0,0E0,0E0,0E0,0E0,0E0,0E0,0E0,0E0,0E0,0E0,0E0,0E0,0E0,0E0,0E0,0E0,0E0,0E0,0E0,0E0,0E0,0E0,0E0,0E0,0E0,0E0,0E0,0E0,0E0,0E0,0E0,0E0,0E0,0E0],"parents":[2147483647,0,0,1,1,2,2,3,3,5,5,4,4,6,6,7,7,9,9,12,12,13,13,11,11,8,8,10,10,15,15,17,17,21,21,28,28,27,27,26,26,25,25,24,24,23,23,20,20,22,22,19,19,16,16,18,18,29,29,31,31,36,36,44,44,56,56,55,55,54,54,53,53,52,52,51,51,48,48,47,47,46,46,43,43,45,45,42,42,41,41,40,40,39,39,38,38,35,35,37,37,33,33,30,30,32,32],"right_children":[2,4,6,8,12,10,14,16,26,18,28,24,20,22,-1,30,54,32,56,52,48,34,50,46,44,42,40,38,36,58,104,60,106,102,-1,98,62,100,96,94,92,90,88,84,64,86,82,80,78,-1,-1,76,74,72,70,68,66,-1,-1,-1,-1,-1,-1,-1,-1,-1,-1,-1,-1,-1,-1,-1,-1,-1,-1,-1,-1,-1,-1,-1,-1,-1,-1,-1,-1,-1,-1,-1,-1,-1,-1,-1,-1,-1,-1,-1,-1,-1,-1,-1,-1,-1,-1,-1,-1,-1,-1],"split_conditions":[3.4488875E5,1.6442033E2,4.4E1,4.7164656E4,7.419358E4,1.6442033E2,1.9936997E3,2E0,5.129174E1,3.4E1,8.5878E0,5.8E1,2.2E1,1.308E3,-3.2203948E-1,3.07E2,1.1525951E1,3.0625E4,2.9177E4,3E0,3E0,4E0,4.947918E1,3.039644E5,1.55E2,2.5897E4,1.3010373E5,5.829678E5,1.214E3,3.8136E4,1.022E3,9.408E3,4.0768E4,1.154E3,-3.280715E-1,5E0,2.6381E4,2E0,2.68E2,1.2427236E1,3.4E1,5.0177357E1,5.1E1,1.3021306E1,3E0,3.560316E4,8E0,1.1469256E1,1.0083362E1,-1.898688E-1,4.6916223E-1,6.55E2,1.054E3,2.0990371E4,5.1254955E1,2.4122E4,1.4E1,-3.288961E-1,-3.1392798E-1,-1.718501E-1,-3.0909857E-1,-2.4947652E-1,-1.7316882E-1,-3.235013E-1,-3.305763E-1,1.966416E-5,-3.1689453E-1,1.3256536E-2,2.6960993E-1,-3.0606848E-1,-3.3272567E-1,-3.0560946E-1,-2.4364752E-1,-3.0366832E-1,-2.6706958E-1,6.111558E-2,-1.4778842E-1,-3.1761646E-1,-3.259509E-1,-3.25305E-1,-2.1604057E-1,-3.1253096E-1,-2.481028E-1,-3.3090442E-1,-3.3321714E-1,-3.2893747E-1,-3.2445437E-1,-2.663297E-1,4.412723E-1,-1.6824816E-1,-2.5851853E-2,-3.1005555E-1,-1.1512133E-1,-2.6374403E-1,-3.2641298E-1,-1.1675466E-1,-2.0824389E-1,-2.570039E-1,-2.9333666E-1,-1.9392772E-1,-2.6467633E-1,-2.7338994E-1,-8.163136E-2,-2.3922333E-1,2.6707762E-1,3.359693E-1,-2.2263037E-1],"split_indices":[6,7,4,6,6,7,7,8,1,4,2,4,3,10,0,3,2,5,5,4,4,11,1,7,3,5,6,6,10,5,10,5,5,10,0,11,5,11,10,2,4,1,9,2,11,6,9,2,2,0,0,10,10,6,1,5,9,0,0,0,0,0,0,0,0,0,0,0,0,0,0,0,0,0,0,0,0,0,0,0,0,0,0,0,0,0,0,0,0,0,0,0,0,0,0,0,0,0,0,0,0,0,0,0,0,0,0],"split_type":[0,0,0,0,0,0,0,0,0,0,0,0,0,0,0,0,0,0,0,0,0,0,0,0,0,0,0,0,0,0,0,0,0,0,0,0,0,0,0,0,0,0,0,0,0,0,0,0,0,0,0,0,0,0,0,0,0,0,0,0,0,0,0,0,0,0,0,0,0,0,0,0,0,0,0,0,0,0,0,0,0,0,0,0,0,0,0,0,0,0,0,0,0,0,0,0,0,0,0,0,0,0,0,0,0,0,0],"sum_hessian":[6.910716E5,6.846397E5,6.4319214E3,2.978868E4,6.54851E5,5.700252E3,7.316695E2,2.533286E4,4.455821E3,3.5791403E2,5.342338E3,5.4237E5,1.1248097E5,1.0552814E2,6.2614136E2,1.2572179E4,1.2760681E4,2.6296616E2,9.494787E1,3.8259683E3,1.08655E5,1.0310271E2,2.4254324E0,2.2991948E5,3.124505E5,1.9410017E3,2.5148188E3,1.6993197E3,3.643018E3,1.2544567E4,2.7611448E1,2.5780682E2,5.159332E0,5.9446804E1,4.3655903E1,3.0136382E3,6.293798E2,7.240348E2,9.752849E2,2.0043477E3,5.104712E2,1.2232505E3,7.177513E2,2.43702E5,6.8748516E4,2.2634838E5,3.5711145E3,5.341638E2,1.08120836E5,1.3086326E0,1.1167998E0,6.629651E1,3.7596719E3,7.247558E3,5.5131226E3,6.0153084E1,3.4794785E1,1.1239361E4,1.3052059E3,1.5441362E2,1.03393196E2,3.3617026E2,2.9320956E2,3.2014545E4,3.673397E4,2.3994328E1,1.0800458E1,4.096098E1,1.9192104E1,1.1841979E3,4.328925E3,6.4936475E3,7.5391064E2,2.770813E3,9.888588E2,9.044304E0,5.7252205E1,6.376908E4,4.4351758E4,2.3351228E2,3.0065155E2,3.3150718E3,2.5604266E2,1.6517453E5,7.852746E4,1.5213225E5,7.4216125E4,7.1269305E2,5.058246E0,7.431485E2,4.8010196E2,1.9196365E2,3.1850754E2,1.2109408E3,7.9340686E2,6.0353214E1,9.149317E2,2.215072E3,7.985661E2,2.1578035E2,5.0825443E2,4.741446E1,1.2032346E1,2.3530937E1,4.080511E0,3.9822946E0,1.1770374E0],"tree_param":{"num_deleted":"0","num_feature":"13","num_nodes":"107","size_leaf_vector":"0"}},{"base_weights":[-1.0456082E0,-1.0487849E0,-7.321086E-1,-9.558736E-1,-1.0531076E0,-7.004419E-1,-9.950169E-1,-1.0174954E0,-6.526336E-1,-4.2412096E-1,-7.201699E-1,-1.0602832E0,-1.0188156E0,-7.717831E-1,-3.0733395E-1,-1.050635E0,-9.848068E-1,-6.231347E-1,5.379487E-2,-8.979951E-1,-1.0231849E0,7.173904E-1,-8.716453E-1,-1.0513561E0,-1.06687E0,-5.4949003E-1,-9.665244E-1,-7.9860747E-1,-6.588153E-1,-1.0520798E0,-4.4334376E-1,-8.276739E-1,-3.708029E-1,5.0111973E-1,-1.4469242E-1,-6.10244E-1,-7.89555E-1,-5.982502E-1,-8.429899E-1,-9.886508E-1,1.180884E0,-4.054516E-1,-7.2577727E-1,-1.0710994E0,-1.051919E0,-1.0526731E0,-9.6906614E-1,-7.896561E-1,-1.0243988E0,-6.244968E-1,-1.0458856E0,-3.0744877E-1,-9.1008496E-1,-8.859223E-1,-1.0185981E0,5.105019E-1,-1.6096288E-1,-3.1765363E-1,-2.980339E-1,-2.7263984E-1,1.03365265E-1,-4.426498E-2,-1.9960916E-1,-3.1762698E-1,-3.115924E-1,-1.2626795E-1,2.321597E-1,-1.1821889E-1,2.5760573E-1,-3.0605498E-1,2.275009E-1,-1.0997681E-1,-2.8011423E-1,-2.8722575E-1,-2.4542852E-1,-5.8039084E-2,-2.7946836E-1,-3.2467437E-1,-1.295903E-1,-2.9387668E-1,3.2595724E-2,-3.0286214E-1,-3.1377172E-1,-3.1231168E-1,-1.8319906E-1,-3.1065434E-1,-3.1988165E-1,-2.9632992E-1,-2.2083332E-1,-3.2033813E-1,-3.2343343E-1,1.4275701E-1,-2.2699934E-1,-2.5458124E-1,-7.521996E-2,-1.3645716E-1,1.2833496E0,-3.0109277E-1,-5.4018095E-2,-1.9843139E-1,-2.6703373E-1,-2.2901104E-1,-2.726753E-1,-1.9887535E-1,-1.2623371E-1,-2.1918072E-1,1.9780575E-1,1.1844542E-2,-2.1472391E-1],"categories":[],"categories_nodes":[],"categories_segments":[],"categories_sizes":[],"default_left":[0,1,1,1,1,1,1,1,1,0,1,1,1,0,0,1,1,1,1,1,0,0,1,0,1,1,0,1,1,1,1,0,0,0,0,1,1,0,1,1,0,0,1,1,1,0,0,1,1,1,0,1,1,1,0,0,1,0,0,0,0,0,0,0,0,0,0,0,0,0,0,0,0,0,0,0,0,0,0,0,0,0,0,0,0,0,0,0,0,0,0,0,0,0,0,0,0,0,0,0,0,0,0,0,0,0,0,0,0],"id":6,"left_children":[1,3,5,7,11,9,13,15,25,17,27,23,19,21,-1,29,53,31,55,51,47,33,49,45,43,41,39,37,35,57,105,59,107,-1,-1,103,99,61,101,97,95,93,91,89,85,63,87,83,81,79,77,75,73,71,69,67,65,-1,-1,-1,-1,-1,-1,-1,-1,-1,-1,-1,-1,-1,-1,-1,-1,-1,-1,-1,-1,-1,-1,-1,-1,-1,-1,-1,-1,-1,-1,-1,-1,-1,-1,-1,-1,-1,-1,-1,-1,-1,-1,-1,-1,-1,-1,-1,-1,-1,-1,-1,-1],"loss_changes":[5.25875E2,2.0925E2,4.3489502E1,4.344043E2,1.22E2,2.5534668E1,2.9420166E0,1.9925781E1,1.2686963E2,3.0308575E1,2.0759277E1,2.321875E1,4.4789062E1,1.1069813E1,0E0,7.9501953E0,3.1699219E1,1.1295845E1,9.351062E0,2.1351807E1,2.2875E1,6.4791584E0,2.2006798E0,1.803125E1,1.39375E1,7.4971375E1,4.734778E1,1.671582E1,1.5313843E1,2.7441406E0,8.241263E0,1.2043465E1,1.4528535E1,0E0,0E0,1.7864746E1,8.047882E0,1.0628418E1,7.614868E0,1.148761E1,5.446824E1,1.1178894E2,4.978241E1,3.15625E0,1.1261719E1,1.3671875E1,1.138208E1,1.9001068E1,2.55E1,7.8863935E0,3.6709976E-1,4.2512865E0,1.2142578E1,6.1523926E1,2.1237793E1,9.933399E0,1.6129143E1,0E0,0E0,0E0,0E0,0E0,0E0,0E0,0E0,0E0,0E0,0E0,0E0,0E0,0E0,0E0,0E0,0E0,0E0,0E0,0E0,0E0,0E0,0E0,0E0,0E0,0E0,0E0,0E0,0E0,0E0,0E0,0E0,0E0,0E0,0E0,0E0,0E0,0E0,0E0,0E0,0E0,0E0,0E0,0E0,0E0,0E0,0E0,0E0,0E0,0E0,0E0,0E0],"parents":[2147483647,0,0,1,1,2,2,3,3,5,5,4,4,6,6,7,7,9,9,12,12,13,13,11,11,8,8,10,10,15,15,17,17,21,21,28,28,27,27,26,26,25,25,24,24,23,23,20,20,22,22,19,19,16,16,18,18,29,29,31,31,37,37,45,45,56,56,55,55,54,54,53,53,52,52,51,51,50,50,49,49,48,48,47,47,44,44,46,46,43,43,42,42,41,41,40,40,39,39,36,36,38,38,35,35,30,30,32,32],"right_children":[2,4,6,8,12,10,14,16,26,18,28,24,20,22,-1,30,54,32,56,52,48,34,50,46,44,42,40,38,36,58,106,60,108,-1,-1,104,100,62,102,98,96,94,92,90,86,64,88,84,82,80,78,76,74,72,70,68,66,-1,-1,-1,-1,-1,-1,-1,-1,-1,-1,-1,-1,-1,-1,-1,-1,-1,-1,-1,-1,-1,-1,-1,-1,-1,-1,-1,-1,-1,-1,-1,-1,-1,-1,-1,-1,-1,-1,-1,-1,-1,-1,-1,-1,-1,-1,-1,-1,-1,-1,-1,-1],"split_conditions":[3.4488875E5,1.6442033E2,4.4E1,4.4616145E4,7.419358E4,1.6442033E2,1.6442033E2,2E0,1.2872975E1,3.4E1,8.59E2,5.8E1,2.2E1,5.3E1,-3.0733395E-1,3.07E2,5.00993E1,9.44E2,2E0,3E0,3E0,5.0896526E1,3E0,3.039644E5,1.55E2,5.133894E1,5.3076466E1,3.62E2,5E0,3.8136E4,1.018E3,5.3076466E1,3E0,5.0111973E-1,-1.4469242E-1,4E0,9.25168E0,4.8515663E1,3E0,2.7425847E5,5.2E1,4.8354065E1,2.676E3,1.306636E1,3E0,3.7884523E4,8E0,1.1469256E1,1.0083362E1,2E0,4.7849392E1,6E0,9.81E2,6.965E3,2.8E1,6.93E2,1.1628131E1,-3.1765363E-1,-2.980339E-1,-2.7263984E-1,1.03365265E-1,-4.426498E-2,-1.9960916E-1,-3.1762698E-1,-3.115924E-1,-1.2626795E-1,2.321597E-1,-1.1821889E-1,2.5760573E-1,-3.0605498E-1,2.275009E-1,-1.0997681E-1,-2.8011423E-1,-2.8722575E-1,-2.4542852E-1,-5.8039084E-2,-2.7946836E-1,-3.2467437E-1,-1.295903E-1,-2.9387668E-1,3.2595724E-2,-3.0286214E-1,-3.1377172E-1,-3.1231168E-1,-1.8319906E-1,-3.1065434E-1,-3.1988165E-1,-2.9632992E-1,-2.2083332E-1,-3.2033813E-1,-3.2343343E-1,1.4275701E-1,-2.2699934E-1,-2.5458124E-1,-7.521996E-2,-1.3645716E-1,1.2833496E0,-3.0109277E-1,-5.4018095E-2,-1.9843139E-1,-2.6703373E-1,-2.2901104E-1,-2.726753E-1,-1.9887535E-1,-1.2623371E-1,-2.1918072E-1,1.9780575E-1,1.1844542E-2,-2.1472391E-1],"split_indices":[6,7,4,6,6,7,7,8,2,4,10,4,3,4,0,3,1,10,11,4,4,1,11,7,3,1,1,10,11,5,10,1,11,0,0,11,2,1,11,6,4,1,5,2,11,6,9,2,2,11,1,11,10,5,9,10,2,0,0,0,0,0,0,0,0,0,0,0,0,0,0,0,0,0,0,0,0,0,0,0,0,0,0,0,0,0,0,0,0,0,0,0,0,0,0,0,0,0,0,0,0,0,0,0,0,0,0,0,0],"split_type":[0,0,0,0,0,0,0,0,0,0,0,0,0,0,0,0,0,0,0,0,0,0,0,0,0,0,0,0,0,0,0,0,0,0,0,0,0,0,0,0,0,0,0,0,0,0,0,0,0,0,0,0,0,0,0,0,0,0,0,0,0,0,0,0,0,0,0,0,0,0,0,0,0,0,0,0,0,0,0,0,0,0,0,0,0,0,0,0,0,0,0,0,0,0,0,0,0,0,0,0,0,0,0,0,0,0,0,0,0],"sum_hessian":[5.2877044E5,5.2346403E5,5.306396E3,2.3281938E4,5.001821E5,4.7392305E3,5.671656E2,1.9347879E4,3.934058E3,3.1731024E2,4.4219204E3,4.1360534E5,8.657675E4,6.92331E1,4.979325E2,9.592198E3,9.755681E3,2.2380818E2,9.350206E1,3.0288313E3,8.354792E4,3.9622998E0,6.52708E1,1.7567467E5,2.3793067E5,2.9631323E3,9.7092566E2,1.9355005E3,2.48642E3,9.568701E3,2.349666E1,1.2235087E2,1.0145731E2,1.9895251E0,1.9727747E0,1.8170359E3,6.6938385E2,3.5362E2,1.5818805E3,9.615576E2,9.3680315E0,1.6325387E3,1.3305936E3,1.8540969E5,5.2520984E4,1.7289597E5,2.7786975E3,4.3541516E2,8.311251E4,2.8884356E1,3.6386444E1,6.129319E1,2.967538E3,2.4916106E3,7.26407E3,2.9464758E1,6.40373E1,8.5635E3,1.00520154E3,1.1464165E2,7.7092175E0,4.62471E1,3.073729E2,1.2055458E5,5.2341395E4,5.053558E1,1.3501719E1,8.152691E0,2.1312067E1,7.258021E3,6.0487866E0,2.106995E2,2.2809111E3,1.9531309E3,1.0144073E3,5.29353E1,8.357889E0,3.363159E1,2.7548513E0,1.9232962E1,9.651394E0,4.9182273E4,3.3930234E4,1.7908559E2,2.563296E2,2.4543207E4,2.7977777E4,2.5692158E3,2.0948178E2,1.2610938E5,5.9300305E4,3.298392E1,1.2976097E3,4.213115E2,1.2112272E3,6.688459E0,2.6795723E0,9.4381744E2,1.774015E1,2.9768738E2,3.7169647E2,7.222317E2,8.596488E2,1.4198104E3,3.9722552E2,1.8908363E1,4.5882974E0,4.674415E1,5.4713165E1],"tree_param":{"num_deleted":"0","num_feature":"13","num_nodes":"109","size_leaf_vector":"0"}},{"base_weights":[-1.0117234E0,-1.0158908E0,-6.3740546E-1,-8.9717263E-1,-1.0215838E0,-6.031873E-1,-9.466885E-1,-9.7493106E-1,-5.5416507E-1,-6.9783384E-1,-5.3290594E-1,-1.0319062E0,-9.8011637E-1,-7.148678E-1,-9.890168E-1,-1.0183398E0,-9.329651E-1,-7.962616E-1,-5.987648E-1,-8.518429E-1,-2.6039204E-1,-8.5161334E-1,-9.849188E-1,-5.6173366E-1,-2.980425E-1,-1.0521946E0,-1.0270641E0,-4.5130813E-1,-9.0555865E-1,-2.4241741E-1,-5.576895E-1,-1.0200651E0,-3.7485155E-1,-6.7656374E-1,-8.980241E-1,-7.904013E-1,-1.000443E0,-1.5677103E-1,-3.0547327E-1,-4.4448403E-1,-6.145911E-1,-9.293302E-1,7.181282E-1,-7.658068E-1,-3.656108E-1,-9.148951E-1,-1.0282041E0,-3.1666064E-1,-1.0444906E0,4.283282E-2,-2.4903451E-1,3.5775796E-1,-8.7514275E-1,-9.6560603E-1,-1.0077007E0,-8.8149035E-1,4.1975714E-2,-8.707366E-1,-1.0186623E0,-3.930992E-1,-6.889162E-1,-3.0869573E-1,-2.8328183E-1,2.7406847E-1,-2.1043767E-1,6.293801E-2,-1.0878547E-1,-3.0676222E-1,-3.116556E-1,-2.5361806E-1,-1.7434284E-1,-4.6865426E-2,-1.6172485E-1,-2.7170348E-1,-3.1539232E-1,-1.8009742E-1,-2.7114475E-1,-1.3747947E-1,-2.776671E-1,-2.1556942E-1,-3.0332753E-1,-2.994526E-1,-2.7867356E-1,-2.844251E-1,-8.3117254E-2,-1.4993173E-1,3.9777684E-1,-3.073278E-1,-2.5393718E-1,-3.0865964E-1,-3.163612E-1,-3.374527E-2,-1.674276E-1,-1.2598364E-1,-2.6668316E-1,-2.599756E-1,4.6592477E-1,-2.060434E-1,-3.0022284E-1,-1.9842225E-1,-1.2898643E-1,-2.3845404E-1,-3.1221157E-1,-1.2560697E-1,-2.5227642E-1,-1.9163798E-1,-2.5604457E-1,1.5589908E-1,-2.1363488E-1,-2.7777565E-1,-1.9456641E-1],"categories":[],"categories_nodes":[],"categories_segments":[],"categories_sizes":[],"default_left":[0,1,1,1,1,0,1,1,1,1,0,1,0,0,1,0,1,1,1,1,1,1,1,1,0,0,1,0,0,1,1,1,1,0,1,1,1,1,0,1,1,1,0,0,1,0,1,0,1,0,0,0,0,0,0,1,0,1,1,0,1,0,0,0,0,0,0,0,0,0,0,0,0,0,0,0,0,0,0,0,0,0,0,0,0,0,0,0,0,0,0,0,0,0,0,0,0,0,0,0,0,0,0,0,0,0,0,0,0,0,0],"id":7,"left_children":[1,3,5,7,11,9,13,15,27,17,29,25,21,19,23,31,57,33,59,55,51,35,53,49,-1,47,45,43,41,37,39,61,107,63,109,105,101,65,-1,103,99,97,95,93,91,87,67,-1,89,-1,-1,85,83,81,79,77,-1,75,73,71,69,-1,-1,-1,-1,-1,-1,-1,-1,-1,-1,-1,-1,-1,-1,-1,-1,-1,-1,-1,-1,-1,-1,-1,-1,-1,-1,-1,-1,-1,-1,-1,-1,-1,-1,-1,-1,-1,-1,-1,-1,-1,-1,-1,-1,-1,-1,-1,-1,-1,-1],"loss_changes":[6.2784375E2,2.68375E2,4.6405518E1,4.8598633E2,1.6175E2,2.6231812E1,3.6146545E0,2.6136719E1,1.2151489E2,1.6110474E1,1.6418701E1,2.88125E1,4.5945312E1,4.235935E0,1.4639282E-1,7.7192383E0,3.9493164E1,9.749268E0,1.552243E1,1.7282906E0,7.1624103E0,2.4154541E1,3.1171875E1,1.275624E0,0E0,4.0625E-1,3.0484375E1,7.010437E1,3.0111023E1,1.1968349E1,1.3369019E1,3.9492188E0,6.7341228E0,1.626773E1,2.5762634E0,1.8055542E1,5.7471313E0,1.2568438E1,0E0,6.929077E0,1.1875977E1,1.23411255E1,1.6656525E1,2.3404144E1,1.0002176E2,1.7739746E1,1.3625E1,0E0,1.7109375E0,0E0,0E0,8.713446E0,1.4422035E-1,4.6359375E1,3.2117188E1,5.668564E-1,0E0,3.8757812E1,1.0774902E1,8.973103E0,9.473389E0,0E0,0E0,0E0,0E0,0E0,0E0,0E0,0E0,0E0,0E0,0E0,0E0,0E0,0E0,0E0,0E0,0E0,0E0,0E0,0E0,0E0,0E0,0E0,0E0,0E0,0E0,0E0,0E0,0E0,0E0,0E0,0E0,0E0,0E0,0E0,0E0,0E0,0E0,0E0,0E0,0E0,0E0,0E0,0E0,0E0,0E0,0E0,0E0,0E0,0E0],"parents":[2147483647,0,0,1,1,2,2,3,3,5,5,4,4,6,6,7,7,9,9,13,13,12,12,14,14,11,11,8,8,10,10,15,15,17,17,21,21,29,29,30,30,28,28,27,27,26,26,25,25,23,23,20,20,22,22,19,19,16,16,18,18,31,31,33,33,37,37,46,46,60,60,59,59,58,58,57,57,55,55,54,54,53,53,52,52,51,51,45,45,48,48,44,44,43,43,42,42,41,41,40,40,36,36,39,39,35,35,32,32,34,34],"right_children":[2,4,6,8,12,10,14,16,28,18,30,26,22,20,24,32,58,34,60,56,52,36,54,50,-1,48,46,44,42,38,40,62,108,64,110,106,102,66,-1,104,100,98,96,94,92,88,68,-1,90,-1,-1,86,84,82,80,78,-1,76,74,72,70,-1,-1,-1,-1,-1,-1,-1,-1,-1,-1,-1,-1,-1,-1,-1,-1,-1,-1,-1,-1,-1,-1,-1,-1,-1,-1,-1,-1,-1,-1,-1,-1,-1,-1,-1,-1,-1,-1,-1,-1,-1,-1,-1,-1,-1,-1,-1,-1,-1,-1],"split_conditions":[3.4488875E5,1.6442033E2,4.4E1,4.4616145E4,6.7998555E4,5.829678E5,1.9936997E3,2E0,1.2872975E1,9.02E2,1.6442033E2,3E0,2.2E1,1.154E3,3.2E1,3.07E2,1.1525951E1,5.1166977E1,2E0,7E0,3E0,1.2201877E1,9.634809E0,9.46441E0,-2.980425E-1,1.046E3,2.3E1,4.6E1,5.3076466E1,1.51E2,8.571718E0,3.8136E4,6.940922E0,2.1E1,4.1289E4,2E0,2.6E1,5.1454445E1,-3.0547327E-1,2.1E1,1.214E3,1.6072E4,2.2E1,5.0769917E1,5.3E1,2.1E1,1.0439865E1,-3.1666064E-1,3.5E1,4.283282E-2,-2.4903451E-1,2E0,6.005E3,5.0304947E1,3E0,1.3E1,4.1975714E-2,6.965E3,5.1254955E1,8.686187E0,4E0,-3.0869573E-1,-2.8328183E-1,2.7406847E-1,-2.1043767E-1,6.293801E-2,-1.0878547E-1,-3.0676222E-1,-3.116556E-1,-2.5361806E-1,-1.7434284E-1,-4.6865426E-2,-1.6172485E-1,-2.7170348E-1,-3.1539232E-1,-1.8009742E-1,-2.7114475E-1,-1.3747947E-1,-2.776671E-1,-2.1556942E-1,-3.0332753E-1,-2.994526E-1,-2.7867356E-1,-2.844251E-1,-8.3117254E-2,-1.4993173E-1,3.9777684E-1,-3.073278E-1,-2.5393718E-1,-3.0865964E-1,-3.163612E-1,-3.374527E-2,-1.674276E-1,-1.2598364E-1,-2.6668316E-1,-2.599756E-1,4.6592477E-1,-2.060434E-1,-3.0022284E-1,-1.9842225E-1,-1.2898643E-1,-2.3845404E-1,-3.1221157E-1,-1.2560697E-1,-2.5227642E-1,-1.9163798E-1,-2.5604457E-1,1.5589908E-1,-2.1363488E-1,-2.7777565E-1,-1.9456641E-1],"split_indices":[6,7,4,6,6,6,7,8,2,10,7,3,3,10,10,3,2,1,11,12,11,2,2,2,0,10,3,4,1,3,2,5,2,3,5,11,4,1,0,9,10,5,3,1,4,3,2,0,8,0,0,11,0,1,4,8,0,5,1,2,11,0,0,0,0,0,0,0,0,0,0,0,0,0,0,0,0,0,0,0,0,0,0,0,0,0,0,0,0,0,0,0,0,0,0,0,0,0,0,0,0,0,0,0,0,0,0,0,0,0,0],"split_type":[0,0,0,0,0,0,0,0,0,0,0,0,0,0,0,0,0,0,0,0,0,0,0,0,0,0,0,0,0,0,0,0,0,0,0,0,0,0,0,0,0,0,0,0,0,0,0,0,0,0,0,0,0,0,0,0,0,0,0,0,0,0,0,0,0,0,0,0,0,0,0,0,0,0,0,0,0,0,0,0,0,0,0,0,0,0,0,0,0,0,0,0,0,0,0,0,0,0,0,0,0,0,0,0,0,0,0,0,0,0,0],"sum_hessian":[4.028875E5,3.9844966E5,4.437838E3,1.8240254E4,3.802094E5,3.9984163E3,4.3942172E2,1.4867915E4,3.3723386E3,1.7000562E3,2.29836E3,3.044099E5,7.579951E4,7.0608284E1,3.6881345E2,7.29689E3,7.571025E3,8.492585E2,8.5079767E2,5.358414E1,1.7024143E1,2.737175E3,7.3062336E4,5.1197386E0,3.636937E2,5.861136E4,2.4579855E5,2.6104998E3,7.6183887E2,1.8152176E2,2.1168384E3,7.2767954E3,2.009482E1,3.937542E2,4.5550427E2,1.9439573E3,7.932178E2,1.645577E2,1.6964064E1,7.110403E2,1.4057981E3,7.512676E2,1.0571244E1,5.573088E2,2.053191E3,2.481223E3,2.4331733E5,4.078772E4,1.7823643E4,1.541434E0,3.5783045E0,8.697048E0,8.327095E0,3.956527E4,3.3497066E4,5.2136765E1,1.4473773E0,4.3925576E3,3.1784673E3,2.609178E2,5.898799E2,6.499261E3,7.77534E2,5.519379E0,3.8823483E2,5.917035E1,1.05387344E2,1.5889838E5,8.441895E4,2.3778842E2,3.5209146E2,1.0027545E2,1.6064233E2,7.189497E2,2.4595176E3,4.8085645E2,3.9117012E3,5.991592E0,4.6145172E1,3.9076077E2,3.3106305E4,2.09469E4,1.861837E4,6.900347E0,1.426748E0,4.8685937E0,3.8284545E0,9.4878235E2,1.5324406E3,7.0157036E3,1.0807938E4,8.875645E2,1.1656265E3,1.474811E2,4.0982767E2,3.634745E0,6.9364996E0,1.7331247E2,5.7795514E2,1.1193851E3,2.8641296E2,1.332953E2,6.599225E2,6.695333E2,4.1506958E1,5.7445026E2,1.3695071E3,5.3539395E0,1.4740881E1,4.07255E2,4.8249264E1],"tree_param":{"num_deleted":"0","num_feature":"13","num_nodes":"111","size_leaf_vector":"0"}},{"base_weights":[-9.805527E-1,-9.86932E-1,-6.042962E-1,-8.395321E-1,-9.9428433E-1,-5.1830995E-1,-9.009436E-1,-9.352862E-1,-4.7919127E-1,-6.1183345E-1,-4.285152E-1,-1.0071437E0,-9.422898E-1,-2.358734E-1,-9.4558895E-1,-9.89753E-1,-8.8322747E-1,-7.163606E-1,-4.9709308E-1,1.6024526E0,-7.818177E-1,-9.216569E-1,-9.8477703E-1,-9.5781136E-1,-7.4843436E-1,-1.0342009E0,-1.0007343E0,-2.5953707E-1,-6.80215E-1,-3.6088216E-1,-6.2427557E-1,-9.921174E-1,-2.8726885E-1,-5.7971257E-1,-8.2396203E-1,-8.909972E-1,-9.640127E-1,-8.7215406E-1,-3.1560677E-1,-5.40086E-1,-9.4423544E-1,-4.9578017E-1,-8.2708484E-1,-7.08878E-1,-1.17667496E-1,-8.586256E-1,-1.0022273E0,-3.1157964E-1,-1.0240911E0,-2.5341132E-1,-2.9355147E-1,-7.231802E-1,-2.883659E-1,-5.350246E-1,-9.8939997E-1,-9.9760664E-1,-9.373139E-1,-4.1404825E-1,2.6110606E0,-7.33977E-1,-9.37915E-1,-7.1401036E-1,-4.1252935E-1,-3.0120435E-1,-2.6810518E-1,-2.2728366E-1,-1.3224322E-1,-1.4161228E-1,-2.8964204E-1,-2.6507565E-1,-1.1840809E-1,-2.2880448E-2,-1.5023318E-1,-2.297798E-1,-9.61932E-2,-2.3198701E-1,-2.9266044E-1,-3.937386E-2,-2.4107666E-1,9.745561E-1,-1.2307055E-1,3.8348317E-2,-2.5153378E-1,-2.6182294E-1,-2.943481E-1,-2.670951E-1,-3.0020973E-1,-3.1088787E-1,-1.0470427E-1,-2.5679338E-1,7.0424983E-3,-2.4412987E-1,-1.292906E-1,-2.9036358E-1,1.9515587E-1,-3.0111155E-1,-3.1118792E-1,-1.2362198E-2,-3.0308193E-1,-3.027071E-1,-2.9610592E-1,-2.5017348E-1,-1.4002607E-2,1.8778639E-3,-2.5407815E-1,-2.188828E-1,-8.86348E-2,-2.9151982E-1,9.0148054E-2,-8.4630825E-2,-2.1321656E-1,-1.5706827E-1,-2.915519E-1,-1.13458715E-1,-3.0311417E-2,-2.3927777E-1,-2.802495E-1,-1.7833532E-1,1.9517311E-1,-2.491213E-1,2.4911894E-1],"categories":[],"categories_nodes":[],"categories_segments":[],"categories_sizes":[],"default_left":[0,0,1,1,1,0,1,1,1,1,1,1,1,1,1,1,1,1,1,0,1,1,1,0,1,1,1,0,1,0,1,1,1,0,0,1,1,1,0,1,1,1,0,1,1,1,1,0,1,1,0,1,0,0,1,0,1,0,1,0,1,1,1,0,0,0,0,0,0,0,0,0,0,0,0,0,0,0,0,0,0,0,0,0,0,0,0,0,0,0,0,0,0,0,0,0,0,0,0,0,0,0,0,0,0,0,0,0,0,0,0,0,0,0,0,0,0,0,0,0,0],"id":8,"left_children":[1,3,5,7,11,9,13,15,27,17,29,25,21,19,23,31,59,33,61,57,53,35,55,51,49,47,45,43,39,37,41,63,117,65,119,115,111,67,113,109,107,105,103,101,97,69,99,-1,95,93,-1,91,-1,89,87,85,83,81,79,77,75,73,71,-1,-1,-1,-1,-1,-1,-1,-1,-1,-1,-1,-1,-1,-1,-1,-1,-1,-1,-1,-1,-1,-1,-1,-1,-1,-1,-1,-1,-1,-1,-1,-1,-1,-1,-1,-1,-1,-1,-1,-1,-1,-1,-1,-1,-1,-1,-1,-1,-1,-1,-1,-1,-1,-1,-1,-1,-1,-1],"loss_changes":[7.353125E2,3.2590625E2,1.299851E2,4.9400586E2,1.910625E2,3.3055054E1,3.3861694E1,3.1226562E1,1.3275885E2,2.2922974E1,2.6616486E1,3.8890625E1,4.901953E1,7.5063354E1,1.8745117E0,8.890625E0,4.6632324E1,1.4423279E1,1.673816E1,3.599807E1,2.410019E0,4.8947266E1,1.0392578E1,1.11816406E-1,7.4225883E0,8.9453125E-1,3.8640625E1,9.172966E1,5.7625183E1,3.46584E1,1.3120392E1,5.5493164E0,6.130702E0,1.0781509E1,6.7069397E0,8.901367E1,5.4966797E1,4.107086E0,1.8601288E1,4.5091095E1,1.889389E1,1.4789627E1,3.310318E0,2.8560257E1,7.4748344E1,2.2141846E1,1.8046875E1,0E0,2.5732422E0,1.53026085E1,0E0,1.3861084E-1,0E0,5.1090536E0,5.387955E-1,3.9628906E0,1.0397705E1,1.6220168E0,2.363662E1,6.531714E1,2.5500488E1,5.0460663E0,1.9857422E1,0E0,0E0,0E0,0E0,0E0,0E0,0E0,0E0,0E0,0E0,0E0,0E0,0E0,0E0,0E0,0E0,0E0,0E0,0E0,0E0,0E0,0E0,0E0,0E0,0E0,0E0,0E0,0E0,0E0,0E0,0E0,0E0,0E0,0E0,0E0,0E0,0E0,0E0,0E0,0E0,0E0,0E0,0E0,0E0,0E0,0E0,0E0,0E0,0E0,0E0,0E0,0E0,0E0,0E0,0E0,0E0,0E0,0E0],"parents":[2147483647,0,0,1,1,2,2,3,3,5,5,4,4,6,6,7,7,9,9,13,13,12,12,14,14,11,11,8,8,10,10,15,15,17,17,21,21,29,29,28,28,30,30,27,27,26,26,25,25,24,24,23,23,20,20,22,22,19,19,16,16,18,18,31,31,33,33,37,37,45,45,62,62,61,61,60,60,59,59,58,58,57,57,56,56,55,55,54,54,53,53,51,51,49,49,48,48,44,44,46,46,43,43,42,42,41,41,40,40,39,39,36,36,38,38,35,35,32,32,34,34],"right_children":[2,4,6,8,12,10,14,16,28,18,30,26,22,20,24,32,60,34,62,58,54,36,56,52,50,48,46,44,40,38,42,64,118,66,120,116,112,68,114,110,108,106,104,102,98,70,100,-1,96,94,-1,92,-1,90,88,86,84,82,80,78,76,74,72,-1,-1,-1,-1,-1,-1,-1,-1,-1,-1,-1,-1,-1,-1,-1,-1,-1,-1,-1,-1,-1,-1,-1,-1,-1,-1,-1,-1,-1,-1,-1,-1,-1,-1,-1,-1,-1,-1,-1,-1,-1,-1,-1,-1,-1,-1,-1,-1,-1,-1,-1,-1,-1,-1,-1,-1,-1,-1],"split_conditions":[2.7425847E5,1.6442033E2,5.2E1,4.2365727E4,6.7998555E4,9.19E2,1.6442033E2,2E0,5.1254955E1,5.829678E5,5E0,3E0,5.7E1,5.3E1,1.357E3,3.07E2,5.00993E1,5.0951607E1,3.4E1,1.4821E4,3E0,1.0083362E1,3.8441E4,1.9936997E3,9.25168E0,1.046E3,2.3E1,4.8354065E1,1.2662745E1,4.81273E1,9.984391E0,3.8136E4,3.9586E4,1.787E4,4.4E1,8.1E1,3E0,1.584E3,4E0,1.88E2,5.3076466E1,6E0,2.26E2,1.1385698E5,2.57E2,1.4E1,3.560316E4,-3.1157964E-1,3.5E1,5.1330086E1,-2.9355147E-1,1.08E2,-2.883659E-1,2E0,4.3022E4,1.09E2,3.8843E4,1.1858561E1,5E0,6.965E3,7.571533E0,8.72E2,3.35E2,-3.0120435E-1,-2.6810518E-1,-2.2728366E-1,-1.3224322E-1,-1.4161228E-1,-2.8964204E-1,-2.6507565E-1,-1.1840809E-1,-2.2880448E-2,-1.5023318E-1,-2.297798E-1,-9.61932E-2,-2.3198701E-1,-2.9266044E-1,-3.937386E-2,-2.4107666E-1,9.745561E-1,-1.2307055E-1,3.8348317E-2,-2.5153378E-1,-2.6182294E-1,-2.943481E-1,-2.670951E-1,-3.0020973E-1,-3.1088787E-1,-1.0470427E-1,-2.5679338E-1,7.0424983E-3,-2.4412987E-1,-1.292906E-1,-2.9036358E-1,1.9515587E-1,-3.0111155E-1,-3.1118792E-1,-1.2362198E-2,-3.0308193E-1,-3.027071E-1,-2.9610592E-1,-2.5017348E-1,-1.4002607E-2,1.8778639E-3,-2.5407815E-1,-2.188828E-1,-8.86348E-2,-2.9151982E-1,9.0148054E-2,-8.4630825E-2,-2.1321656E-1,-1.5706827E-1,-2.915519E-1,-1.13458715E-1,-3.0311417E-2,-2.3927777E-1,-2.802495E-1,-1.7833532E-1,1.9517311E-1,-2.491213E-1,2.4911894E-1],"split_indices":[6,7,4,6,6,10,7,8,1,6,11,3,4,4,10,3,1,1,4,5,11,2,5,7,2,10,3,1,2,1,2,5,5,5,4,3,4,5,11,3,1,11,0,6,3,9,6,0,8,1,0,8,0,11,5,10,5,2,11,5,2,10,10,0,0,0,0,0,0,0,0,0,0,0,0,0,0,0,0,0,0,0,0,0,0,0,0,0,0,0,0,0,0,0,0,0,0,0,0,0,0,0,0,0,0,0,0,0,0,0,0,0,0,0,0,0,0,0,0,0,0],"split_type":[0,0,0,0,0,0,0,0,0,0,0,0,0,0,0,0,0,0,0,0,0,0,0,0,0,0,0,0,0,0,0,0,0,0,0,0,0,0,0,0,0,0,0,0,0,0,0,0,0,0,0,0,0,0,0,0,0,0,0,0,0,0,0,0,0,0,0,0,0,0,0,0,0,0,0,0,0,0,0,0,0,0,0,0,0,0,0,0,0,0,0,0,0,0,0,0,0,0,0,0,0,0,0,0,0,0,0,0,0,0,0,0,0,0,0,0,0,0,0,0,0],"sum_hessian":[3.0660147E5,3.0148822E5,5.113246E3,1.4329309E4,2.871589E5,3.9663162E3,1.1469299E3,1.1319704E4,3.0096047E3,1.9399725E3,2.0263438E3,2.3020572E5,5.6953188E4,7.254404E1,1.0743859E3,5.523109E3,5.796595E3,1.0124231E3,9.2754944E2,1.6167837E1,5.63762E1,3.83514E4,1.860179E4,1.00803546E3,6.63504E1,4.4057312E4,1.861484E5,1.4392544E3,1.5703503E3,1.508141E3,5.182027E2,5.504171E3,1.8938128E1,4.4882593E2,5.6359717E2,2.2260123E4,1.6091274E4,1.212023E2,1.3869387E3,1.027859E3,5.4249133E2,3.1932812E2,1.9887456E2,3.44411E2,1.0948434E3,1.9412426E3,1.8420716E5,3.0630938E4,1.3426376E4,2.1719612E1,4.463079E1,1.748557E1,9.9054987E2,2.738993E1,2.8986273E1,1.4627789E4,3.974E3,5.5870953E0,1.0580742E1,1.55827E3,4.238325E3,2.580846E2,6.6946484E2,4.9024385E3,6.0173236E2,1.9483513E2,2.539908E2,2.4067896E1,9.713441E1,1.841276E3,9.9966606E1,1.3955745E2,5.299074E2,2.2715433E2,3.093026E1,7.923861E2,3.4459392E3,1.616361E2,1.3966339E3,8.675171E0,1.905571E0,2.760833E0,2.8262622E0,1.6156285E3,2.3583713E3,4.1789426E2,1.4209895E4,2.6432493E1,2.553779E0,1.7055815E1,1.0334115E1,1.1985267E1,5.5003047E0,1.2091636E1,9.627976E0,5.307599E3,8.118777E3,1.00942285E3,8.542051E1,1.27265336E5,5.694182E4,2.894915E2,5.491951E1,4.6410975E0,1.9423346E2,1.4612585E2,1.7320227E2,5.309808E2,1.1510565E1,4.1025327E2,6.176058E2,2.8213803E2,1.5809137E4,1.0731438E3,3.1379492E2,7.0421387E3,1.5217984E4,1.454139E1,4.396737E0,5.619071E2,1.6900839E0],"tree_param":{"num_deleted":"0","num_feature":"13","num_nodes":"121","size_leaf_vector":"0"}},{"base_weights":[-9.4919175E-1,-9.592602E-1,-5.9149474E-1,-7.824764E-1,-9.6850795E-1,-4.3523178E-1,-8.061225E-1,-8.9130473E-1,-4.098147E-1,-5.384847E-1,-3.2551858E-1,-9.839328E-1,-9.045677E-1,-2.7800404E-2,-8.5209E-1,-9.6128225E-1,-8.2658654E-1,-6.379735E-1,-3.9906472E-1,3.9948106E-1,-5.899966E-1,-8.801387E-1,-9.544676E-1,-2.669231E-1,-8.6895055E-1,-1.0199381E0,-9.754887E-1,-2.74791E-1,-7.3360026E-1,-1.504159E-1,-4.0151033E-1,-9.7982246E-1,-8.172386E-1,-7.422575E-1,-4.9841082E-1,-8.447873E-1,-9.373414E-1,-3.1587887E-1,1.4794677E-1,-7.917496E-1,3.4619E-2,-9.029536E-2,-4.4349703E-1,6.2698536E-2,-4.147837E-1,-7.973352E-1,-9.774421E-1,-1.0257826E0,-1.00656E0,-8.785806E-1,-1.1923213E-1,2.2974815E0,-4.905962E-1,5.003817E-1,-7.955245E-1,-9.713595E-1,-8.933779E-1,-5.6713617E-1,1.0943602E0,-7.358262E-1,-9.6226996E-1,-5.138778E-1,-2.6785573E-1,-2.7477783E-1,-3.0214298E-1,-4.951549E-2,-2.2916867E-1,-4.1199E-2,-1.8418536E-1,-2.920298E-1,-2.0783013E-1,-2.0709644E-1,-1.1240231E-1,-2.3644936E-1,-3.055312E-1,-1.610288E-1,-1.4977291E-2,-2.4875765E-1,-1.6145463E-1,4.2254624E-1,-3.4354094E-2,1.9323548E-2,-3.2736015E-1,-2.4387345E-1,-2.8535694E-1,-2.4971817E-1,-2.926591E-1,-2.904142E-1,-1.4417177E-1,9.3270856E-1,-2.2790968E-1,-2.4233514E-1,-4.4993494E-2,1.6106945E0,-1.597593E-1,2.483067E-1,-2.1724059E-1,-2.2419608E-1,-2.740927E-1,-2.9394305E-1,-3.072159E-1,-2.9827958E-1,-3.08288E-1,-1.0436403E-1,-2.75008E-1,-2.9029733E-1,-2.9877585E-1,-2.500437E-2,3.598017E-1,-1.9716957E-1,-1.0746188E-1,-1.327824E-1,6.254259E-2,-4.805625E-2,1.1765529E0,-2.6829723E-1,-1.7435905E-1,-2.4065104E-1,-2.840026E-1,1.3161051E-1,-9.745255E-2,-2.4437648E-1,-2.7672753E-1,3.4059125E-1,-2.824215E-1,2.0974545E-1,-1.5680963E-1],"categories":[],"categories_nodes":[],"categories_segments":[],"categories_sizes":[],"default_left":[1,1,1,0,1,0,0,1,1,1,1,1,0,0,0,1,1,1,0,1,0,1,1,0,1,1,1,1,1,0,1,1,0,1,0,0,1,0,1,1,1,0,1,0,1,0,1,1,1,0,1,0,1,1,1,1,1,0,1,1,1,1,0,0,0,0,0,0,0,0,0,0,0,0,0,0,0,0,0,0,0,0,0,0,0,0,0,0,0,0,0,0,0,0,0,0,0,0,0,0,0,0,0,0,0,0,0,0,0,0,0,0,0,0,0,0,0,0,0,0,0,0,0,0,0,0,0],"id":9,"left_children":[1,3,5,7,11,9,13,15,27,17,29,25,21,19,23,31,59,33,61,57,53,35,55,51,49,47,45,43,39,37,41,63,123,65,125,121,117,67,119,115,113,111,109,107,103,69,105,101,99,97,95,93,91,89,87,85,83,81,79,77,73,71,75,-1,-1,-1,-1,-1,-1,-1,-1,-1,-1,-1,-1,-1,-1,-1,-1,-1,-1,-1,-1,-1,-1,-1,-1,-1,-1,-1,-1,-1,-1,-1,-1,-1,-1,-1,-1,-1,-1,-1,-1,-1,-1,-1,-1,-1,-1,-1,-1,-1,-1,-1,-1,-1,-1,-1,-1,-1,-1,-1,-1,-1,-1,-1,-1],"loss_changes":[8.40875E2,3.7075E2,2.1426123E2,4.5797705E2,2.1209375E2,4.1797607E1,9.6391235E1,3.881543E1,1.1155405E2,2.6200317E1,2.3876587E1,5.1890625E1,5.0335938E1,3.6583954E1,2.4872803E1,1.0405762E1,5.5335938E1,1.5804718E1,1.1867363E1,5.87679E1,1.5131809E1,5.6226562E1,1.3357422E1,4.283033E1,1.7748657E1,1.5507812E0,4.8265625E1,8.533168E1,3.360614E1,2.700292E1,1.6344345E1,5.558838E0,1.1854068E2,7.7925415E0,1.4278145E1,4.013086E1,1.2817383E1,1.8625778E1,2.7012596E1,1.457312E1,4.1407967E1,1.5914086E1,1.9900574E1,8.8121E1,4.2539413E1,2.7571716E1,2.4234375E1,3.1054688E-1,3.7197266E0,1.0552734E1,1.922517E1,5.50897E1,7.1928177E0,3.8654675E1,2.5615578E0,5.4404297E0,1.3176025E1,1.2271302E1,1.9416153E1,4.9952393E1,1.7003174E1,1.0153473E1,2.189009E1,0E0,0E0,0E0,0E0,0E0,0E0,0E0,0E0,0E0,0E0,0E0,0E0,0E0,0E0,0E0,0E0,0E0,0E0,0E0,0E0,0E0,0E0,0E0,0E0,0E0,0E0,0E0,0E0,0E0,0E0,0E0,0E0,0E0,0E0,0E0,0E0,0E0,0E0,0E0,0E0,0E0,0E0,0E0,0E0,0E0,0E0,0E0,0E0,0E0,0E0,0E0,0E0,0E0,0E0,0E0,0E0,0E0,0E0,0E0,0E0,0E0,0E0,0E0,0E0],"parents":[2147483647,0,0,1,1,2,2,3,3,5,5,4,4,6,6,7,7,9,9,13,13,12,12,14,14,11,11,8,8,10,10,15,15,17,17,21,21,29,29,28,28,30,30,27,27,26,26,25,25,24,24,23,23,20,20,22,22,19,19,16,16,18,18,31,31,33,33,37,37,45,45,61,61,60,60,62,62,59,59,58,58,57,57,56,56,55,55,54,54,53,53,52,52,51,51,50,50,49,49,48,48,47,47,44,44,46,46,43,43,42,42,41,41,40,40,39,39,36,36,38,38,35,35,32,32,34,34],"right_children":[2,4,6,8,12,10,14,16,28,18,30,26,22,20,24,32,60,34,62,58,54,36,56,52,50,48,46,44,40,38,42,64,124,66,126,122,118,68,120,116,114,112,110,108,104,70,106,102,100,98,96,94,92,90,88,86,84,82,80,78,74,72,76,-1,-1,-1,-1,-1,-1,-1,-1,-1,-1,-1,-1,-1,-1,-1,-1,-1,-1,-1,-1,-1,-1,-1,-1,-1,-1,-1,-1,-1,-1,-1,-1,-1,-1,-1,-1,-1,-1,-1,-1,-1,-1,-1,-1,-1,-1,-1,-1,-1,-1,-1,-1,-1,-1,-1,-1,-1,-1,-1,-1,-1,-1,-1,-1],"split_conditions":[2.1330338E5,1.6442033E2,3.5E1,4.2365727E4,6.7998555E4,9.61E2,1.6442033E2,2E0,5.210911E1,5.829678E5,2E0,3E0,5.7E1,5.3E1,6.366475E0,3.8136E4,1.1525951E1,2.122E4,1.3E1,5.2E1,8.403754E0,2.4594E4,3.8441E4,3.67E2,2E1,1.046E3,2.3E1,7.8E1,5.359589E1,2.6381E4,3.315E3,2E0,3.9292E4,2.1E1,1.6442033E2,5.1454445E1,6E0,9.865E3,3.6481E4,1.03506555E5,2.3961E4,5.094282E1,9.166E3,7.3E1,2.57E2,2.1E1,1.0439865E1,1.74E2,3.5E1,1.6E1,4.7549816E1,3E0,6.097257E0,2.7425847E5,5.829678E5,1.09E2,3.8843E4,4.855213E1,5E0,7E0,5.1254955E1,7.07E2,3.4E1,-2.7477783E-1,-3.0214298E-1,-4.951549E-2,-2.2916867E-1,-4.1199E-2,-1.8418536E-1,-2.920298E-1,-2.0783013E-1,-2.0709644E-1,-1.1240231E-1,-2.3644936E-1,-3.055312E-1,-1.610288E-1,-1.4977291E-2,-2.4875765E-1,-1.6145463E-1,4.2254624E-1,-3.4354094E-2,1.9323548E-2,-3.2736015E-1,-2.4387345E-1,-2.8535694E-1,-2.4971817E-1,-2.926591E-1,-2.904142E-1,-1.4417177E-1,9.3270856E-1,-2.2790968E-1,-2.4233514E-1,-4.4993494E-2,1.6106945E0,-1.597593E-1,2.483067E-1,-2.1724059E-1,-2.2419608E-1,-2.740927E-1,-2.9394305E-1,-3.072159E-1,-2.9827958E-1,-3.08288E-1,-1.0436403E-1,-2.75008E-1,-2.9029733E-1,-2.9877585E-1,-2.500437E-2,3.598017E-1,-1.9716957E-1,-1.0746188E-1,-1.327824E-1,6.254259E-2,-4.805625E-2,1.1765529E0,-2.6829723E-1,-1.7435905E-1,-2.4065104E-1,-2.840026E-1,1.3161051E-1,-9.745255E-2,-2.4437648E-1,-2.7672753E-1,3.4059125E-1,-2.824215E-1,2.0974545E-1,-1.5680963E-1],"split_indices":[6,7,4,6,6,10,7,8,1,6,11,3,4,4,2,5,2,5,9,4,2,5,5,10,12,10,3,3,1,5,5,11,5,3,7,1,9,5,5,6,5,1,5,3,3,3,2,10,8,9,1,11,2,6,6,10,5,1,11,9,1,10,4,0,0,0,0,0,0,0,0,0,0,0,0,0,0,0,0,0,0,0,0,0,0,0,0,0,0,0,0,0,0,0,0,0,0,0,0,0,0,0,0,0,0,0,0,0,0,0,0,0,0,0,0,0,0,0,0,0,0,0,0,0,0,0,0],"split_type":[0,0,0,0,0,0,0,0,0,0,0,0,0,0,0,0,0,0,0,0,0,0,0,0,0,0,0,0,0,0,0,0,0,0,0,0,0,0,0,0,0,0,0,0,0,0,0,0,0,0,0,0,0,0,0,0,0,0,0,0,0,0,0,0,0,0,0,0,0,0,0,0,0,0,0,0,0,0,0,0,0,0,0,0,0,0,0,0,0,0,0,0,0,0,0,0,0,0,0,0,0,0,0,0,0,0,0,0,0,0,0,0,0,0,0,0,0,0,0,0,0,0,0,0,0,0,0],"sum_hessian":[2.3363642E5,2.2723842E5,6.398005E3,1.130042E4,2.15938E5,3.704162E3,2.6938428E3,8.745177E3,2.5552434E3,1.9062498E3,1.7979124E3,1.7395794E5,4.1980082E4,1.5031491E2,2.5435278E3,4.1952007E3,4.549976E3,1.1103433E3,7.959065E2,8.556958E1,6.474533E1,2.8195355E4,1.3784726E4,7.170579E1,2.471822E3,3.302435E4,1.4093358E5,1.8045615E3,7.506819E2,5.450258E2,1.2528866E3,3.7116606E3,4.835401E2,6.330197E2,4.7732358E2,1.7435773E4,1.0759582E4,3.5055814E2,1.9446768E2,6.9782996E2,5.285195E1,1.4931079E2,1.1035758E3,5.292399E2,1.2753215E3,1.5329352E3,1.3940064E5,2.29309E4,1.0093451E4,2.4403047E3,3.1517376E1,5.0087724E0,6.6697014E1,1.0040945E1,5.4704388E1,1.078709E4,2.997636E3,3.5864216E1,4.9705364E1,2.7301604E3,1.8198157E3,4.2291904E2,3.7298746E2,1.1220349E3,2.5896257E3,2.3184631E1,6.098351E2,2.2014774E2,1.304104E2,5.680331E2,9.649021E2,1.847654E2,2.3815364E2,4.4754987E2,1.3722657E3,1.663116E2,2.0667586E2,1.8520623E3,8.780981E2,3.93223E1,1.0383064E1,1.6661997E1,1.9202219E1,1.259559E3,1.738077E3,3.2016702E2,1.0466923E4,3.400413E1,2.0700256E1,2.7925081E0,7.248437E0,3.3826157E1,3.2870857E1,1.9716845E0,3.037088E0,1.2141951E1,1.9375425E1,5.1913635E2,1.9211683E3,4.013336E3,6.080115E3,1.2973206E3,2.163358E4,1.1268127E3,1.4850883E2,9.1174516E4,4.8226125E4,4.6980197E2,5.943797E1,3.1285922E2,7.9071655E2,6.829517E1,8.101562E1,5.1242737E1,1.6092155E0,4.670505E2,2.3077945E2,7.006048E2,1.0058978E4,1.20459656E2,7.4008026E1,1.2561269E4,4.8745054E3,2.8423939E1,4.5511615E2,8.9359255E0,4.6838766E2],"tree_param":{"num_deleted":"0","num_feature":"13","num_nodes":"127","size_leaf_vector":"0"}},{"base_weights":[-9.15189E-1,-9.3080235E-1,-5.7384276E-1,-7.2234267E-1,-9.4237685E-1,-3.5386875E-1,-7.633849E-1,-8.4206253E-1,-3.4761557E-1,-2.91335E-1,-5.450355E-1,-9.6011025E-1,-8.6531144E-1,-2.4683516E-2,-8.079502E-1,-9.3036866E-1,-7.635756E-1,-4.359974E-1,-1.9626105E-1,2.1930145E-1,-5.050926E-1,-8.3023345E-1,-9.231747E-1,-6.215444E-1,-8.4431815E-1,-1.0078404E0,-9.4906425E-1,-2.4745448E-1,-8.049793E-1,-2.662837E-2,-5.8572906E-1,-9.346716E-1,1.6762227E-2,-5.451609E-1,-2.484379E-1,-7.9430646E-1,-9.0300727E-1,1.2698599E0,-2.7103192E-1,-3.6189026E-1,-9.368778E-1,-6.849495E-1,-4.1095242E-1,-6.316171E-1,-1.792943E-1,-7.296791E-1,-9.5160383E-1,-9.85156E-1,-1.0139905E0,-5.409814E-1,-8.5607374E-1,-6.6310847E-1,-3.8721126E-2,7.267418E-1,-5.7251954E-1,-4.6977517E-1,-9.273832E-1,4.0502346E-1,-8.237094E-1,-5.249094E-1,-8.409378E-1,-7.893417E-1,-1.5468723E-1,-1.9572568E-1,-2.837047E-1,-1.16107084E-1,-2.3471867E-1,-1.5011233E-1,7.299799E-1,4.7328267E-1,-2.2221112E-1,-7.048883E-2,-2.7719325E-1,2.3332012E-1,-5.5224467E-2,-2.8838012E-1,-1.988379E-1,-1.7681254E-1,3.286171E-1,2.0613708E-2,-2.6746553E-1,5.9694357E-2,5.817533E-1,-2.7024832E-1,-2.872589E-1,3.41064E-2,-2.3346557E-1,-2.7457863E-1,-4.221179E-2,6.6236204E-1,-9.388646E-2,-2.072583E-1,3.4031622E-2,-2.8877074E-1,-2.4973343E-1,-2.4926354E-1,9.647945E-3,-3.0583474E-1,-2.9820743E-1,-3.0063537E-1,-2.8487712E-1,-6.618785E-2,2.5653762E-1,-2.8903127E-1,-2.7758738E-1,-2.4728364E-1,-8.3705686E-2,-7.0482746E-2,-2.121574E-1,-1.2647808E-1,-2.2271237E-1,-1.7751327E-1,-2.9128727E-1,-2.4508606E-1,5.486346E-1,-2.858897E-1,-2.5063628E-1,6.392623E-2,-1.4528841E-1,-2.0039935E-1,-2.5609002E-1,-2.6668096E-1,1.4520235E-1,-4.773915E-2,-2.1091002E-1],"categories":[],"categories_nodes":[],"categories_segments":[],"categories_sizes":[],"default_left":[1,0,0,1,1,0,0,1,1,1,0,1,1,1,1,1,1,1,1,0,1,1,1,1,0,0,1,0,1,0,1,0,1,0,1,1,1,1,1,0,1,0,0,1,1,1,1,1,1,1,1,1,0,0,1,1,1,0,1,0,1,0,1,0,0,0,0,0,0,0,0,0,0,0,0,0,0,0,0,0,0,0,0,0,0,0,0,0,0,0,0,0,0,0,0,0,0,0,0,0,0,0,0,0,0,0,0,0,0,0,0,0,0,0,0,0,0,0,0,0,0,0,0,0,0],"id":10,"left_children":[1,3,5,7,11,9,13,15,27,17,29,25,21,19,23,31,59,33,61,57,53,35,55,51,49,47,45,43,39,37,41,63,121,65,123,119,115,67,117,113,111,109,107,105,101,69,103,99,97,95,93,91,89,-1,87,85,83,81,79,77,75,71,73,-1,-1,-1,-1,-1,-1,-1,-1,-1,-1,-1,-1,-1,-1,-1,-1,-1,-1,-1,-1,-1,-1,-1,-1,-1,-1,-1,-1,-1,-1,-1,-1,-1,-1,-1,-1,-1,-1,-1,-1,-1,-1,-1,-1,-1,-1,-1,-1,-1,-1,-1,-1,-1,-1,-1,-1,-1,-1,-1,-1,-1,-1],"loss_changes":[9.51875E2,4.11625E2,3.2573633E2,4.0316504E2,2.2040625E2,4.3125854E1,1.3821753E2,4.6523438E1,9.963132E1,3.746852E1,1.8787903E1,6.8421875E1,6.0720703E1,2.8235771E1,2.6322266E1,1.3066406E1,6.6281006E1,2.2018723E1,4.0547947E1,3.129395E1,1.7399813E1,4.8620117E1,2.1363281E1,1.5727341E1,1.1343262E1,2.4492188E0,5.8859375E1,4.6735313E1,2.2515656E1,2.123282E1,1.4049683E1,9.290283E0,6.974834E0,2.5324783E1,1.6124077E1,9.416162E1,2.0228027E1,2.3114145E1,5.914898E0,9.2546684E1,2.9629822E0,7.636551E0,1.5568031E1,1.8058128E1,6.521629E1,3.239026E1,3.2007812E1,2.25E0,1.1035156E0,2.1001892E1,7.215088E0,1.3158691E1,2.8014969E1,0E0,1.1726528E1,1.9361973E1,8.198242E0,4.2711494E1,1.5438347E0,9.3324814E1,5.782776E1,7.8294525E0,4.242397E1,0E0,0E0,0E0,0E0,0E0,0E0,0E0,0E0,0E0,0E0,0E0,0E0,0E0,0E0,0E0,0E0,0E0,0E0,0E0,0E0,0E0,0E0,0E0,0E0,0E0,0E0,0E0,0E0,0E0,0E0,0E0,0E0,0E0,0E0,0E0,0E0,0E0,0E0,0E0,0E0,0E0,0E0,0E0,0E0,0E0,0E0,0E0,0E0,0E0,0E0,0E0,0E0,0E0,0E0,0E0,0E0,0E0,0E0,0E0,0E0,0E0,0E0],"parents":[2147483647,0,0,1,1,2,2,3,3,5,5,4,4,6,6,7,7,9,9,13,13,12,12,14,14,11,11,8,8,10,10,15,15,17,17,21,21,29,29,28,28,30,30,27,27,26,26,25,25,24,24,23,23,20,20,22,22,19,19,16,16,18,18,31,31,33,33,37,37,45,45,61,61,62,62,60,60,59,59,58,58,57,57,56,56,55,55,54,54,52,52,51,51,50,50,49,49,48,48,47,47,44,44,46,46,43,43,42,42,41,41,40,40,39,39,36,36,38,38,35,35,32,32,34,34],"right_children":[2,4,6,8,12,10,14,16,28,18,30,26,22,20,24,32,60,34,62,58,54,36,56,52,50,48,46,44,40,38,42,64,122,66,124,120,116,68,118,114,112,110,108,106,102,70,104,100,98,96,94,92,90,-1,88,86,84,82,80,78,76,72,74,-1,-1,-1,-1,-1,-1,-1,-1,-1,-1,-1,-1,-1,-1,-1,-1,-1,-1,-1,-1,-1,-1,-1,-1,-1,-1,-1,-1,-1,-1,-1,-1,-1,-1,-1,-1,-1,-1,-1,-1,-1,-1,-1,-1,-1,-1,-1,-1,-1,-1,-1,-1,-1,-1,-1,-1,-1,-1,-1,-1,-1,-1],"split_conditions":[1.7761856E5,1.6442033E2,3.5E1,4.2365727E4,6.7998555E4,5E0,1.6442033E2,2E0,1.2872975E1,8.54E2,2.2634204E3,3E0,1.0358809E1,5.3E1,1.3E1,3.07E2,1.5977E4,5.829678E5,4.7666157E1,2.55E2,7.9E1,5.7E1,3E0,1.338E3,6.366475E0,1.0029597E1,2.3E1,4.6E1,1.6072E4,4.890337E1,1.066E3,4.885121E1,3.9473E4,5.1318043E1,3.3823E4,8.1E1,1.53E2,6E0,8.111308E0,1.4988E4,3.85E2,6.171E3,9.984391E0,8.571718E0,2.46E2,3E0,3.560316E4,1.038E3,1.141E3,1.1685E4,3.5E1,2.4E1,2.676E3,7.267418E-1,9.32E2,2E0,2.7387E4,1.84E2,1.3E1,1.4988E4,9.6E1,1.584E3,3E0,-1.9572568E-1,-2.837047E-1,-1.16107084E-1,-2.3471867E-1,-1.5011233E-1,7.299799E-1,4.7328267E-1,-2.2221112E-1,-7.048883E-2,-2.7719325E-1,2.3332012E-1,-5.5224467E-2,-2.8838012E-1,-1.988379E-1,-1.7681254E-1,3.286171E-1,2.0613708E-2,-2.6746553E-1,5.9694357E-2,5.817533E-1,-2.7024832E-1,-2.872589E-1,3.41064E-2,-2.3346557E-1,-2.7457863E-1,-4.221179E-2,6.6236204E-1,-9.388646E-2,-2.072583E-1,3.4031622E-2,-2.8877074E-1,-2.4973343E-1,-2.4926354E-1,9.647945E-3,-3.0583474E-1,-2.9820743E-1,-3.0063537E-1,-2.8487712E-1,-6.618785E-2,2.5653762E-1,-2.8903127E-1,-2.7758738E-1,-2.4728364E-1,-8.3705686E-2,-7.0482746E-2,-2.121574E-1,-1.2647808E-1,-2.2271237E-1,-1.7751327E-1,-2.9128727E-1,-2.4508606E-1,5.486346E-1,-2.858897E-1,-2.5063628E-1,6.392623E-2,-1.4528841E-1,-2.0039935E-1,-2.5609002E-1,-2.6668096E-1,1.4520235E-1,-4.773915E-2,-2.1091002E-1],"split_indices":[6,7,4,6,6,11,7,8,2,10,7,3,2,4,9,3,5,6,1,3,10,4,4,10,2,2,3,4,5,1,10,1,5,1,5,3,3,11,2,5,10,5,2,2,3,4,6,10,10,5,3,12,5,0,10,11,5,3,9,5,3,5,4,0,0,0,0,0,0,0,0,0,0,0,0,0,0,0,0,0,0,0,0,0,0,0,0,0,0,0,0,0,0,0,0,0,0,0,0,0,0,0,0,0,0,0,0,0,0,0,0,0,0,0,0,0,0,0,0,0,0,0,0,0,0],"split_type":[0,0,0,0,0,0,0,0,0,0,0,0,0,0,0,0,0,0,0,0,0,0,0,0,0,0,0,0,0,0,0,0,0,0,0,0,0,0,0,0,0,0,0,0,0,0,0,0,0,0,0,0,0,0,0,0,0,0,0,0,0,0,0,0,0,0,0,0,0,0,0,0,0,0,0,0,0,0,0,0,0,0,0,0,0,0,0,0,0,0,0,0,0,0,0,0,0,0,0,0,0,0,0,0,0,0,0,0,0,0,0,0,0,0,0,0,0,0,0,0,0,0,0,0,0],"sum_hessian":[1.7870022E5,1.7088227E5,7.817956E3,8.992244E3,1.6189002E5,3.6198208E3,4.1981353E3,6.8140176E3,2.1782268E3,2.7294856E3,8.9033514E2,1.3159689E5,3.0293133E4,2.3894861E2,3.9591865E3,3.2013284E3,3.6126892E3,1.0810294E3,1.6484562E3,1.5882819E2,8.012042E1,1.886941E4,1.1423722E4,6.492928E2,3.3098938E3,2.47145E4,1.0688239E5,1.7881656E3,3.9006116E2,6.492259E1,8.2541254E2,3.1868633E3,1.4465109E1,6.821169E2,3.9891254E2,1.2640805E4,6.2286055E3,9.63199E0,5.52906E1,9.033633E1,2.9972482E2,5.246504E2,3.0076215E2,2.6821158E2,1.5199541E3,1.2264131E3,1.0565598E5,5.305817E3,1.9408684E4,1.25240906E2,3.1846528E3,6.0594226E2,4.3350525E1,1.0174407E0,7.910298E1,1.0609561E2,1.1317626E4,1.3534065E2,2.348753E1,8.862745E2,2.7264148E3,1.06805984E2,1.5416501E3,1.2191424E2,3.064949E3,4.1086887E2,2.7124802E2,4.045809E0,5.5861816E0,5.1564164E0,1.2212567E3,2.1406673E1,8.5399315E1,4.633682E1,1.4953134E3,1.6246425E3,1.1017723E3,8.5297406E2,3.330043E1,1.6584799E0,2.182905E1,1.2031203E2,1.5028625E1,6.033606E3,5.28402E3,3.6908848E1,6.918677E1,4.3475605E1,3.5627377E1,3.948915E0,3.940161E1,5.851406E2,2.080166E1,5.710784E2,2.6135745E3,8.287349E1,4.236742E1,1.5202394E4,4.20629E3,3.5740916E3,1.7317255E3,1.4623119E3,5.7642258E1,7.285494E4,3.280104E4,1.7257689E2,9.56347E1,1.8979109E2,1.1097105E2,9.541418E1,4.292362E2,2.85839E1,2.7114093E2,7.531781E1,1.5018515E1,3.573065E3,2.6555405E3,1.6908379E1,3.838222E1,4.0437737E3,8.597031E3,4.615677E0,9.849432E0,3.3454053E2,6.437201E1],"tree_param":{"num_deleted":"0","num_feature":"13","num_nodes":"125","size_leaf_vector":"0"}},{"base_weights":[-8.763867E-1,-9.137644E-1,-6.6320944E-1,-7.100563E-1,-9.2597586E-1,-6.530939E-2,-7.024879E-1,-7.8627807E-1,-3.8273224E-1,-4.2838708E-4,-8.2374763E-1,-8.882203E-1,-9.5603305E-1,-3.3640844E-1,-7.6770955E-1,-8.955039E-1,-6.9401157E-1,1.7724065E-1,-2.2728767E-1,-4.6944928E-1,-2.4855024E-1,-9.746152E-1,-8.933104E-1,-7.133757E-1,-8.3236235E-1,-9.177479E-1,-8.365442E-1,-2.6659477E-1,-7.2971994E-1,-9.692438E-1,-2.5184527E-1,-9.268216E-1,-6.715675E-1,3.528992E-1,-3.0184606E-1,-9.614964E-1,-1.0051849E0,-1.0106702E-2,-3.0918396E-1,-8.1272244E-1,-1.8619277E-1,4.102098E-1,-5.458333E-1,1.7624222E-1,-4.4425318E-1,-7.991479E-1,-9.096956E-1,-9.2747676E-1,-6.423289E-1,-2.6676804E-1,-8.460142E-1,-8.020589E-1,-6.094435E-1,-1.539033E-1,-4.235379E-1,-8.271224E-1,-9.5156336E-1,-4.1180946E-2,-5.245456E-1,-5.6894106E-1,-9.005607E-1,-3.8966092E-1,8.661092E-2,-2.4590401E-1,-2.9217258E-1,6.0354147E-2,3.1071594E-1,-2.0481907E-1,1.00738615E-1,-2.7971083E-1,-2.0848224E-1,2.2555166E-1,-1.0366895E-1,-1.4522618E-1,8.326162E-2,-1.9428316E-1,-2.9812402E-1,-2.2391774E-1,-1.1462386E-1,-1.18507534E-1,-2.1895249E-1,-1.3391161E-1,7.87419E-2,-2.7893826E-1,-2.9987818E-1,-1.9350679E-1,-2.6014805E-1,1.0042229E-1,-1.3529724E-1,-5.2453272E-2,2.1212922E-1,-1.2768975E-1,-2.223835E-1,-2.653498E-1,-2.2004057E-1,-2.571052E-1,-8.7167166E-2,7.749699E-2,-1.7494169E-1,-9.7613044E-2,-2.7368307E-1,-2.1990131E-1,2.345815E-1,-2.117094E-1,-2.5163957E-1,-2.1251637E-2,-1.7673405E-1,-5.466282E-2,1.897301E-1,-2.3226415E-1,2.048945E-1,-2.2540392E-1,1.3515584E-1,-3.0369267E-1,-2.9332465E-1,-2.987208E-1,-2.0507203E-1,-2.9307574E-1,-2.8154746E-1,1.988711E-1,-2.7208346E-1,5.646241E-1,-1.2139748E-1],"categories":[],"categories_nodes":[],"categories_segments":[],"categories_sizes":[],"default_left":[1,0,0,1,1,1,0,1,1,1,1,1,1,1,1,0,1,1,1,1,1,1,1,0,1,1,1,1,1,0,0,0,1,1,1,0,0,1,0,1,0,0,0,0,1,1,0,1,1,1,1,1,1,0,0,1,1,0,1,1,1,1,1,0,0,0,0,0,0,0,0,0,0,0,0,0,0,0,0,0,0,0,0,0,0,0,0,0,0,0,0,0,0,0,0,0,0,0,0,0,0,0,0,0,0,0,0,0,0,0,0,0,0,0,0,0,0,0,0,0,0,0,0],"id":11,"left_children":[1,3,5,7,11,9,13,15,27,17,29,25,21,19,23,31,59,33,61,57,53,35,55,51,49,47,45,43,39,37,41,63,119,65,121,117,113,67,-1,115,111,-1,109,107,105,103,99,69,101,97,95,93,91,89,87,85,83,81,79,77,75,73,71,-1,-1,-1,-1,-1,-1,-1,-1,-1,-1,-1,-1,-1,-1,-1,-1,-1,-1,-1,-1,-1,-1,-1,-1,-1,-1,-1,-1,-1,-1,-1,-1,-1,-1,-1,-1,-1,-1,-1,-1,-1,-1,-1,-1,-1,-1,-1,-1,-1,-1,-1,-1,-1,-1,-1,-1,-1,-1,-1,-1],"loss_changes":[1.0953516E3,2.904453E2,4.8190918E2,1.649253E2,1.244375E2,6.230613E1,4.595293E2,5.3503662E1,5.029132E1,4.7093372E1,8.05854E0,7.391797E1,7.075391E1,3.3942413E1,5.6820312E1,1.6601074E1,7.481238E1,5.5248634E1,2.6188915E1,2.729779E1,2.9035057E1,1.8042969E1,5.341211E1,8.1430664E1,5.735547E1,8.283984E1,4.799414E1,7.4048546E1,1.3995972E1,4.6509705E0,1.1022613E1,1.0058105E1,9.6386566E1,4.9508617E1,4.0353745E1,1.0859375E1,1.7880859E0,1.5722344E0,0E0,5.7423706E0,1.5754545E1,0E0,5.8566704E0,4.4252533E1,3.6270844E1,4.3106445E1,8.779297E0,3.356836E1,1.3819952E2,2.959066E1,4.4251465E1,2.6451172E1,9.894739E1,2.0711544E1,1.297805E1,4.7473145E1,6.8813477E0,1.6488178E1,2.6986206E1,6.0025024E1,2.5237427E1,2.1453533E1,5.0792053E1,0E0,0E0,0E0,0E0,0E0,0E0,0E0,0E0,0E0,0E0,0E0,0E0,0E0,0E0,0E0,0E0,0E0,0E0,0E0,0E0,0E0,0E0,0E0,0E0,0E0,0E0,0E0,0E0,0E0,0E0,0E0,0E0,0E0,0E0,0E0,0E0,0E0,0E0,0E0,0E0,0E0,0E0,0E0,0E0,0E0,0E0,0E0,0E0,0E0,0E0,0E0,0E0,0E0,0E0,0E0,0E0,0E0,0E0,0E0,0E0],"parents":[2147483647,0,0,1,1,2,2,3,3,5,5,4,4,6,6,7,7,9,9,13,13,12,12,14,14,11,11,8,8,10,10,15,15,17,17,21,21,29,29,28,28,30,30,27,27,26,26,25,25,24,24,23,23,20,20,22,22,19,19,16,16,18,18,31,31,33,33,37,37,47,47,62,62,61,61,60,60,59,59,58,58,57,57,56,56,55,55,54,54,53,53,52,52,51,51,50,50,49,49,46,46,48,48,45,45,44,44,43,43,42,42,40,40,36,36,39,39,35,35,32,32,34,34],"right_children":[2,4,6,8,12,10,14,16,28,18,30,26,22,20,24,32,60,34,62,58,54,36,56,52,50,48,46,44,40,38,42,64,120,66,122,118,114,68,-1,116,112,-1,110,108,106,104,100,70,102,98,96,94,92,90,88,86,84,82,80,78,76,74,72,-1,-1,-1,-1,-1,-1,-1,-1,-1,-1,-1,-1,-1,-1,-1,-1,-1,-1,-1,-1,-1,-1,-1,-1,-1,-1,-1,-1,-1,-1,-1,-1,-1,-1,-1,-1,-1,-1,-1,-1,-1,-1,-1,-1,-1,-1,-1,-1,-1,-1,-1,-1,-1,-1,-1,-1,-1,-1,-1,-1],"split_conditions":[9.181167E4,2.257232E2,1.6442033E2,4.2365727E4,5.8E1,1.4064945E1,2.2E1,2E0,5.1828033E1,5.1454445E1,3.5E1,3.869951E4,1.55E2,8.5E2,9.634809E0,3.8136E4,1.1525951E1,5.3E1,1.5056E4,3.35E2,1.0439865E1,1.306636E1,3E0,5.0473495E1,3E0,2.3077189E5,1.0439865E1,2E0,5.356901E1,4.7410126E1,1.1660674E5,2E0,4.0282E4,2.2963E4,4.07E2,3.596751E4,1.149E3,2E0,-3.0918396E-1,2.2E1,1E0,4.102098E-1,6E0,5.0951607E1,7.8E1,8.1E1,3E0,1.4E1,8E0,2E0,5.829678E5,8.375429E0,5.1318043E1,5.356167E1,3E0,7.140824E0,3.9106E4,5.829678E5,4E0,5E0,5.1254955E1,5.3521893E1,5.2478134E1,-2.4590401E-1,-2.9217258E-1,6.0354147E-2,3.1071594E-1,-2.0481907E-1,1.00738615E-1,-2.7971083E-1,-2.0848224E-1,2.2555166E-1,-1.0366895E-1,-1.4522618E-1,8.326162E-2,-1.9428316E-1,-2.9812402E-1,-2.2391774E-1,-1.1462386E-1,-1.18507534E-1,-2.1895249E-1,-1.3391161E-1,7.87419E-2,-2.7893826E-1,-2.9987818E-1,-1.9350679E-1,-2.6014805E-1,1.0042229E-1,-1.3529724E-1,-5.2453272E-2,2.1212922E-1,-1.2768975E-1,-2.223835E-1,-2.653498E-1,-2.2004057E-1,-2.571052E-1,-8.7167166E-2,7.749699E-2,-1.7494169E-1,-9.7613044E-2,-2.7368307E-1,-2.1990131E-1,2.345815E-1,-2.117094E-1,-2.5163957E-1,-2.1251637E-2,-1.7673405E-1,-5.466282E-2,1.897301E-1,-2.3226415E-1,2.048945E-1,-2.2540392E-1,1.3515584E-1,-3.0369267E-1,-2.9332465E-1,-2.987208E-1,-2.0507203E-1,-2.9307574E-1,-2.8154746E-1,1.988711E-1,-2.7208346E-1,5.646241E-1,-1.2139748E-1],"split_indices":[6,7,7,6,4,2,3,8,1,1,8,6,3,10,2,5,2,4,5,10,2,2,11,1,4,7,2,11,1,1,6,11,5,5,10,6,10,11,0,3,12,0,11,1,3,3,4,9,9,11,6,2,1,1,4,2,5,6,11,9,1,1,1,0,0,0,0,0,0,0,0,0,0,0,0,0,0,0,0,0,0,0,0,0,0,0,0,0,0,0,0,0,0,0,0,0,0,0,0,0,0,0,0,0,0,0,0,0,0,0,0,0,0,0,0,0,0,0,0,0,0,0,0],"split_type":[0,0,0,0,0,0,0,0,0,0,0,0,0,0,0,0,0,0,0,0,0,0,0,0,0,0,0,0,0,0,0,0,0,0,0,0,0,0,0,0,0,0,0,0,0,0,0,0,0,0,0,0,0,0,0,0,0,0,0,0,0,0,0,0,0,0,0,0,0,0,0,0,0,0,0,0,0,0,0,0,0,0,0,0,0,0,0,0,0,0,0,0,0,0,0,0,0,0,0,0,0,0,0,0,0,0,0,0,0,0,0,0,0,0,0,0,0,0,0,0,0,0,0],"sum_hessian":[1.3754145E5,1.17020266E5,2.0521184E4,6.621491E3,1.1039877E5,1.26518E3,1.9256004E4,5.3696865E3,1.2518044E3,1.1664003E3,9.877977E1,4.8946496E4,6.1452277E4,2.912841E3,1.6343164E4,2.4548774E3,2.914809E3,6.542393E2,5.1216095E2,1.1567972E3,1.7560437E3,4.739618E4,1.4056099E4,8.88678E3,7.4563833E3,3.1137707E4,1.780879E4,9.3921545E2,3.1258896E2,7.819229E1,2.0587479E1,2.1509297E3,3.0394766E2,4.7890924E2,1.7533008E2,3.3186797E4,1.4209385E4,4.7722254E0,7.342007E1,2.707476E2,4.184137E1,2.6024961E0,1.7984982E1,2.689157E2,6.7029974E2,1.1792285E4,6.0165034E3,3.0073043E4,1.0646643E3,1.7621754E2,7.2801655E3,4.7915396E3,4.0952407E3,1.1408585E3,6.1518524E2,6.5870186E3,7.4690806E3,1.3205675E2,1.0247405E3,1.8178258E3,1.0969833E3,3.373931E2,1.7476785E2,6.623131E2,1.4886166E3,3.929031E2,8.6006134E1,1.2899966E0,3.4822288E0,2.9450385E4,6.2265906E2,6.853502E1,1.06232834E2,2.9580356E2,4.1589546E1,2.974674E2,7.9951587E2,9.308542E2,8.869716E2,6.3012256E2,3.9461792E2,5.6368927E1,7.568782E1,5.153633E3,2.3154478E3,1.1903181E3,5.3967E3,2.1103016E1,5.940822E2,1.1145479E3,2.631071E1,1.7122125E3,2.383028E3,2.1706667E3,2.6208728E3,7.1382207E3,1.4194505E2,6.632282E1,1.0989472E2,2.701947E1,5.989484E3,1.0013962E3,6.326815E1,3.5185269E3,8.273759E3,1.8776822E2,4.8253152E2,1.5092625E2,1.17989456E2,1.5478236E1,2.5067458E0,2.2070915E1,1.9770454E1,1.1251866E4,2.957518E3,1.09238625E2,1.6150896E2,1.9842617E4,1.334418E4,4.5300465E1,2.586472E2,7.104794E0,1.6822528E2],"tree_param":{"num_deleted":"0","num_feature":"13","num_nodes":"123","size_leaf_vector":"0"}},{"base_weights":[-8.311988E-1,-8.792308E-1,-5.934703E-1,-6.435105E-1,-8.9435834E-1,-2.4404897E-1,-6.6172403E-1,-7.2324723E-1,-3.2402188E-1,-1.8281789E-1,-4.4713885E-1,-8.47178E-1,-9.323E-1,-7.0572585E-2,-7.0602924E-1,-8.557663E-1,-6.1796886E-1,-3.3942476E-1,-8.504866E-2,-1.6925536E-2,-8.0749196E-1,-9.5627266E-1,-8.5301065E-1,-6.4419365E-1,-7.827798E-1,-8.82726E-1,-7.83678E-1,-1.5177831E-1,-5.6181574E-1,-3.053231E-1,-5.988985E-1,-8.941494E-1,-6.029786E-1,-1.7070131E-2,-4.540657E-1,-9.3900514E-1,-9.9678415E-1,-3.190951E-1,5.242704E-1,-4.1319343E-1,-9.0872425E-1,6.527008E-1,-6.415502E-1,-3.0158073E-1,7.683911E-1,-7.392207E-1,-8.7317806E-1,-8.950241E-1,-5.6449074E-1,-2.1775757E-1,-7.9818535E-1,-7.5178254E-1,-5.407616E-1,7.134924E-1,-8.985245E-1,-7.7212894E-1,-9.2691946E-1,1.8927421E-2,-9.448516E-1,-3.345304E-1,-7.39903E-1,-4.0035832E-1,1.1378953E-2,-2.2867824E-1,-2.8644264E-1,-2.7193675E-2,3.3600387E-1,-1.5644474E-1,-6.1686017E-2,-2.5159138E-1,-2.841599E-1,8.2095034E-2,-1.4980467E-1,2.7208436E-1,-1.014138E-2,-2.301143E-1,9.3941934E-2,-1.9528584E-1,4.651207E-2,3.3258173E-1,-3.1572407E-1,-9.338752E-3,2.3462433E-1,-2.697588E-1,-2.9657954E-1,-2.7658215E-1,-2.0903963E-1,-6.962207E-2,-2.9803765E-1,6.5738356E-1,-2.1134111E-1,-1.9095497E-1,-9.003724E-2,-2.508094E-1,-2.0046194E-1,-2.4325198E-1,-6.725E-2,-2.6287317E-1,1.0213854E-2,-2.0122401E-1,1.1047126E-1,-2.4294741E-1,-1.9511552E-1,-2.7037412E-1,-1.8576851E-1,-1.4324781E-1,3.4562942E-1,-2.1013652E-1,-4.385959E-2,-2.5287876E-1,-1.6178164E-1,6.0574687E-1,8.2113124E-2,7.891031E-2,-2.7666628E-1,-3.0190656E-1,-2.880909E-1,-1.4800736E-1,2.8477517E-1,-2.8769052E-1,-2.7271703E-1,1.9237126E-1,-2.4528635E-1,2.5303194E-1,-1.4940926E-1],"categories":[],"categories_nodes":[],"categories_segments":[],"categories_sizes":[],"default_left":[1,0,0,1,0,1,1,1,1,1,1,1,1,0,1,0,1,0,1,1,1,0,1,1,1,0,1,1,1,1,1,1,1,1,1,1,1,0,0,0,1,1,1,0,0,1,1,1,0,0,0,1,0,1,1,1,1,1,0,1,0,1,1,0,0,0,0,0,0,0,0,0,0,0,0,0,0,0,0,0,0,0,0,0,0,0,0,0,0,0,0,0,0,0,0,0,0,0,0,0,0,0,0,0,0,0,0,0,0,0,0,0,0,0,0,0,0,0,0,0,0,0,0,0,0],"id":12,"left_children":[1,3,5,7,11,9,13,15,27,17,29,25,21,19,23,31,59,33,61,57,53,35,55,51,49,47,45,43,39,37,41,63,121,65,123,119,115,67,-1,117,113,111,109,107,105,101,69,103,99,97,95,93,91,89,87,85,83,81,79,77,75,71,73,-1,-1,-1,-1,-1,-1,-1,-1,-1,-1,-1,-1,-1,-1,-1,-1,-1,-1,-1,-1,-1,-1,-1,-1,-1,-1,-1,-1,-1,-1,-1,-1,-1,-1,-1,-1,-1,-1,-1,-1,-1,-1,-1,-1,-1,-1,-1,-1,-1,-1,-1,-1,-1,-1,-1,-1,-1,-1,-1,-1,-1,-1],"loss_changes":[1.2191172E3,3.1627344E2,4.2808887E2,1.3636475E2,1.4867188E2,3.6427628E1,3.9338086E2,5.932715E1,4.3853935E1,3.453634E1,1.4439697E1,8.334375E1,8.712891E1,4.1434975E1,6.581592E1,1.7865356E1,8.250824E1,3.2044502E1,4.2302216E1,3.256542E1,1.0488979E1,2.3908203E1,6.3550293E1,8.577759E1,5.4059326E1,9.287305E1,5.2551758E1,8.617813E1,2.28396E1,1.0545143E1,1.7883842E1,1.2430298E1,6.812201E1,1.922432E1,3.6914993E1,1.4027344E1,2.734375E0,7.9710655E0,0E0,3.5096924E1,2.3651276E0,5.2875967E0,6.072296E0,3.317541E1,4.2416447E1,5.5541016E1,1.0535889E1,3.886328E1,8.849509E1,2.7677214E1,4.3871826E1,2.61521E1,9.08761E1,1.1128051E1,4.0433235E0,5.735498E1,8.708008E0,3.60441E1,9.209499E0,1.1195877E2,4.8074097E1,2.1876408E1,4.3179604E1,0E0,0E0,0E0,0E0,0E0,0E0,0E0,0E0,0E0,0E0,0E0,0E0,0E0,0E0,0E0,0E0,0E0,0E0,0E0,0E0,0E0,0E0,0E0,0E0,0E0,0E0,0E0,0E0,0E0,0E0,0E0,0E0,0E0,0E0,0E0,0E0,0E0,0E0,0E0,0E0,0E0,0E0,0E0,0E0,0E0,0E0,0E0,0E0,0E0,0E0,0E0,0E0,0E0,0E0,0E0,0E0,0E0,0E0,0E0,0E0,0E0,0E0],"parents":[2147483647,0,0,1,1,2,2,3,3,5,5,4,4,6,6,7,7,9,9,13,13,12,12,14,14,11,11,8,8,10,10,15,15,17,17,21,21,29,29,28,28,30,30,27,27,26,26,25,25,24,24,23,23,20,20,22,22,19,19,16,16,18,18,31,31,33,33,37,37,46,46,61,61,62,62,60,60,59,59,58,58,57,57,56,56,55,55,54,54,53,53,52,52,51,51,50,50,49,49,48,48,45,45,47,47,44,44,43,43,42,42,41,41,40,40,36,36,39,39,35,35,32,32,34,34],"right_children":[2,4,6,8,12,10,14,16,28,18,30,26,22,20,24,32,60,34,62,58,54,36,56,52,50,48,46,44,40,38,42,64,122,66,124,120,116,68,-1,118,114,112,110,108,106,102,70,104,100,98,96,94,92,90,88,86,84,82,80,78,76,72,74,-1,-1,-1,-1,-1,-1,-1,-1,-1,-1,-1,-1,-1,-1,-1,-1,-1,-1,-1,-1,-1,-1,-1,-1,-1,-1,-1,-1,-1,-1,-1,-1,-1,-1,-1,-1,-1,-1,-1,-1,-1,-1,-1,-1,-1,-1,-1,-1,-1,-1,-1,-1,-1,-1,-1,-1,-1,-1,-1,-1,-1,-1],"split_conditions":[8.8543555E4,2.257232E2,2.2E1,4.2365727E4,5.8E1,5E0,1.6442033E2,2E0,5.129174E1,9.166E3,9.513203E0,3.869951E4,1.55E2,1.4230023E1,9.634809E0,3.8136E4,5.00993E1,3.315E3,6.51E2,2.78E2,5.888E3,1.306636E1,3E0,5.0304947E1,3E0,2.3077189E5,1.0439865E1,5.099716E1,1.2872975E1,5.3836E4,3.29E2,2E0,3.9292E4,5.3076466E1,3.09E2,3.596751E4,1.149E3,8.24E2,5.242704E-1,1.2013166E1,4.98E2,4.8386074E1,1.06E2,4.8421944E1,1.3108E4,8.653583E0,1.85E2,1.4E1,7E0,4.819382E1,5.829678E5,1.3E2,8.653583E0,5.2E1,4.8317425E1,1E0,3.9106E4,2.4E2,5.32E2,4.866298E1,5.361003E1,4.8790024E1,9.408E3,-2.2867824E-1,-2.8644264E-1,-2.7193675E-2,3.3600387E-1,-1.5644474E-1,-6.1686017E-2,-2.5159138E-1,-2.841599E-1,8.2095034E-2,-1.4980467E-1,2.7208436E-1,-1.014138E-2,-2.301143E-1,9.3941934E-2,-1.9528584E-1,4.651207E-2,3.3258173E-1,-3.1572407E-1,-9.338752E-3,2.3462433E-1,-2.697588E-1,-2.9657954E-1,-2.7658215E-1,-2.0903963E-1,-6.962207E-2,-2.9803765E-1,6.5738356E-1,-2.1134111E-1,-1.9095497E-1,-9.003724E-2,-2.508094E-1,-2.0046194E-1,-2.4325198E-1,-6.725E-2,-2.6287317E-1,1.0213854E-2,-2.0122401E-1,1.1047126E-1,-2.4294741E-1,-1.9511552E-1,-2.7037412E-1,-1.8576851E-1,-1.4324781E-1,3.4562942E-1,-2.1013652E-1,-4.385959E-2,-2.5287876E-1,-1.6178164E-1,6.0574687E-1,8.2113124E-2,7.891031E-2,-2.7666628E-1,-3.0190656E-1,-2.880909E-1,-1.4800736E-1,2.8477517E-1,-2.8769052E-1,-2.7271703E-1,1.9237126E-1,-2.4528635E-1,2.5303194E-1,-1.4940926E-1],"split_indices":[6,7,3,6,4,11,7,8,1,5,2,6,3,2,2,5,1,5,10,3,5,2,11,1,4,7,2,1,2,5,10,11,5,1,10,6,10,10,0,2,0,1,8,1,5,2,3,9,9,1,6,3,2,4,1,11,5,3,10,1,1,1,5,0,0,0,0,0,0,0,0,0,0,0,0,0,0,0,0,0,0,0,0,0,0,0,0,0,0,0,0,0,0,0,0,0,0,0,0,0,0,0,0,0,0,0,0,0,0,0,0,0,0,0,0,0,0,0,0,0,0,0,0,0,0],"split_type":[0,0,0,0,0,0,0,0,0,0,0,0,0,0,0,0,0,0,0,0,0,0,0,0,0,0,0,0,0,0,0,0,0,0,0,0,0,0,0,0,0,0,0,0,0,0,0,0,0,0,0,0,0,0,0,0,0,0,0,0,0,0,0,0,0,0,0,0,0,0,0,0,0,0,0,0,0,0,0,0,0,0,0,0,0,0,0,0,0,0,0,0,0,0,0,0,0,0,0,0,0,0,0,0,0,0,0,0,0,0,0,0,0,0,0,0,0,0,0,0,0,0,0,0,0],"sum_hessian":[1.068107E5,8.88552E4,1.7955496E4,5.3610947E3,8.349411E4,2.9349192E3,1.5020577E4,4.28932E3,1.0717747E3,2.2564924E3,6.784267E2,3.7226543E4,4.626757E4,1.0474423E3,1.3973135E4,1.8958241E3,2.3934956E3,8.663308E2,1.3901616E3,9.7731744E2,7.012484E1,3.551791E4,1.0749658E4,7.743685E3,6.2294497E3,2.3857805E4,1.3368738E4,6.225066E2,4.4926804E2,3.5226E2,3.261667E2,1.6437075E3,2.5211655E2,2.275737E2,6.387571E2,2.4920225E4,1.0597687E4,3.5075153E2,1.5084815E0,3.1605502E2,1.3321301E2,1.02773905E1,3.1588928E2,5.359301E2,8.657651E1,8.938155E3,4.430583E3,2.296838E4,8.894241E2,1.6574202E2,6.0637075E3,3.7925017E3,3.951183E3,3.5739012E0,6.655094E1,5.138172E3,5.6114863E3,9.41904E2,3.5413433E1,7.210778E2,1.6724177E3,3.2483347E2,1.0653281E3,5.2209924E2,1.1216083E3,2.146077E2,1.2966001E1,1.2471741E2,2.2603412E2,3.0293508E3,1.4012322E3,4.1372356E1,2.8346112E2,5.0250782E1,1.01507733E3,1.6306553E3,4.176247E1,4.3779184E2,2.8328598E2,1.2994323E0,3.4114002E1,8.848259E2,5.7078083E1,3.8821274E3,1.729359E3,1.7154209E3,3.422751E3,8.727469E0,5.782347E1,1.4829819E0,2.0909193E0,2.825292E3,1.1258912E3,1.884167E3,1.9083347E3,5.93251E3,1.3119777E2,4.5161453E1,1.2058057E2,7.9871564E2,9.070843E1,4.9755845E3,3.9625708E3,2.2459355E4,5.090246E2,2.0327944E1,6.6248566E1,1.4926103E2,3.8666907E2,1.0395902E2,2.1193027E2,1.2918571E0,8.985534E0,1.3063811E0,1.3190663E2,8.37409E3,2.2235967E3,2.9909457E2,1.696045E1,1.493424E4,9.985984E3,3.68016E1,2.1531494E2,2.0338537E1,6.184185E2],"tree_param":{"num_deleted":"0","num_feature":"13","num_nodes":"125","size_leaf_vector":"0"}},{"base_weights":[-7.781561E-1,-8.3670306E-1,-5.128284E-1,-5.670394E-1,-8.5545313E-1,-1.8880661E-1,-5.846018E-1,-8.0153424E-1,-4.4212982E-1,-1.398824E-1,-4.2728364E-1,-7.971157E-1,-9.035865E-1,-5.477806E-2,-6.3247275E-1,-8.748409E-1,-6.245933E-1,4.7176734E-2,-2.3070735E-1,-1.4059408E-2,-7.479562E-1,-9.345567E-1,-8.043077E-1,-5.034677E-1,-6.821381E-1,-9.168751E-1,-7.683694E-1,-3.0173147E-1,-3.5537973E-1,-7.180454E-1,-2.5610888E-1,-8.88646E-1,-2.2567995E-1,-2.8719893E-1,3.912383E-1,-9.121152E-1,-9.881319E-1,-8.2527184E-1,2.3509407E-1,4.7998843E-1,-3.5447505E-1,-5.786203E-1,-1.6452266E-1,-2.7436504E-1,-7.789347E-1,-9.3759006E-1,-7.5210524E-1,-6.339683E-1,-8.5674983E-1,-3.6085653E-1,-7.2263014E-1,3.5937962E-1,-8.281387E-1,-7.079191E-1,-8.96554E-1,-6.2323034E-1,3.0203044E-2,-2.5603253E-1,-8.821072E-1,-1.8751307E-1,-6.262856E-1,-1.0406298E-1,-2.7185264E-1,1.2702618E-3,-1.932239E-1,-1.2868361E-1,-2.8460625E-1,-2.8395358E-1,-1.6022898E-1,-2.0300221E-1,1.2567538E-1,-6.0285345E-2,1.960591E-1,-2.7281025E-1,7.431599E-2,-2.2527434E-1,1.2349385E-1,1.15597725E-1,-2.561346E-2,-2.2860177E-1,3.5600726E-2,-2.5842735E-1,-2.930398E-1,-1.9247799E-1,-2.8732687E-1,-5.6349624E-2,-2.864751E-1,-1.8497619E-1,-2.632354E-1,1.253858E-2,-1.3531767E-1,-2.0054384E-1,-2.7074727E-1,-2.0746656E-1,-1.3302939E-1,-2.2073054E-1,-2.5718027E-1,-2.624667E-1,-1.4867222E-1,-1.6834794E-1,8.333163E-2,2.6305957E-2,-9.196716E-2,-1.0811691E-1,-2.0823766E-1,-3.314782E-2,-2.1720068E-1,6.418729E-1,-1.2932351E-2,-3.0028328E-1,-2.819911E-1,3.7381026E-1,-1.9093443E-1,-2.8140754E-1,-2.6214683E-1,4.1896108E-1,-2.8563318E-1,9.259222E-2,3.3251876E-1],"categories":[],"categories_nodes":[],"categories_segments":[],"categories_sizes":[],"default_left":[0,0,1,1,1,1,1,0,0,1,1,1,1,1,1,0,1,0,1,0,0,1,0,1,1,1,1,0,0,1,1,1,1,0,1,1,1,0,1,1,1,1,1,0,1,1,0,0,0,1,0,0,0,1,1,1,1,1,1,0,1,0,0,0,0,0,0,0,0,0,0,0,0,0,0,0,0,0,0,0,0,0,0,0,0,0,0,0,0,0,0,0,0,0,0,0,0,0,0,0,0,0,0,0,0,0,0,0,0,0,0,0,0,0,0,0,0,0,0],"id":13,"left_children":[1,3,5,7,11,9,13,15,27,17,29,25,21,19,23,31,57,33,59,55,51,35,53,49,47,45,43,-1,41,37,39,61,115,63,117,113,109,65,111,107,105,103,101,99,95,67,97,93,91,89,87,-1,85,83,81,79,77,75,73,71,69,-1,-1,-1,-1,-1,-1,-1,-1,-1,-1,-1,-1,-1,-1,-1,-1,-1,-1,-1,-1,-1,-1,-1,-1,-1,-1,-1,-1,-1,-1,-1,-1,-1,-1,-1,-1,-1,-1,-1,-1,-1,-1,-1,-1,-1,-1,-1,-1,-1,-1,-1,-1,-1,-1,-1,-1,-1,-1],"loss_changes":[1.303418E3,3.471797E2,3.528125E2,1.3066577E2,1.7980078E2,3.2064857E1,3.150542E2,1.9602417E1,1.4245428E2,3.8852047E1,2.3119995E1,9.937891E1,1.075293E2,2.9076752E1,7.265576E1,9.620056E0,4.329373E1,8.617263E1,2.6181E1,2.6291466E1,9.910213E0,3.1365234E1,7.3885254E1,9.884558E1,6.862598E1,1.8484375E1,1.22180664E2,0E0,1.07815796E2,1.7869751E1,2.1622358E1,9.872925E0,2.9799723E1,3.9519375E1,2.1522285E1,1.7958984E1,3.9404297E0,7.207924E0,1.6887932E1,3.0779762E1,2.3534492E1,2.9164185E1,4.8988262E1,7.8155846E1,7.700098E1,1.7458984E1,1.950299E1,7.0458496E1,1.4684814E1,6.985982E1,1.9964233E1,0E0,4.3249207E0,6.737866E1,1.1220215E1,6.890682E0,3.7356922E1,6.3093376E1,8.52652E0,1.5830112E1,8.240707E0,0E0,0E0,0E0,0E0,0E0,0E0,0E0,0E0,0E0,0E0,0E0,0E0,0E0,0E0,0E0,0E0,0E0,0E0,0E0,0E0,0E0,0E0,0E0,0E0,0E0,0E0,0E0,0E0,0E0,0E0,0E0,0E0,0E0,0E0,0E0,0E0,0E0,0E0,0E0,0E0,0E0,0E0,0E0,0E0,0E0,0E0,0E0,0E0,0E0,0E0,0E0,0E0,0E0,0E0,0E0,0E0,0E0,0E0],"parents":[2147483647,0,0,1,1,2,2,3,3,5,5,4,4,6,6,7,7,9,9,13,13,12,12,14,14,11,11,8,8,10,10,15,15,17,17,21,21,29,29,30,30,28,28,26,26,25,25,24,24,23,23,20,20,22,22,19,19,16,16,18,18,31,31,33,33,37,37,45,45,60,60,59,59,58,58,57,57,56,56,55,55,54,54,53,53,52,52,50,50,49,49,48,48,47,47,44,44,46,46,43,43,42,42,41,41,40,40,39,39,36,36,38,38,35,35,32,32,34,34],"right_children":[2,4,6,8,12,10,14,16,28,18,30,26,22,20,24,32,58,34,60,56,52,36,54,50,48,46,44,-1,42,38,40,62,116,64,118,114,110,66,112,108,106,104,102,100,96,68,98,94,92,90,88,-1,86,84,82,80,78,76,74,72,70,-1,-1,-1,-1,-1,-1,-1,-1,-1,-1,-1,-1,-1,-1,-1,-1,-1,-1,-1,-1,-1,-1,-1,-1,-1,-1,-1,-1,-1,-1,-1,-1,-1,-1,-1,-1,-1,-1,-1,-1,-1,-1,-1,-1,-1,-1,-1,-1,-1,-1,-1,-1,-1,-1,-1,-1,-1,-1],"split_conditions":[8.8543555E4,2.257232E2,2.2E1,2E0,5.8E1,1.2201877E1,1.6442033E2,3.1004E4,1E0,2E0,3.4488875E5,2E0,1.55E2,1.4230023E1,1.2E1,1.398E3,7.62E2,1E0,6.637795E5,4.7410126E1,2.5E1,1.306636E1,3E0,5.1570404E1,1.1606018E1,5.2E1,2.2E1,-3.0173147E-1,7E0,1.258E3,2.1E1,7.599382E0,2E0,5.1220383E1,5.3231384E1,3.596751E4,1.149E3,2.6E1,3.4E1,5.248E3,1.6802214E5,5.00993E1,6.88E2,9.28E2,1.0358809E1,1.4449378E1,3.950595E4,1.141E3,5.06E2,8.1E1,9.984391E0,3.5937962E-1,4.81273E1,9.513203E0,3.9106E4,6E0,4.959825E1,5.86E2,3.07E2,5.411908E1,1.223E3,-1.0406298E-1,-2.7185264E-1,1.2702618E-3,-1.932239E-1,-1.2868361E-1,-2.8460625E-1,-2.8395358E-1,-1.6022898E-1,-2.0300221E-1,1.2567538E-1,-6.0285345E-2,1.960591E-1,-2.7281025E-1,7.431599E-2,-2.2527434E-1,1.2349385E-1,1.15597725E-1,-2.561346E-2,-2.2860177E-1,3.5600726E-2,-2.5842735E-1,-2.930398E-1,-1.9247799E-1,-2.8732687E-1,-5.6349624E-2,-2.864751E-1,-1.8497619E-1,-2.632354E-1,1.253858E-2,-1.3531767E-1,-2.0054384E-1,-2.7074727E-1,-2.0746656E-1,-1.3302939E-1,-2.2073054E-1,-2.5718027E-1,-2.624667E-1,-1.4867222E-1,-1.6834794E-1,8.333163E-2,2.6305957E-2,-9.196716E-2,-1.0811691E-1,-2.0823766E-1,-3.314782E-2,-2.1720068E-1,6.418729E-1,-1.2932351E-2,-3.0028328E-1,-2.819911E-1,3.7381026E-1,-1.9093443E-1,-2.8140754E-1,-2.6214683E-1,4.1896108E-1,-2.8563318E-1,9.259222E-2,3.3251876E-1],"split_indices":[6,7,3,8,4,2,7,5,3,11,6,8,3,2,9,10,10,11,7,1,3,2,11,1,2,4,3,0,9,10,3,2,11,1,1,6,10,4,4,5,7,1,10,10,2,2,6,10,10,3,2,0,1,2,5,11,1,10,3,1,10,0,0,0,0,0,0,0,0,0,0,0,0,0,0,0,0,0,0,0,0,0,0,0,0,0,0,0,0,0,0,0,0,0,0,0,0,0,0,0,0,0,0,0,0,0,0,0,0,0,0,0,0,0,0,0,0,0,0],"split_type":[0,0,0,0,0,0,0,0,0,0,0,0,0,0,0,0,0,0,0,0,0,0,0,0,0,0,0,0,0,0,0,0,0,0,0,0,0,0,0,0,0,0,0,0,0,0,0,0,0,0,0,0,0,0,0,0,0,0,0,0,0,0,0,0,0,0,0,0,0,0,0,0,0,0,0,0,0,0,0,0,0,0,0,0,0,0,0,0,0,0,0,0,0,0,0,0,0,0,0,0,0,0,0,0,0,0,0,0,0,0,0,0,0,0,0,0,0,0,0],"sum_hessian":[8.3933516E4,6.8759055E4,1.5174458E4,4.472105E3,6.4286945E4,2.7523896E3,1.2422068E4,1.5523788E3,2.9197263E3,2.285168E3,4.6722174E2,2.9070834E4,3.5216113E4,1.0295396E3,1.1392529E4,1.0948413E3,4.5753748E2,7.470521E2,1.5381157E3,9.733815E2,5.6158066E1,2.683613E4,8.379982E3,3.169896E3,8.222633E3,5.621266E3,2.3449568E4,3.8802377E2,2.5317026E3,1.719494E2,2.9527234E2,1.071682E3,2.3159355E1,3.7894263E2,3.681095E2,1.8926324E4,7.909806E3,1.546821E2,1.72673E1,3.434924E1,2.609231E2,1.165922E3,1.3657806E3,4.9157947E2,2.2957988E4,4.9893164E3,6.3194965E2,6.4483643E3,1.7742687E3,1.9219261E3,1.2479698E3,1.6707938E0,5.4487274E1,4.1022236E3,4.277759E3,6.504916E1,9.083324E2,1.8901228E2,2.685252E2,1.3880273E3,1.5008844E2,3.424017E1,1.0374419E3,2.0914247E2,1.6980016E2,3.7792866E1,1.1688924E2,4.8800645E3,1.092518E2,1.4352196E2,6.566478E0,1.3669475E3,2.1079817E1,2.6238943E2,6.1357846E0,1.0848143E2,8.053085E1,2.2246774E2,6.858646E2,5.477597E1,1.0273188E1,2.9834219E3,1.2943369E3,3.2444631E3,8.5776056E2,9.415396E0,4.5071877E1,7.436193E2,5.0435052E2,3.5184998E2,1.5700762E3,3.4985898E2,1.4244097E3,4.949749E3,1.4986151E3,1.4808169E4,8.1498193E3,4.2575815E2,2.0619148E2,3.2351883E2,1.6806065E2,4.9218884E2,8.735918E2,4.0494907E2,7.6097296E2,1.5794083E2,1.0298227E2,7.491455E0,2.6857784E1,6.2321084E3,1.6776978E3,7.795392E0,9.471908E0,1.1274289E4,7.652035E3,6.8778143E0,1.6281542E1,3.313743E2,3.673519E1],"tree_param":{"num_deleted":"0","num_feature":"13","num_nodes":"119","size_leaf_vector":"0"}},{"base_weights":[-7.166509E-1,-7.969021E-1,-4.6780804E-1,-5.136009E-1,-8.1837106E-1,-5.4322386E-1,-1.8457791E-1,-7.49591E-1,-3.9062685E-1,-6.445477E-2,-5.9020245E-1,-9.5898515E-1,-7.902445E-1,-1.2463939E-1,-6.34531E-1,-8.34553E-1,-5.615502E-1,-2.621577E-1,9.5162116E-2,